{
  "comparison_policy": {
    "components_alignment": "first-k-prefix",
    "sign_resolver": "max_abs_element_positive",
    "tolerance_table_row": "pls4all-numpy-svd"
  },
  "data": {
    "X": {
      "dtype": "f64",
      "layout": "row_major",
      "rng_seed": 31,
      "shape": [
        14,
        6
      ],
      "values": [
        -0.39530128858657,
        0.2639148850157296,
        0.6071282687955677,
        -0.9721597997272025,
        0.7676642531398922,
        0.25505812177433956,
        0.7829798706300901,
        0.27241823407236765,
        1.1620081255305676,
        -0.9377563787668719,
        1.776099733817743,
        1.2023898441352874,
        -0.5999578484570015,
        0.6601663130603562,
        0.44476738448754977,
        -1.7457635656172505,
        0.5952162456256633,
        -0.5853991209052885,
        -0.25001353358513434,
        -0.6023864391110364,
        -0.4280840067640782,
        0.07173470176248886,
        0.09671912405619901,
        -1.5591518413922796,
        -0.26870603364939344,
        -1.3448111474077982,
        -1.2707778590591046,
        -0.346953600730839,
        0.85530027587691,
        0.6308565040330028,
        -0.6046580474158655,
        -0.7104208239983351,
        -0.8274098970826956,
        0.14274021925565974,
        0.936650038779724,
        0.01804985703847165,
        0.6927666696591163,
        0.3154090546513482,
        1.5041856647552274,
        -2.0066907365561706,
        -2.1310340831936396,
        -0.19843957784596147,
        0.6365395187683154,
        -0.410549281758414,
        0.42578068000505975,
        -1.173544797067956,
        -1.2593832343358193,
        -0.7165758868835466,
        0.8413227181749481,
        0.696358369654102,
        -0.713252712154986,
        0.18111936994597383,
        -0.6475708354871698,
        0.020059810497343504,
        -1.1142963805907677,
        -0.04655434751901477,
        -0.735753934980961,
        -0.04435950785702231,
        -0.6520426060122302,
        -0.8217414802839252,
        0.11343128787139657,
        -0.33779536082531136,
        0.021671175782686587,
        -0.419085181552037,
        0.6137428973723346,
        -0.8156847530495072,
        0.7687510449895725,
        1.331974309444846,
        -0.26888770649361554,
        1.7452430767280316,
        2.029698196865837,
        0.4430750030154757,
        -1.3576051491193484,
        -1.6156939484528159,
        -0.1757786841969012,
        1.7759298264822208,
        0.574549849965791,
        0.7580309194582652,
        -0.2509133097904481,
        -0.7441468728010533,
        0.37192110436980064,
        -1.1087787163755936,
        -0.19694438865759697,
        0.511152295497356
      ]
    },
    "Y": {
      "dtype": "f64",
      "layout": "row_major",
      "rng_seed": 31,
      "shape": [
        14,
        3
      ],
      "values": [
        0.15238310733489943,
        0.7922448322014123,
        -0.14998714422999515,
        0.921848259786445,
        1.2224570207039416,
        0.17970500439613596,
        -0.0864182067584584,
        0.7560131076805942,
        -0.49216917974219837,
        0.47608738559999364,
        -0.9059588698110561,
        -0.5928154142295451,
        0.5731038029956708,
        -0.27302657742497005,
        -0.6868615256463252,
        0.39482956399290153,
        -0.2833818187001942,
        -0.7385950302165387,
        -0.817161245919384,
        0.6859693821052925,
        1.2405390481516305,
        -0.17887780532371753,
        -0.15948343895894318,
        0.5425080570655231,
        -0.41928246234686667,
        -0.1645669141183219,
        0.0368398956817723,
        -0.6045837863189908,
        -0.41130062041399496,
        -0.545048783653401,
        0.6024233315172504,
        -0.26181722171120614,
        -0.3349883822672379,
        0.6050747340092919,
        0.16133621894659264,
        -0.5019002062577644,
        0.39459024939920184,
        -0.5669376278136606,
        -0.019488654126101908,
        0.005791937332584016,
        0.37019461041974666,
        0.22822119897056967
      ]
    }
  },
  "expected": {
    "coefficients": {
      "shape": [
        6,
        3
      ],
      "values": [
        -0.018481999535775062,
        0.19709185851886935,
        0.17585492265252634,
        0.031048040619214755,
        0.196289250551573,
        -0.09290046976010846,
        -0.05928383157857224,
        0.31108138397674756,
        0.3338604795567923,
        0.04131784867447655,
        -0.15838549873502364,
        0.005128675719457286,
        0.2927617604365911,
        0.1362524792132092,
        -0.34224873945976614,
        0.11292084181131118,
        0.2204116217409028,
        0.30016187663989163
      ]
    },
    "intercept": {
      "shape": [
        3
      ],
      "values": [
        0.1442720618072015,
        0.0686958630789452,
        -0.13100293686453404
      ]
    },
    "loadings_P": {
      "shape": [
        6,
        3
      ],
      "sign_invariant": true,
      "values": [
        0.42360984730064016,
        0.2347502830023406,
        -0.06316235992884457,
        0.3392326187857787,
        0.25070018511605907,
        -0.6767798407951006,
        0.5879167116651817,
        0.1892395309152202,
        0.1322078422220361,
        -0.5381010276867156,
        0.17492803037715077,
        0.23551385337998051,
        -0.3406302823042857,
        0.6774282541153946,
        -0.368877335879291,
        -0.018679680865061107,
        0.6604689545298493,
        0.6870146234219713
      ]
    },
    "predict_train": {
      "shape": [
        14,
        3
      ],
      "values": [
        0.2923319974417875,
        0.5157364476352136,
        -0.11646506009319058,
        0.6415499314726708,
        1.2630037335845499,
        0.21459751145345027,
        0.14068770069342676,
        0.4164573590006072,
        -0.4406934229591507,
        -0.03403653765179279,
        -0.6043380724259418,
        -0.6656249060751468,
        0.4452980644936425,
        -0.36352256216093837,
        -0.4856963884123444,
        0.41976970690399285,
        -0.3688344484703192,
        -0.6649588886422365,
        -0.7219418431824906,
        0.6882950920686862,
        1.2202325838184274,
        -0.4484088107734516,
        0.07184673533380877,
        0.46817659186516625,
        -0.032031429206063944,
        0.0063146911324958935,
        0.039743814477683076,
        -0.12330207940192758,
        -0.6823868966054085,
        -0.4949593649199904,
        0.1558361972522297,
        -0.028805898412369094,
        -0.43244401389770804,
        0.8588962631230008,
        0.46529715700155805,
        -0.6650084112091628,
        0.4119775998819287,
        -0.6371294086015489,
        -0.14129559778502762,
        0.013182104253868232,
        0.219808154024839,
        0.33035443627575356
      ]
    },
    "rotations_R": {
      "shape": [
        6,
        3
      ],
      "sign_invariant": true,
      "values": [
        0.3295985685486441,
        0.16731491225849443,
        0.09141115823351836,
        0.29020979956624304,
        0.14724110946995855,
        -0.4162146511968017,
        0.6166813644177797,
        0.2515209271343154,
        0.2270038326454077,
        -0.4881326225791,
        -0.010859951183083312,
        0.41017476968493927,
        -0.409295509126444,
        0.7767644174630257,
        -0.5873843604170186,
        0.14508921258731494,
        0.5328172438774946,
        0.5542847861692273
      ]
    },
    "scores_T": {
      "shape": [
        14,
        3
      ],
      "sign_invariant": true,
      "values": [
        0.6139808671738309,
        0.7811743492310939,
        -0.3576718717904601,
        1.3842584970061813,
        2.581569097295742,
        0.12449288984402496,
        0.7739963255508598,
        0.05598894701364658,
        -1.436005140396663,
        -0.9918944624959887,
        -1.4077663111233256,
        -0.7860590943360705,
        -1.595524973821684,
        0.2400525931156401,
        0.39429550566984267,
        -1.5355676793331368,
        0.04076502957617138,
        -0.1522215019384673,
        3.2325142968296463,
        -0.965148566176569,
        0.8025283235887777,
        1.3336178679013404,
        -1.225310346724761,
        0.3320324384138822,
        0.26170527996517756,
        -0.4207607408588494,
        0.18131054953867518,
        -0.9646567224507034,
        -1.59992750900053,
        -0.38446419798510045,
        -0.21454564097714762,
        -0.25549748281526374,
        -0.652394210528609,
        -0.7640546483120717,
        1.931024753734049,
        -0.5303391082552724,
        -2.1280067745075546,
        0.1656284562367273,
        1.7230386070354713,
        0.5941777674712491,
        0.0782077304962294,
        0.7414568111399679
      ]
    },
    "weights_W": {
      "shape": [
        6,
        3
      ],
      "sign_invariant": true,
      "values": [
        0.32959856854864394,
        0.16149196683602546,
        0.0607970417036615,
        0.29020979956624293,
        0.1421140367663934,
        -0.44318261062654285,
        0.6166813644177794,
        0.24062615309488122,
        0.16004789748775233,
        -0.4881326225790998,
        -0.0022362194941962918,
        0.49277792680743376,
        -0.4092955091264439,
        0.7839953512070633,
        -0.3945230169127164,
        0.14508921258731483,
        0.5302539846679503,
        0.6130245246689003
      ]
    },
    "x_mean": {
      "shape": [
        6
      ],
      "values": [
        -0.0718328915072207,
        -0.1622940754267878,
        0.008394114499579833,
        -0.3455946492911835,
        0.23990467627240267,
        -0.06130859320792619
      ]
    },
    "x_scale": {
      "shape": [
        6
      ],
      "values": [
        0.7286359317618913,
        0.8178119972578738,
        0.7910246173542064,
        1.1228254257398225,
        1.135025503670494,
        0.7623945695825703
      ]
    },
    "y_loadings_Q": {
      "shape": [
        3,
        3
      ],
      "sign_invariant": true,
      "values": [
        -0.3202899852984678,
        0.5540216784685492,
        -0.1461707458762891,
        0.4909741282309195,
        0.49969425458043015,
        -0.11243449036396645,
        0.5583835616150893,
        -0.09042697166347284,
        0.6875091230627141
      ]
    },
    "y_mean": {
      "shape": [
        3
      ],
      "values": [
        0.1442720618072015,
        0.0686958630789452,
        -0.13100293686453404
      ]
    },
    "y_scale": {
      "shape": [
        3
      ],
      "values": [
        0.5133541227404326,
        0.6107014117258426,
        0.5528778195427242
      ]
    }
  },
  "fixture_id": "synthetic_svd_small_pls2_v1",
  "generator": {
    "git_revision_sha": "unknown",
    "name": "pls4all_parity.suites._svd_pls_expected",
    "params": {
      "algorithm": "svd",
      "deflation_mode": "regression",
      "n_components": 3,
      "reference": "NumPy SVD with regression deflation",
      "scale": true
    },
    "version": "1"
  },
  "schema_version": 1
}
