{
  "comparison_policy": {
    "components_alignment": "first-k-prefix",
    "sign_resolver": "max_abs_element_positive",
    "tolerance_table_row": "pls-r-oscorespls"
  },
  "data": {
    "X": {
      "dtype": "f64",
      "layout": "row_major",
      "rng_seed": 71,
      "shape": [
        13,
        7
      ],
      "values": [
        0.04872092360793993,
        0.518163511364593,
        -0.11009940097747317,
        -0.08903376282316156,
        0.5025036488002448,
        0.5105738622580861,
        0.34507567321047217,
        -1.4208372310792416,
        -0.5697726964036604,
        -0.3065754986173485,
        0.7395539747542056,
        0.04545522359670289,
        -0.39387005649746554,
        0.37759472695835417,
        0.3258944803651886,
        -1.1415613852737718,
        0.5414602008133512,
        -0.4247086091937014,
        0.21265631867212226,
        0.4614742868969503,
        -0.9584651407408522,
        1.2063082654617954,
        -1.009986452221805,
        0.8593730636461929,
        0.642045414052714,
        -0.17440564854539298,
        1.2201077699777043,
        -0.6178118887567168,
        -1.3640138400473272,
        0.021701970986227198,
        -0.9355947539560452,
        -0.07422322283232272,
        0.2685922317345075,
        1.5210650855250079,
        -0.22893947971375198,
        0.10297728890027924,
        0.6583266429227536,
        0.7939301383624278,
        -0.11635640334131406,
        0.906027316137103,
        -1.0007978198756755,
        -0.5254555856405817,
        -0.6878044419031117,
        -0.3192591794962764,
        0.5993637911121711,
        0.019070795630601007,
        0.9518969519040564,
        -1.35335178475947,
        -0.5711071288628408,
        0.7486174504241858,
        -0.1396112429733396,
        -0.3699210406198054,
        -1.9281774534910587,
        0.6268024236698467,
        -1.0874694727133918,
        0.4138473432454312,
        -1.0303705944293096,
        -0.5407230036600799,
        1.4969026998572235,
        -1.0131771372938931,
        -0.9171861450467816,
        -0.21792397984913311,
        -1.815965619770489,
        -0.012320639276566995,
        0.025208269292086586,
        -0.2993553096888652,
        -0.8431467617817483,
        -0.10252751558770164,
        -0.6760656485172905,
        -0.35648676262711093,
        -0.8273131300237603,
        0.5594516712110733,
        -0.41618161757368805,
        0.9196897414103776,
        -0.8695139139539845,
        -0.3010582763816328,
        -0.7113582341270167,
        0.42039150050069357,
        1.096912847677868,
        0.7305814044668544,
        1.5651866017214282,
        0.5025708238643681,
        -1.5536410230758098,
        0.1794176251857665,
        1.0023841664453432,
        0.668058047755868,
        0.07020885523011063,
        0.13534301312061703,
        0.11222742710913708,
        -1.7653272886141715,
        -0.8340529984473163
      ]
    },
    "Y": {
      "dtype": "f64",
      "layout": "row_major",
      "rng_seed": 71,
      "shape": [
        13,
        3
      ],
      "values": [
        -0.05478331870898527,
        0.4311873852764379,
        -0.0657106895630555,
        0.04693720085498297,
        -0.1930881146870984,
        -0.1885336966307674,
        0.4570803542380775,
        0.2532691075939157,
        0.140339932281889,
        0.6731124662388321,
        -0.13833308490811347,
        0.8163221331434216,
        -0.8735751638775743,
        1.0097203852296532,
        -0.4873969184330146,
        0.3440093616209549,
        0.08115367455380548,
        -0.4125669000492362,
        0.6350271156478637,
        -0.08483892623171797,
        -0.5954072307486356,
        0.4885406376428758,
        -0.0038656834395691033,
        -0.4330762599926537,
        -0.4132860143699085,
        0.9226122023891029,
        -0.04234988267323766,
        -0.17476709381483685,
        -0.008026748970773667,
        -0.35483963939180085,
        -0.9392858374250209,
        -0.35423484463936167,
        -0.3976665526202241,
        0.5857293512926786,
        -0.9955765461359255,
        -0.15280552246333426,
        0.10022579899188924,
        -1.0097303855733994,
        -0.5575082173806463
      ]
    }
  },
  "expected": {
    "coefficients": {
      "shape": [
        7,
        3
      ],
      "values": [
        0.31572182327540255,
        -0.28523117209044613,
        0.17919319035622572,
        -0.18505794564303454,
        -0.17259177280426882,
        -0.21809585709570142,
        0.3356493168238037,
        -0.05277109301257888,
        0.19903799391260432,
        0.009073378481525741,
        -0.33951069847213244,
        0.13172459267525485,
        0.3635644813110301,
        0.07076232773638093,
        -0.14671192155212592,
        -0.09080487842285612,
        0.19478901810534308,
        0.10492893841163405,
        0.08383654941379856,
        -0.14927773832520966,
        -0.02958364040010908
      ]
    },
    "intercept": {
      "shape": [
        3
      ],
      "values": [
        0.06730498910244838,
        -0.006903967657157215,
        -0.21009226496317654
      ]
    },
    "loadings_P": {
      "shape": [
        7,
        3
      ],
      "sign_invariant": true,
      "values": [
        -0.43825241001807375,
        -0.5098441585648866,
        0.05642267038733667,
        -0.44507438551232176,
        0.543551120483305,
        0.26367350248958,
        -0.1029264525351016,
        -0.6424352117784489,
        0.04866678062526301,
        -0.16679336460106306,
        0.051978063676205374,
        0.8325477259855503,
        -0.4809766622649225,
        0.003145318889620736,
        -0.5520431569607642,
        0.5573895785566683,
        -0.19896283267751882,
        0.09207806590407874,
        -0.3112517972970458,
        0.3427196140392577,
        -0.1022980774082582
      ]
    },
    "predict_train": {
      "shape": [
        13,
        3
      ],
      "values": [
        0.023818333619732283,
        -0.02974582871410081,
        -0.3480093338838852,
        -0.3785633528877498,
        0.09286873777468767,
        -0.33284051397167563,
        0.42391910718271525,
        0.4217474789784243,
        0.22504146268224587,
        0.6128718527080662,
        -0.1615016221228211,
        0.6842155952106992,
        -0.8322041440732361,
        0.7633974570571667,
        -0.4979107821692972,
        0.5291633973835488,
        -0.24373613137232286,
        -0.38455367380507777,
        0.44119201460469726,
        0.05621819529854517,
        -0.37630815684987656,
        0.45868751314733863,
        0.20951670565066977,
        -0.5610611440932497,
        -0.22108686080757167,
        0.7699845386270189,
        0.08346202211894735,
        -0.14562626340803736,
        0.16953171414293952,
        -0.40343318287346674,
        -0.8676736631941081,
        -0.21080185328205853,
        -0.29466094990312214,
        0.5048209931070857,
        -1.2189869717919297,
        -0.23410736907669644,
        0.32564593094934774,
        -0.7082439997892634,
        -0.2910334179068403
      ]
    },
    "rotations_R": {
      "shape": [
        7,
        3
      ],
      "sign_invariant": true,
      "values": [
        -0.4976069533663295,
        -0.5730416932582214,
        0.2761018031488892,
        -0.24268051483334552,
        0.5482003491196845,
        0.11757806688519752,
        -0.1567765155482857,
        -0.5691835495654286,
        -0.05248149917008363,
        -0.24696274049254735,
        -0.1327788516194884,
        0.7531030039603216,
        -0.4037078747699686,
        -0.08807373330486447,
        -0.5972843200086984,
        0.6189081835884603,
        -0.22187257933854215,
        0.03079872890168178,
        -0.24879033099901213,
        0.021106999031655298,
        0.03502820989573439
      ]
    },
    "scores_T": {
      "shape": [
        13,
        3
      ],
      "sign_invariant": true,
      "values": [
        -0.20766978779457573,
        0.37146569007272146,
        -0.1635607959677332,
        0.5923329742703066,
        0.7731627373856642,
        0.3342026999788861,
        0.840633505565323,
        -1.6075053156109547,
        -0.4625035295827133,
        0.5208710635236083,
        -2.5900089632470658,
        1.1344642918572048,
        1.941274478353764,
        1.383282859968867,
        -0.37855367181799826,
        -1.3288136376106159,
        -0.06595167875385698,
        -0.7211331259863047,
        -0.753611331750739,
        -0.11686559315592797,
        -1.0692582967027096,
        -0.8806047303997178,
        0.20195979064308392,
        -1.7300858935511023,
        2.052456997464275,
        -0.6646383840071484,
        -0.25553948354095607,
        0.2336145045200079,
        0.6093951927901634,
        -0.32986223346066484,
        0.9497835122138705,
        1.4291467206127186,
        1.752406092546376,
        -2.4300468061378786,
        0.08451232912267269,
        1.2873241378684028,
        -1.5302207422176295,
        0.19204461417906282,
        0.6020998083593134
      ]
    },
    "weights_W": {
      "shape": [
        7,
        3
      ],
      "sign_invariant": true,
      "values": [
        -0.4976069533663297,
        -0.4898795699591335,
        0.1802674122532006,
        -0.24268051483334563,
        0.588758116169212,
        0.1552331778342118,
        -0.15677651554828578,
        -0.5429824126475735,
        -0.12230276347157934,
        -0.2469627404925475,
        -0.09150542138266819,
        0.72100042226876,
        -0.4037078747699687,
        -0.020604410717410974,
        -0.6366108657112786,
        0.6189081835884606,
        -0.3253070637769194,
        0.05469800497139583,
        -0.24879033099901224,
        0.06268586372032682,
        0.0184791673242358
      ]
    },
    "x_mean": {
      "shape": [
        7
      ],
      "values": [
        -0.11441275392722246,
        -0.01331469221680488,
        0.20416096400423894,
        -0.03599490846671206,
        0.1588537801810945,
        -0.3566372573558686,
        -0.40797749769897335
      ]
    },
    "x_scale": {
      "shape": [
        7
      ],
      "values": [
        0.8777229969779549,
        0.6907043349863057,
        0.6855598429837639,
        0.9091792949491375,
        0.5821764401997859,
        1.0375744067760408,
        0.6378896231340186
      ]
    },
    "y_loadings_Q": {
      "shape": [
        3,
        3
      ],
      "sign_invariant": true,
      "values": [
        -0.4778518871195314,
        -0.587591509381903,
        -0.2402111951806571,
        0.5669963054848495,
        -0.004454573478681724,
        -0.4974443560077831,
        0.1893701695550704,
        -0.7177824967407586,
        0.3553447694085
      ]
    },
    "y_mean": {
      "shape": [
        3
      ],
      "values": [
        0.06730498910244838,
        -0.006903967657157215,
        -0.21009226496317654
      ]
    },
    "y_scale": {
      "shape": [
        3
      ],
      "values": [
        0.5453176360287849,
        0.6004643429094311,
        0.37881134527928584
      ]
    }
  },
  "fixture_id": "synthetic_oscores_small_pls2_v1",
  "generator": {
    "git_revision_sha": "unknown",
    "name": "pls4all_parity.suites._orthogonal_scores_expected",
    "params": {
      "algorithm": "oscorespls",
      "deflation_mode": "regression",
      "n_components": 3,
      "reference": "NumPy port of R pls oscorespls.fit recurrence",
      "scale": true
    },
    "version": "1"
  },
  "schema_version": 1
}
