{
  "comparison_policy": {
    "components_alignment": "first-k-prefix",
    "sign_resolver": "max_abs_element_positive",
    "tolerance_table_row": "sklearn/PLSSVD"
  },
  "data": {
    "X": {
      "dtype": "f64",
      "layout": "row_major",
      "rng_seed": 33,
      "shape": [
        15,
        7
      ],
      "values": [
        0.3983699672639724,
        -0.562823337417525,
        0.5888349437484451,
        0.04211810294245316,
        -1.5709005193070567,
        1.0016547499330197,
        -0.09787618745319536,
        0.6198022056116699,
        1.8368321511859722,
        0.26842997179099165,
        -1.0744686765137588,
        -0.6809789689138194,
        1.0168262786662374,
        -1.4567682446941592,
        0.263589274161203,
        0.37526449952140556,
        -1.1503043956147625,
        0.16926391115467035,
        0.5562221905801784,
        -0.7727903663112561,
        -0.4804890274981144,
        0.5437745277754829,
        -1.2988967633304254,
        -0.8801545730426948,
        0.953869714905892,
        0.08562352640763704,
        -1.4161606644236349,
        0.01137579091362322,
        1.9412344663394707,
        -1.5131565070530062,
        0.8159111373637555,
        0.758735643657171,
        -0.17678484296782707,
        0.6052823566039809,
        -0.6741008980551186,
        1.5447455552606693,
        1.720163790215574,
        -0.8800106812664471,
        -0.21365388182735084,
        0.13188319385781538,
        -0.6253683073007082,
        0.35270090519586267,
        -1.0375881917404224,
        0.5773811315010503,
        -0.30066598575303066,
        -0.048793115103774425,
        0.4711216566297669,
        0.9262511840314005,
        -0.9836953494033327,
        0.7893147035282182,
        0.8790770832985197,
        -0.11516803706649689,
        1.5377178734517838,
        -0.7645990389536811,
        -0.5454217791251623,
        0.3820581038576382,
        -0.6803090890388749,
        1.392697598795611,
        0.1980143815764703,
        1.7195246055176676,
        -1.0541457058969668,
        -0.949459937583348,
        1.3357128962295164,
        -1.0480837571269705,
        1.0756192625505039,
        -0.8072109650210115,
        0.2650493845083663,
        1.1657336468564208,
        -0.059243072296730724,
        -1.1466572916715045,
        -0.487075102852321,
        1.1385127272998041,
        0.19461823662700853,
        0.7087190992309403,
        0.08802235847403816,
        0.289385926683049,
        -0.18700231813620521,
        -1.0125825774640973,
        0.5470979195205691,
        0.18633644783829717,
        -1.9782157922344892,
        0.009607273972998908,
        0.9758106606493567,
        1.9359549417882846,
        -1.35145266321319,
        0.11670363752793989,
        0.5613536311951702,
        0.7614289468518992,
        -0.6939648485861353,
        0.5148183431017955,
        -0.413657734263018,
        -0.041730834118117524,
        -0.5295783849332435,
        0.3114429504642793,
        -0.3855342682211277,
        0.30602404137249317,
        -0.08113008100643211,
        0.9197116202883528,
        1.68596926900123,
        -0.0749104907576902,
        -0.7302666852135526,
        -0.22673497283624144,
        -0.5302294644508242,
        -1.6558696925227048,
        0.028118274300169752
      ]
    },
    "Y": {
      "dtype": "f64",
      "layout": "row_major",
      "rng_seed": 33,
      "shape": [
        15,
        3
      ],
      "values": [
        -0.5853934303203467,
        0.13153751207577571,
        1.2283861819003752,
        -1.3357764828989875,
        0.9844808699614941,
        0.8367394069073651,
        0.09964313807557662,
        -0.6240648782679238,
        -0.7546789773565381,
        0.9552226775309901,
        -1.615920637295848,
        -0.4639231525637691,
        0.988974796062495,
        -0.719368500217217,
        1.3718420390179245,
        -0.11837020601045302,
        0.024611527101315867,
        -0.5738741064639665,
        -0.7442683236041762,
        0.47461711173844584,
        -0.1350631896336332,
        -0.3177006932975483,
        -0.5054363756710847,
        0.22207754389568785,
        -0.8011524526437933,
        -0.06322078223589363,
        -0.25090419149927856,
        -0.3584193500306152,
        0.05747988891974418,
        -0.7798988308604899,
        -0.621992379237672,
        0.41897793043882653,
        0.07681399678886676,
        -0.4457417021205829,
        1.852851506460451,
        -0.5999227689826446,
        -0.8713210360066557,
        0.21952957529008824,
        0.5267159123132701,
        0.5386487265450368,
        0.19803360160525219,
        -0.24760025059727242,
        0.4404442515938998,
        -1.1063814676438186,
        -0.2154240246370004
      ]
    }
  },
  "expected": {
    "coefficients": {
      "shape": [
        7,
        3
      ],
      "values": [
        0.28344490243748544,
        -0.21259598149755493,
        0.18902787361164827,
        -0.48581020887347437,
        0.08629859396039821,
        -0.21172118196103581,
        -0.029084549212084553,
        0.39939878246742283,
        0.6499835309396768,
        -0.14769876296695156,
        -0.5629373906195521,
        0.09120855237769913,
        0.34827230685939825,
        0.24320579833456293,
        -0.48602518857580046,
        -0.13010937839697226,
        0.49192658939953743,
        0.28286807898010713,
        0.21400033765334436,
        0.2857285249197176,
        -0.1919703948984619
      ]
    },
    "intercept": {
      "shape": [
        3
      ],
      "values": [
        -0.21181349775752215,
        -0.0181515411826928,
        0.016085705881926468
      ]
    },
    "loadings_P": {
      "shape": [
        7,
        3
      ],
      "sign_invariant": true,
      "values": [
        -0.4046421017887376,
        0.33891615733144625,
        -0.05076457301501694,
        0.2899913881381117,
        -0.43315234449026824,
        0.4886217258505702,
        0.47971608757066153,
        0.5617715311911016,
        -0.25085494373274697,
        -0.3187330064881025,
        0.22923593775801304,
        0.6982044847361066,
        -0.17680794060509958,
        -0.547781762726629,
        -0.22028120261470985,
        0.6497521824252749,
        0.2185580991948623,
        -0.36795265231854873,
        -0.006347375160614462,
        -0.13705826847229854,
        -0.33930279347584347
      ]
    },
    "predict_train": {
      "shape": [
        15,
        3
      ],
      "values": [
        -0.31563719869565715,
        0.37629129617136764,
        1.6957209221324847,
        -1.227255459375376,
        0.872524815575173,
        0.7520539688815325,
        0.1120406652648179,
        -0.7451760326367972,
        -1.1095033542839006,
        0.9061111519039544,
        -1.5734099595486963,
        -0.5026190343351625,
        0.8847048670512438,
        -0.3670177059758974,
        1.7224500675046228,
        -0.11815639626578048,
        -0.3705828115656653,
        -0.9233190537534519,
        -0.7058520969764353,
        0.6823148205112392,
        -0.24732588926280197,
        -0.52093073477946,
        -1.1333149385573278,
        0.22152608945063718,
        -1.0671610805131904,
        -0.7505053927374089,
        -0.10150838194941618,
        -0.647235443935791,
        -0.013863780233640212,
        -1.2404981060739146,
        -0.8287723171673207,
        0.20626178392386502,
        -0.017943254325021564,
        0.04438192361808904,
        2.7014016964996777,
        -0.4177838322356851,
        -0.9460016517132501,
        0.2745960770620234,
        0.7655277213341327,
        0.6270247248527658,
        0.8172575867244114,
        -0.02767945002520001,
        0.6255365803685574,
        -1.249050572952716,
        -0.32781282482995855
      ]
    },
    "rotations_R": {
      "shape": [
        7,
        3
      ],
      "sign_invariant": true,
      "values": [
        -0.3871253340506036,
        0.4132009375138692,
        -0.1758876313988266,
        0.4384024827329023,
        -0.437869704981152,
        0.5000974948900961,
        0.40405509847200477,
        0.4902847462845492,
        -0.19560486732277677,
        -0.3000304848319478,
        0.24473316283424834,
        0.560583262718244,
        -0.21648805782048214,
        -0.4696116959840214,
        -0.38439120502306223,
        0.597652153065828,
        0.1987069030504122,
        -0.2232339854841043,
        -0.024561131834987628,
        -0.2779245849908644,
        -0.41092720449146314
      ]
    },
    "scores_T": {
      "shape": [
        15,
        3
      ],
      "sign_invariant": true,
      "values": [
        1.1304862534032165,
        2.1879750349482228,
        -0.2834807275440114,
        1.9957150914777697,
        0.532735495209114,
        0.40905322574079367,
        -1.3882071779298102,
        -1.2747795144356868,
        0.25944311195634934,
        -2.573224573247076,
        -0.01572907723720083,
        -0.029305217008022362,
        -0.589818876324111,
        2.7099800502351186,
        -1.0555548425535135,
        -0.778506685567399,
        -1.1774215432777622,
        0.2193973875408449,
        0.9446035321006869,
        -0.6790637992887593,
        0.03178999686895768,
        -0.5985436868603141,
        0.5394017889654892,
        1.1824614072118933,
        0.0941250438434408,
        -0.1415781671198325,
        1.5180531397281951,
        -0.12152545541810605,
        -1.8388663624642942,
        0.5554297230950559,
        0.7395449978499494,
        -0.2505770690668432,
        0.5181991805166217,
        1.9388810163164982,
        -1.3339607248740766,
        -2.3332299686946767,
        1.2292958379394072,
        0.7882167561788165,
        0.5507815208230357,
        -0.05686405372149314,
        -0.11552205764221725,
        -1.5687698034446511,
        -1.9659612638626585,
        0.06918918986991125,
        0.025731865763128334
      ]
    },
    "weights_W": {
      "shape": [
        7,
        3
      ],
      "sign_invariant": true,
      "values": [
        -0.3871253340506036,
        0.4132009375138692,
        -0.1758876313988266,
        0.4384024827329023,
        -0.437869704981152,
        0.5000974948900961,
        0.40405509847200477,
        0.4902847462845492,
        -0.19560486732277677,
        -0.3000304848319478,
        0.24473316283424834,
        0.560583262718244,
        -0.21648805782048214,
        -0.4696116959840214,
        -0.38439120502306223,
        0.597652153065828,
        0.1987069030504122,
        -0.2232339854841043,
        -0.024561131834987628,
        -0.2779245849908644,
        -0.41092720449146314
      ]
    },
    "x_mean": {
      "shape": [
        7
      ],
      "values": [
        0.1418651835591948,
        0.3786656211950039,
        -0.11592264149157191,
        0.19926843836560673,
        -0.17715770006166412,
        -0.05169429339340916,
        -0.031640967906746656
      ]
    },
    "x_scale": {
      "shape": [
        7
      ],
      "values": [
        1.0675371630695905,
        1.0251965259783395,
        0.630627631690978,
        0.952811504786624,
        0.705437830814753,
        0.9050342081550435,
        0.9234943852779274
      ]
    },
    "y_loadings_Q": {
      "shape": [
        3,
        3
      ],
      "sign_invariant": true,
      "values": [
        -0.6238806402748783,
        0.15408597662023205,
        -0.7661791295116288,
        0.7272319729521199,
        -0.2445517749654261,
        -0.6413486468976339,
        0.2861932986748203,
        0.9573149644554028,
        -0.04051486916400231
      ]
    },
    "y_mean": {
      "shape": [
        3
      ],
      "values": [
        -0.21181349775752215,
        -0.0181515411826928,
        0.016085705881926468
      ]
    },
    "y_scale": {
      "shape": [
        3
      ],
      "values": [
        0.687778232400234,
        0.8412760550352356,
        0.6913205626288356
      ]
    }
  },
  "fixture_id": "synthetic_pls_svd_small_v1",
  "generator": {
    "git_revision_sha": "unknown",
    "name": "pls4all_parity.suites._pls_svd_expected",
    "params": {
      "algorithm": "pls-svd",
      "deflation_mode": "canonical",
      "n_components": 3,
      "reference": "NumPy mirror of sklearn PLSSVD cross-covariance SVD",
      "scale": true
    },
    "version": "1"
  },
  "schema_version": 1
}
