{
  "comparison_policy": {
    "components_alignment": "first-k-prefix",
    "sign_resolver": "max_abs_element_positive",
    "tolerance_table_row": "pls4all-numpy-opls-da-binary"
  },
  "data": {
    "X": {
      "dtype": "f64",
      "layout": "row_major",
      "rng_seed": 122,
      "shape": [
        20,
        7
      ],
      "values": [
        -1.1565862451622626,
        1.2562098131157766,
        -0.47561335755040446,
        -0.9066467622032162,
        -0.23183064153731336,
        -0.5198862154848464,
        -0.2616834031418719,
        -0.37335149882049884,
        -0.17241595469168433,
        0.1995343374980841,
        -0.29101781248526076,
        0.696741009105145,
        -0.3135250118461732,
        -0.07996803091932053,
        0.39212652500744777,
        0.159664102929699,
        -0.1584627936332735,
        0.25317242136031837,
        -0.1693483462263415,
        0.10318575076669739,
        -0.2585111752977594,
        0.15192643813394097,
        -0.3770553871395423,
        0.8654385305571896,
        0.17228004924647808,
        -0.36349415672183916,
        -0.09890599244216416,
        0.5981386377381355,
        -0.28851867312991164,
        0.5595106584444552,
        -0.5438745495311038,
        -0.2756054189921096,
        0.1398361451070918,
        -0.18270060890675344,
        -0.4988639109681956,
        0.3448829924083582,
        -0.7520394127211245,
        -0.03186050018163273,
        0.14586955522712922,
        1.0693627234621017,
        -0.02906667149238883,
        -0.21516260274698573,
        -0.20181833584697778,
        0.04374402726807651,
        0.2640771856145963,
        -0.14237229488328004,
        0.13513163242953186,
        -0.2664769273457333,
        0.031655821634448564,
        0.02968620927413531,
        -0.2348933428428021,
        -0.25461332116232477,
        0.05710827152221226,
        0.4048895359525226,
        0.03546221493501628,
        -0.16576424462934247,
        -0.5412976399052661,
        -0.09027049394514162,
        0.2904386686626946,
        -0.38415577360266034,
        0.6063331386701994,
        -0.48033921853424455,
        5.459793320825024e-05,
        -0.2909234231667401,
        -0.2490018483421542,
        -0.1275333378994034,
        -0.14884402224792273,
        0.1410336652080504,
        0.18723750747460993,
        0.3794711683852944,
        0.2573584866158456,
        -0.22248996554594674,
        0.3909913771213329,
        0.21643385485694827,
        0.1745811558085488,
        -0.14901176975181768,
        -0.08230949878320039,
        0.722114727294086,
        -0.23698925633533427,
        -0.37461350598565546,
        0.47619560247197723,
        0.11707944382563142,
        0.26133936313871514,
        -0.44619541173867466,
        0.564425009628219,
        -0.17393795397829293,
        0.07873968103133532,
        0.3497526050499857,
        0.2117789295365976,
        0.08688476186310531,
        -0.30278131163289596,
        -0.10072421050325972,
        -0.05392245272368257,
        0.2450177349817201,
        -0.07297223370516771,
        0.2731755316334972,
        -0.2546913710131877,
        -0.04314762780463774,
        -0.9988943068526638,
        1.483805585527098,
        -1.3777648279744794,
        -0.8284031391520598,
        -0.13793555424067738,
        -0.2219522461838195,
        -0.6383722975980333,
        -0.11277427381921509,
        -0.11388392729556172,
        0.284682997552163,
        -0.021128958644930536,
        0.13002714173396618,
        -0.23043643233336292,
        0.15654118933780176,
        0.1749105242633905,
        -0.2133636313526664,
        0.2917348766935945,
        0.3099473271155135,
        -0.7146918626841475,
        0.46539279134452066,
        0.7317508642809,
        -0.753530911385368,
        1.4238745760748044,
        -0.7456096358938229,
        -0.7387440173513493,
        -0.012330562753330741,
        -0.6907515373219899,
        -0.8999763080914196,
        0.9054464434341332,
        -0.9816276328560526,
        0.10162060494958468,
        0.73788089563304,
        -0.06292402200327996,
        0.7113806691467904,
        0.41240622186248366,
        -0.24081572732912376,
        0.7465065465625402,
        0.2856799941299732,
        -0.25502249095194335,
        -0.01887859476856296,
        -0.7406557367843682,
        -0.6035592798938073
      ]
    },
    "Y": {
      "dtype": "f64",
      "layout": "row_major",
      "rng_seed": 122,
      "shape": [
        20,
        1
      ],
      "values": [
        0.0,
        1.0,
        1.0,
        1.0,
        0.0,
        1.0,
        0.0,
        0.0,
        0.0,
        1.0,
        1.0,
        1.0,
        1.0,
        0.0,
        0.0,
        1.0,
        1.0,
        0.0,
        1.0,
        0.0
      ]
    }
  },
  "expected": {
    "coefficients": {
      "shape": [
        7,
        1
      ],
      "values": [
        0.20074597994724555,
        -0.08742646493321157,
        0.03691884431670949,
        0.15549954321550596,
        0.044964875312845945,
        0.32437499153950733,
        0.16774006858942123
      ]
    },
    "intercept": {
      "shape": [
        1
      ],
      "values": [
        0.55
      ]
    },
    "loadings_P": {
      "shape": [
        7,
        3
      ],
      "sign_invariant": true,
      "values": [
        0.4483263247625948,
        -0.09117064453859852,
        -0.2496863544597852,
        -0.45385052587824465,
        -0.29485381621533147,
        -0.4819004274958476,
        0.2656950527644643,
        0.7800357738609585,
        -0.5361415364288042,
        0.472540037755278,
        -0.03613073580645171,
        -0.3037443739576496,
        -0.0012701577366244865,
        0.3151618537650896,
        1.6886892918975072,
        0.4308519277198303,
        -0.4194601037214388,
        0.10245826875213015,
        0.33755198301636485,
        0.3516051388101294,
        -0.17867499027061562
      ]
    },
    "predict_train": {
      "shape": [
        20,
        1
      ],
      "values": [
        -0.08776573365213447,
        0.4541933579134626,
        0.7165100117979875,
        0.8098480730635368,
        0.3293136566201573,
        0.7947919446621328,
        0.5039593242733957,
        0.663618775964542,
        0.3574177961877731,
        0.7019829848746895,
        0.7006528917068101,
        0.8768298859797066,
        0.8084631357376153,
        0.540362754253653,
        -0.059468658153570386,
        0.587638835393155,
        0.9900427435555436,
        -0.157993422964672,
        1.318918256800317,
        0.15068338598589964
      ]
    },
    "rotations_R": {
      "shape": [
        7,
        3
      ],
      "sign_invariant": true,
      "values": [
        0.5829490072411418,
        -0.2522750831603743,
        0.31881721749856407,
        -0.3150275868283865,
        -0.2556637885468893,
        0.309177986700157,
        0.09761632899867889,
        0.7018739921667748,
        -0.08864709200719711,
        0.3601767691384566,
        -0.02282571597401879,
        -0.4913244274735704,
        0.09365853888343688,
        0.16253708887478874,
        0.6252604989938086,
        0.6319432744289075,
        -0.5619711820224386,
        0.33389946834920026,
        0.37737607204171525,
        0.18872011225313934,
        0.32600296592060984
      ]
    },
    "scores_T": {
      "shape": [
        20,
        3
      ],
      "sign_invariant": true,
      "values": [
        -3.4225208408680015,
        -0.10793526082262878,
        -0.12138277332726444,
        -0.514138988554702,
        1.151287705736793,
        0.6869558369460889,
        0.8935631933819587,
        -0.9588961478593242,
        -0.41495611586743986,
        1.3944547325028096,
        1.4374597951550816,
        -0.7282231450901318,
        -1.1842963170618375,
        -0.8510599143912817,
        0.08762313268050448,
        1.313657175472729,
        0.33924919092400435,
        1.1443024899776262,
        -0.24707375120265887,
        0.8153355624803298,
        -0.06789862691101456,
        0.6097264373640054,
        -0.37924149572454446,
        0.365192036748636,
        -1.033477609957557,
        1.5891187639599142,
        0.47865768986696855,
        0.8156050188087899,
        -0.13247632794710498,
        0.5199120672417161,
        0.808467175950261,
        0.6478359572164984,
        -0.26825916425590285,
        1.7539074885358805,
        -1.4907791356754525,
        -0.1572364807760092,
        1.3870225726811796,
        -0.4145023990684246,
        -0.05512384654564356,
        -0.05171753933307156,
        0.7804612711899872,
        0.04616901718192387,
        -3.270666757904247,
        -2.1488339183254825,
        0.28192931031406354,
        0.20198592016129996,
        0.85507293048605,
        -0.10769968847306796,
        2.361455596034029,
        -0.4205664804521892,
        -0.6356341793982119,
        -3.7993923433580736,
        -0.6840938629416256,
        -0.24917109771944768,
        4.126340786221027,
        -1.0136850885159827,
        0.0159622262409711,
        -2.1429019488738223,
        0.9862488545753831,
        -0.8211186888343679
      ]
    },
    "weights_W": {
      "shape": [
        7,
        3
      ],
      "sign_invariant": true,
      "values": [
        0.45368309052951794,
        -0.2522750831603743,
        0.2595401277652505,
        -0.44281629724828336,
        -0.2556637885468893,
        0.24910465268159815,
        0.27297072767557373,
        0.7018739921667748,
        0.07627227733337359,
        0.468552611856779,
        -0.02282571597401879,
        -0.49668778717231205,
        -0.014801985801343393,
        0.16253708887478874,
        0.6634518474279206,
        0.4308511442139275,
        -0.5619711820224386,
        0.20185306976332187,
        0.3437717335082249,
        0.18872011225313934,
        0.3703465407531619
      ]
    },
    "x_mean": {
      "shape": [
        7
      ],
      "values": [
        -0.07581789449308655,
        0.09007120250762317,
        -0.0395994920509916,
        -0.06731361708681491,
        0.1194268155768696,
        -0.1163758340385697,
        -0.10931383010369362
      ]
    },
    "x_scale": {
      "shape": [
        7
      ],
      "values": [
        0.5411264842630643,
        0.6714609310807961,
        0.4927078183039282,
        0.43162009947272967,
        0.3881405928842328,
        0.3630327557356733,
        0.4192302610831119
      ]
    },
    "y_loadings_Q": {
      "shape": [
        1,
        3
      ],
      "sign_invariant": true,
      "values": [
        0.3650810417185958,
        0.0,
        0.0
      ]
    },
    "y_mean": {
      "shape": [
        1
      ],
      "values": [
        0.55
      ]
    },
    "y_scale": {
      "shape": [
        1
      ],
      "values": [
        0.5104177855340405
      ]
    }
  },
  "fixture_id": "synthetic_opls_da_binary_v1",
  "generator": {
    "git_revision_sha": "unknown",
    "name": "pls4all_parity.suites._opls_expected",
    "params": {
      "algorithm": "opls-da-binary",
      "deflation_mode": "orthogonal",
      "n_components": 3,
      "reference": "NumPy OPLS1 NIPALS recurrence on one-column dummy Y",
      "scale": true
    },
    "version": "1"
  },
  "schema_version": 1
}
