{
  "comparison_policy": {
    "components_alignment": "first-k-prefix",
    "sign_resolver": "max_abs_element_positive",
    "tolerance_table_row": "pls4all-numpy-randomized-svd"
  },
  "data": {
    "X": {
      "dtype": "f64",
      "layout": "row_major",
      "rng_seed": 91,
      "shape": [
        15,
        7
      ],
      "values": [
        0.12270753200673153,
        0.7244880006198942,
        -1.3121242344129518,
        -0.5085528216073648,
        0.5991518378102496,
        -0.215596401426908,
        -0.3042841264605309,
        -0.24154592636386565,
        -0.6209153385090906,
        -0.5923230811971889,
        0.6590720511731919,
        0.7402391974435752,
        0.07876254290959635,
        1.4088561820930752,
        -0.8337356349005199,
        0.5983734586897698,
        0.8722845436578432,
        1.8483440835780385,
        0.5129315971336146,
        -0.14803395649907558,
        0.6762484261605846,
        0.07300879776944619,
        0.536223259439379,
        1.0261996673320541,
        0.25106252273488716,
        0.00443514016721738,
        0.48077753267907225,
        0.4302505823694685,
        -0.45971079472643034,
        -0.7542165226585738,
        1.2899913461261492,
        0.814894305626709,
        0.5459787023005306,
        0.5968289516257079,
        1.5279445230841366,
        0.4863925850624354,
        -0.24690144483874873,
        1.0465547385810312,
        0.743838367628005,
        1.4382988630759312,
        1.4877102857840871,
        -0.160831670779697,
        -0.6364523459956367,
        -1.3037222513855788,
        1.0782114557621434,
        -1.9902864130247395,
        1.5431748870147217,
        -1.7182240079810955,
        0.06534987137506755,
        0.3821859376581871,
        1.6990227663956226,
        0.6419355811972891,
        -1.2556802841359371,
        0.6361624449940093,
        -1.8673605083314673,
        -0.24784224334276345,
        -0.8023675912009159,
        -0.44384475100920057,
        -1.200783530423025,
        1.3026388684171852,
        0.010797804650688825,
        -1.0681719167476231,
        -1.2763298890327388,
        0.620366173120614,
        1.0965054637380653,
        -0.2691843186089197,
        -0.07991591234813054,
        -0.19662004930119847,
        0.7166596817590122,
        0.876510332312646,
        1.2456232370391918,
        0.657477225603097,
        0.2881224360809927,
        -1.3685189605978032,
        1.6192276851623981,
        -0.7398480112905865,
        0.9164426953489718,
        -1.5589779141681668,
        -0.2565669863779643,
        -0.2109511186132726,
        0.11213455148124499,
        -0.07637478244360346,
        -0.9040649633664005,
        -0.21767771931287855,
        1.6949324948450828,
        -0.6094589641972953,
        -0.237826556790981,
        -0.427838205826571,
        1.0682886872578667,
        0.5120090860131277,
        -0.7671518270728557,
        0.41544695779146057,
        0.9566205915072261,
        0.0800121347529937,
        1.8162966443528015,
        0.10066321023970999,
        1.3131757391276158,
        0.03339056914360055,
        0.9853596358914366,
        -0.6037284083078552,
        -0.81175659608669,
        0.9968942039713286,
        -0.10274317246889923,
        -0.9166831641064652,
        1.0493570841442614
      ]
    },
    "Y": {
      "dtype": "f64",
      "layout": "row_major",
      "rng_seed": 91,
      "shape": [
        15,
        3
      ],
      "values": [
        -0.9399945752699232,
        0.24380616779357575,
        -1.1490804956547327,
        0.6601711587698968,
        -0.3272861947523764,
        0.07172994117220644,
        0.5885697503805878,
        0.31046928529819573,
        0.2751289374652812,
        0.36339965037384114,
        0.5313778904518726,
        0.6185940191324396,
        1.2139538665077407,
        0.16470511664417828,
        1.117798278446527,
        0.5645825245898781,
        0.8613157621254618,
        0.48147049193350283,
        -1.1088067757158382,
        0.23722844855127256,
        -0.63514046095322,
        -1.517325652177111,
        0.5271295610731586,
        -0.7719958368314446,
        -0.35954857575327553,
        -0.8200000728393105,
        -1.1217709648272236,
        0.22491972735556892,
        0.3152740440055472,
        0.33728331918163973,
        -0.6162723745994401,
        0.5009679578901054,
        -0.44219594997797557,
        -0.5820542746096049,
        -0.0657722726706452,
        -0.5516996298423583,
        0.020232036859094832,
        0.022592931759828773,
        -0.2720903078902681,
        0.8209427444097344,
        0.4720098337088219,
        0.47347479243526047,
        1.0219211815773748,
        -1.2882729624610205,
        0.17941685644602173
      ]
    }
  },
  "expected": {
    "coefficients": {
      "shape": [
        7,
        3
      ],
      "values": [
        0.1420356698308174,
        -0.08082467356139354,
        0.11697256648308615,
        -0.30506954702638983,
        0.40532661272824433,
        -0.07229871621707512,
        0.08607832028325535,
        0.32904223165499585,
        0.2592726577548226,
        0.32612324684236077,
        -0.10951844434022148,
        0.17991372703050335,
        -0.25896396436344765,
        0.2387668730503079,
        -0.03567960685090832,
        0.25587871658113814,
        0.21004460387653567,
        0.2842299714910123,
        0.4768197577894134,
        -0.11931246347940196,
        0.3485409666894621
      ]
    },
    "intercept": {
      "shape": [
        3
      ],
      "values": [
        0.02364602751323496,
        0.11236969977191108,
        -0.09260513398428957
      ]
    },
    "loadings_P": {
      "shape": [
        7,
        3
      ],
      "sign_invariant": true,
      "values": [
        0.046375240623310256,
        0.29426832772723704,
        -0.317848806549152,
        -0.014687141419896157,
        0.30414868856857447,
        0.6757192348286651,
        0.25219756686310985,
        0.6369238309624919,
        -0.07495146912871112,
        0.5474808588873119,
        -0.4452893031875604,
        0.3128507326860991,
        -0.19348574813079672,
        0.5692371846157489,
        -0.4636271406308458,
        0.6319342444905666,
        0.1256766017077908,
        0.19727693876133875,
        0.46405171424113073,
        0.08506389610663939,
        -0.47250288846469346
      ]
    },
    "predict_train": {
      "shape": [
        15,
        3
      ],
      "values": [
        -0.8131752331987832,
        0.03879044840084801,
        -0.8477022002137389,
        0.8439210528036829,
        -0.4770116397252259,
        0.27938884485970517,
        0.5532715580112536,
        0.40223096705364986,
        0.4039690231343894,
        0.36864495346224285,
        0.5693458419567728,
        0.3781894296752557,
        1.3060960247748543,
        0.1371118353229875,
        0.9752625757941783,
        0.4332194139577406,
        0.7956260111901317,
        0.6061219491330839,
        -1.0324391022092103,
        0.09254092241954023,
        -0.7686431897560502,
        -1.5543974591182326,
        0.7927740557978713,
        -0.9667212426027842,
        -0.5171744801109565,
        -0.7253012806691741,
        -1.076848849523669,
        0.38122868348966316,
        0.3105114580968942,
        0.2360604811565891,
        -0.592187653054733,
        0.5293969663115787,
        -0.2112571998890965,
        -0.4154685923071315,
        -0.2448155341643553,
        -0.7177049824128758,
        -0.22013520397622546,
        0.035751070944691016,
        -0.24555436393250327,
        0.7168886504234993,
        0.47447612551964996,
        0.5189748270242263,
        0.89639779975086,
        -1.0458817518771932,
        0.047387887788946564
      ]
    },
    "rotations_R": {
      "shape": [
        7,
        3
      ],
      "sign_invariant": true,
      "values": [
        0.09516673098426533,
        0.07918407609012709,
        -0.5105616009734923,
        -0.09775071728509811,
        0.4678403635497414,
        0.7121420452854189,
        0.31599098440338574,
        0.6213005309309293,
        0.008030371756832955,
        0.5044484303825314,
        -0.37413735238760637,
        0.018968693892144665,
        -0.16177225241361717,
        0.43033471961980807,
        -0.11654182536105394,
        0.6009161249088298,
        0.24886753439851672,
        0.35244613411932735,
        0.4896928819351756,
        -0.04883651460805967,
        -0.4817253032589026
      ]
    },
    "scores_T": {
      "shape": [
        15,
        3
      ],
      "sign_invariant": true,
      "values": [
        -1.291545570741201,
        -0.4045890829353093,
        0.8033512837303192,
        0.7791516286423257,
        -0.9723972541321144,
        -1.0327519963178544,
        1.1151955523642831,
        0.14290850562071428,
        0.76907232266455,
        0.925757734265244,
        0.6378855050437471,
        0.6199755193088543,
        1.9555780062030448,
        0.22474727433612887,
        -0.8534165508090819,
        1.1401023300557318,
        1.3733043245937813,
        0.16293460774121865,
        -1.816474652644697,
        0.8885739922252007,
        -1.3620521857457626,
        -1.9281487411103746,
        1.4282994124506492,
        0.8636483840127871,
        -1.358769947336394,
        -2.1950071333599195,
        0.8007155453957365,
        0.7628258472853766,
        0.05948883441531616,
        0.6011042216774545,
        -0.7814572651824601,
        1.6007056444676788,
        -1.0119119204827596,
        -0.8597586322837698,
        -1.1439598738133288,
        0.8278344661864606,
        -0.5162587221491818,
        0.28422288544658986,
        -0.7804967361946297,
        1.476237705347106,
        -0.0007295671500046515,
        1.2928710150330165,
        0.39756472728496617,
        -1.9234534672091277,
        -1.7008779762003097
      ]
    },
    "weights_W": {
      "shape": [
        7,
        3
      ],
      "sign_invariant": true,
      "values": [
        0.09516673098426527,
        0.07676553460810223,
        -0.5271820769574429,
        -0.09775071728509803,
        0.4703245737585674,
        0.5345046638144362,
        0.31599098440338574,
        0.6132700217832334,
        -0.17421872048145498,
        0.5044484303825313,
        -0.3869572679379706,
        0.21233338675010752,
        -0.16177225241361715,
        0.43444595575302813,
        -0.2885871737669461,
        0.6009161249088297,
        0.23359601503162838,
        0.3365359237389964,
        0.48969288193517546,
        -0.06128143665343666,
        -0.4054715866381194
      ]
    },
    "x_mean": {
      "shape": [
        7
      ],
      "values": [
        0.09954887625527006,
        0.09529040658058309,
        0.11255749782383113,
        0.1942922000948564,
        0.562907470202454,
        -0.15947060732342683,
        0.2673488526686898
      ]
    },
    "x_scale": {
      "shape": [
        7
      ],
      "values": [
        0.8722389089805601,
        0.8529130932407338,
        0.8616507817375594,
        1.147230811499924,
        0.6209674675133228,
        1.0274549606957808,
        0.8039751642570804
      ]
    },
    "y_loadings_Q": {
      "shape": [
        3,
        3
      ],
      "sign_invariant": true,
      "values": [
        0.7295820065205998,
        -0.22541624304427696,
        -0.19002371548928487,
        0.10301161038453213,
        0.7595075942607147,
        0.3841670047543207,
        0.733955336068569,
        0.16285156739365605,
        -0.1349300113850195
      ]
    },
    "y_mean": {
      "shape": [
        3
      ],
      "values": [
        0.02364602751323496,
        0.11236969977191108,
        -0.09260513398428957
      ]
    },
    "y_scale": {
      "shape": [
        3
      ],
      "values": [
        0.8337005081670538,
        0.5586390545559304,
        0.6728595481218806
      ]
    }
  },
  "fixture_id": "synthetic_randomized_svd_small_pls2_v1",
  "generator": {
    "git_revision_sha": "unknown",
    "name": "pls4all_parity.suites._randomized_svd_pls_expected",
    "params": {
      "algorithm": "randomized-svd",
      "deflation_mode": "regression",
      "n_components": 3,
      "random_seed": 123456789,
      "reference": "NumPy mirror of SplitMix64-seeded randomized SVD PLS",
      "scale": true
    },
    "version": "1"
  },
  "schema_version": 1
}
