{
  "comparison_policy": {
    "components_alignment": "first-k-prefix",
    "sign_resolver": "max_abs_element_positive",
    "tolerance_table_row": "pls4all-numpy-opls"
  },
  "data": {
    "X": {
      "dtype": "f64",
      "layout": "row_major",
      "rng_seed": 120,
      "shape": [
        14,
        6
      ],
      "values": [
        -0.44465772091464,
        -0.11026598263892672,
        -0.7775869187286547,
        0.016616261262829057,
        -0.15863182692215447,
        -0.598336703340803,
        0.6093448145800058,
        -0.3144488805449691,
        -0.48926592749727305,
        0.6451909420991846,
        -0.16191842166498957,
        -0.15533216017585758,
        -0.14335212269182526,
        -0.7435547726852648,
        -0.5626202155401392,
        0.23094897306710482,
        -0.57324132028065,
        -0.3394473790591448,
        -0.5741208398099058,
        -0.20751239926392798,
        -0.05006486741627948,
        -0.35229048005215036,
        -0.2975765669536794,
        -0.14861273574460934,
        0.9400781406073248,
        -0.6989691184927236,
        0.6101725516851754,
        0.6967541864496692,
        -0.40117931354763586,
        0.5992518945931004,
        -0.7842344984094147,
        -0.32933680153917594,
        -0.253521335572986,
        -0.4001790293695374,
        -0.37565413469826847,
        -0.32663963024381837,
        -0.22096126656092,
        0.2840046206574495,
        -0.4032106819779532,
        -0.07169299182078136,
        0.20475774873546798,
        -0.3427913486190997,
        1.023404331176615,
        0.22023011791135283,
        0.9283860052553468,
        0.39127876383612054,
        0.27984279936741197,
        0.7562029702158286,
        -0.364413866307805,
        0.5297271988449571,
        0.0634281131120254,
        -0.4582730946736144,
        0.32723867075281066,
        -0.06592665283165561,
        0.16405821087443598,
        0.1756906881527201,
        -0.15505544963084855,
        0.13493817178401488,
        0.16566952529239198,
        -0.04112040594483934,
        -0.3406460703837913,
        0.08475156852565911,
        -0.27576507533398004,
        -0.21039959709052689,
        0.005465049672589722,
        -0.2708151875062422,
        0.6562585930866921,
        -0.44938095459605276,
        0.4241727708668684,
        0.46938951244626215,
        -0.23971545876809655,
        0.38360689571411305,
        0.4976024994846693,
        1.0167184877482893,
        0.5404372769710749,
        -0.044887024246534096,
        0.8337898955375399,
        0.42323925699791765,
        -0.5661295333488817,
        -0.020529943037882203,
        0.08707768450776229,
        -0.498408221099807,
        -0.0707572632184195,
        -0.08574204037102981
      ]
    },
    "Y": {
      "dtype": "f64",
      "layout": "row_major",
      "rng_seed": 120,
      "shape": [
        14,
        1
      ],
      "values": [
        -0.7481578507322459,
        1.148816497644132,
        -0.04273277907079577,
        -0.857933414187567,
        2.194198258623889,
        -1.228577555131942,
        -0.5491359555863831,
        1.8446669483604161,
        -0.9912104616438963,
        0.17545545252086475,
        -0.7406198411073239,
        1.5333203481755466,
        0.44859576489748276,
        -1.0437420621637634
      ]
    }
  },
  "expected": {
    "coefficients": {
      "shape": [
        6,
        1
      ],
      "values": [
        0.6747872048649903,
        -0.3205584286775838,
        0.353565782110996,
        1.0744358657741357,
        -0.14369776015319163,
        0.6859496918542957
      ]
    },
    "intercept": {
      "shape": [
        1
      ],
      "values": [
        0.08163881075702954
      ]
    },
    "loadings_P": {
      "shape": [
        6,
        2
      ],
      "sign_invariant": true,
      "values": [
        0.5657611088300912,
        0.10804249392404683,
        -0.1611745742733464,
        0.5936030508187291,
        0.380601135576198,
        0.476558439421371,
        0.5262606533178136,
        -0.2491622906908768,
        -0.02612617547656911,
        0.6004865239923549,
        0.4834144060825123,
        0.375026117901166
      ]
    },
    "predict_train": {
      "shape": [
        14,
        1
      ],
      "values": [
        -0.8910061315922496,
        0.9673285665193672,
        0.05877222134013048,
        -0.757878695216575,
        2.3098775653799315,
        -1.0948952066952193,
        -0.7058884040882365,
        1.8655427778831,
        -0.9595098248015218,
        0.11093786921587007,
        -0.7487389389495714,
        1.5571766434419132,
        0.341622494149961,
        -0.9103975859884869
      ]
    },
    "rotations_R": {
      "shape": [
        6,
        2
      ],
      "sign_invariant": true,
      "values": [
        0.5967239533532219,
        -0.0944589480314454,
        -0.22340928203580104,
        0.4415690558143764,
        0.25601315417017445,
        0.5375888490688471,
        0.633089937093122,
        -0.46456164906254366,
        -0.07732735716903709,
        0.40038403551088825,
        0.4008143053266582,
        0.36189446496061667
      ]
    },
    "scores_T": {
      "shape": [
        14,
        2
      ],
      "sign_invariant": true,
      "values": [
        -1.419346260475181,
        -1.4460852740237167,
        1.2924556413629327,
        -1.8131596833787236,
        -0.03336840275990682,
        -2.3084449760352164,
        -1.225078115174316,
        -0.047584709135734204,
        3.2515897694188367,
        -0.6662049259394169,
        -1.7168743549514311,
        -0.5384688032243843,
        -1.1492105276497366,
        0.01628607601787503,
        2.6031877764887286,
        1.7481438700821317,
        -1.519311269855144,
        1.5993694494829613,
        0.042755076645497575,
        0.1174553522891385,
        -1.2117407930803015,
        -0.0029514505718417627,
        2.153200015570404,
        -0.35071939092929655,
        0.37938496643702224,
        2.948535395600506,
        -1.4476435219774058,
        0.7438290697657188
      ]
    },
    "weights_W": {
      "shape": [
        6,
        2
      ],
      "sign_invariant": true,
      "values": [
        0.5780773610724305,
        -0.0944589480314454,
        -0.13624169951261145,
        0.4415690558143764,
        0.3621354463637063,
        0.5375888490688471,
        0.5413835202857106,
        -0.46456164906254366,
        0.001710129712820497,
        0.40038403551088825,
        0.472253789646866,
        0.36189446496061667
      ]
    },
    "x_mean": {
      "shape": [
        6
      ],
      "values": [
        0.032302190813039935,
        -0.040205440782749714,
        -0.022386862092847213,
        0.039213312328016704,
        -0.032993615478262975,
        -0.015175944736867158
      ]
    },
    "x_scale": {
      "shape": [
        6
      ],
      "values": [
        0.6059999765364777,
        0.47759523731929304,
        0.4962014484350393,
        0.4037856571974384,
        0.36876453201474696,
        0.4004210711169603
      ]
    },
    "y_loadings_Q": {
      "shape": [
        1,
        2
      ],
      "sign_invariant": true,
      "values": [
        0.5863634923769142,
        0.0
      ]
    },
    "y_mean": {
      "shape": [
        1
      ],
      "values": [
        0.08163881075702954
      ]
    },
    "y_scale": {
      "shape": [
        1
      ],
      "values": [
        1.1686892577269365
      ]
    }
  },
  "fixture_id": "synthetic_opls_tiny_pls1_v1",
  "generator": {
    "git_revision_sha": "unknown",
    "name": "pls4all_parity.suites._opls_expected",
    "params": {
      "algorithm": "opls-nipals",
      "deflation_mode": "orthogonal",
      "n_components": 2,
      "reference": "NumPy OPLS1 NIPALS recurrence",
      "scale": true
    },
    "version": "1"
  },
  "schema_version": 1
}
