{
  "comparison_policy": {
    "components_alignment": "first-k-prefix",
    "sign_resolver": "max_abs_element_positive",
    "tolerance_table_row": "pls-r-oscorespls"
  },
  "data": {
    "X": {
      "dtype": "f64",
      "layout": "row_major",
      "rng_seed": 70,
      "shape": [
        11,
        5
      ],
      "values": [
        -0.08325633460475997,
        -1.011770661044971,
        0.9063457481120327,
        -0.44527109701139506,
        1.4042788459221098,
        -1.4644480986863468,
        0.46272979416694704,
        -0.019238226079908875,
        0.7217866717167849,
        -0.8325186897089969,
        0.2721561800447542,
        1.5171344334912074,
        -1.1168134675467056,
        -0.41825920619658313,
        1.0413491890416,
        -0.5633414751504645,
        1.521685468152721,
        -0.505275439025418,
        -0.34480754849929696,
        0.9954411684763715,
        0.21405203730508168,
        1.1162061905725307,
        0.7532145504752628,
        -0.8078726859794271,
        1.4949176278909422,
        0.6636958444059439,
        0.8144645649185693,
        0.43841944120304355,
        -1.6163189491249337,
        -0.6319480667952412,
        0.8850761338972787,
        -1.0644430881778673,
        -1.6985579759437641,
        -0.06928407462754223,
        0.5128591721148068,
        1.2539628101579297,
        0.6907988478855992,
        0.1028644756327084,
        0.6724724365732777,
        0.23694391613481797,
        -0.03478744729178604,
        1.340874674770013,
        -0.30456848280155807,
        0.41470018348902915,
        -1.3657406534450798,
        -0.6639539950309665,
        -0.11960257181728387,
        0.7652410534878046,
        0.30473113809176916,
        -0.2551414951802481,
        0.2755549737609677,
        -0.957036928905833,
        1.519698553984784,
        -1.0984677243153784,
        0.035155200006065965
      ]
    },
    "Y": {
      "dtype": "f64",
      "layout": "row_major",
      "rng_seed": 70,
      "shape": [
        11,
        1
      ],
      "values": [
        -0.02800324743131236,
        -0.2695887587605477,
        -1.0733081698905798,
        -1.2429171317652925,
        -0.8423315076973223,
        -0.6160711613964481,
        0.3143294922403117,
        0.5617704873783836,
        -0.0007269646157102988,
        0.1105578975586327,
        0.13514926057485926
      ]
    }
  },
  "expected": {
    "coefficients": {
      "shape": [
        5,
        1
      ],
      "values": [
        0.3986732343435936,
        -0.3833156398021774,
        0.10466527985135698,
        0.4381763914078812,
        -0.22411188266596702
      ]
    },
    "intercept": {
      "shape": [
        1
      ],
      "values": [
        -0.2682854367095478
      ]
    },
    "loadings_P": {
      "shape": [
        5,
        2
      ],
      "sign_invariant": true,
      "values": [
        -0.16261119515801797,
        0.9067537312670383,
        0.7851567248274213,
        0.23414543709785804,
        -0.2019664483039321,
        -0.4883706016358295,
        -0.3975742468024248,
        0.14363398356299217,
        0.44353897144663984,
        0.2666782429270271
      ]
    },
    "predict_train": {
      "shape": [
        11,
        1
      ],
      "values": [
        -0.05302651244415893,
        -0.2530762228234575,
        -0.9992836339833997,
        -1.2276385551036135,
        -0.9454086340764074,
        -0.5610197083307619,
        0.44509529056249025,
        0.49475131304378345,
        -0.06463629592544037,
        0.0592432185173859,
        0.15385993675855336
      ]
    },
    "rotations_R": {
      "shape": [
        5,
        2
      ],
      "sign_invariant": true,
      "values": [
        -0.3223230482380638,
        0.8772500270965418,
        0.7065306843990393,
        0.262111882138015,
        -0.1802809041162012,
        -0.07515362077250304,
        -0.4586552151970479,
        0.40130350145077215,
        0.39250023409004864,
        0.18312076532912333
      ]
    },
    "scores_T": {
      "shape": [
        11,
        2
      ],
      "sign_invariant": true,
      "values": [
        -0.46064227431240357,
        -0.48420795155390306,
        -0.32512188318267843,
        -1.4190153524223883,
        1.3602573717211006,
        0.6785758939552684,
        1.534402931791202,
        -0.29643705762992695,
        1.1774316696317182,
        0.23772907739725344,
        0.45663926074653005,
        -0.14518851298389604,
        -1.0078415804680487,
        0.8506504993955715,
        -0.8630260088239039,
        1.9273388025122273,
        -0.29665865385485696,
        0.2004755995231328,
        -0.719792752338304,
        -0.8262037707137897,
        -0.8556480809103545,
        -0.7237172274795499
      ]
    },
    "weights_W": {
      "shape": [
        5,
        2
      ],
      "sign_invariant": true,
      "values": [
        -0.3223230482380637,
        0.8140089385979596,
        0.7065306843990392,
        0.4007360661152083,
        -0.18028090411620118,
        -0.11052546487158289,
        -0.45865521519704777,
        0.3113134892156272,
        0.3925002340900485,
        0.26013090213283535
      ]
    },
    "x_mean": {
      "shape": [
        5
      ],
      "values": [
        0.06861005716433018,
        0.39191279309196664,
        0.07648456649984375,
        -0.2442355323530632,
        0.23959965585974075
      ]
    },
    "x_scale": {
      "shape": [
        5
      ],
      "values": [
        0.7649346556245885,
        1.0204484578094548,
        0.943563624039447,
        0.7450199825200178,
        0.9483561767347191
      ]
    },
    "y_loadings_Q": {
      "shape": [
        1,
        2
      ],
      "sign_invariant": true,
      "values": [
        -1.0135775556741748,
        0.21414407885433062
      ]
    },
    "y_mean": {
      "shape": [
        1
      ],
      "values": [
        -0.2682854367095478
      ]
    },
    "y_scale": {
      "shape": [
        1
      ],
      "values": [
        0.5926627985980729
      ]
    }
  },
  "fixture_id": "synthetic_oscores_tiny_pls1_v1",
  "generator": {
    "git_revision_sha": "unknown",
    "name": "pls4all_parity.suites._orthogonal_scores_expected",
    "params": {
      "algorithm": "oscorespls",
      "deflation_mode": "regression",
      "n_components": 2,
      "reference": "NumPy port of R pls oscorespls.fit recurrence",
      "scale": true
    },
    "version": "1"
  },
  "schema_version": 1
}
