{
  "comparison_policy": {
    "components_alignment": "first-k-prefix",
    "sign_resolver": "max_abs_element_positive",
    "tolerance_table_row": "pls4all-numpy-randomized-svd"
  },
  "data": {
    "X": {
      "dtype": "f64",
      "layout": "row_major",
      "rng_seed": 90,
      "shape": [
        10,
        5
      ],
      "values": [
        1.814452571729199,
        -0.4782068360256623,
        -0.109290919821088,
        0.5230815980385289,
        -0.31328872960146675,
        0.006803501234722302,
        1.7569771339969886,
        1.2008540177280322,
        0.6489100200082746,
        0.0037353055838503495,
        0.11792765955817501,
        1.5886097926499458,
        0.05658219481888938,
        0.6362590939569572,
        0.6433106759272709,
        -0.6027104764425977,
        1.3340758540824735,
        -0.7983688704063043,
        0.13768619764306997,
        -2.357491762863048,
        1.3745658590630456,
        0.6076073773166644,
        -0.5043517630606473,
        -1.9415765200966832,
        0.4186589857251425,
        0.25218301088665646,
        -0.5633850620868681,
        -1.092830934045095,
        1.4007544185386718,
        1.2276702860484452,
        -1.3977324801945108,
        -1.25167422337282,
        -0.49356590144814455,
        0.4896043528152294,
        -1.3863783624592694,
        -0.2936037077090807,
        0.8263471686120931,
        -0.4252435735202692,
        -0.3373432620640047,
        1.0739977744888154,
        -1.114045343085567,
        -0.5051041422890034,
        0.8227064214774832,
        -2.5219759341578594,
        -0.5242763722999702,
        1.4345261353401968,
        0.16600710986666425,
        -0.7216291667368748,
        -1.6303854073088646,
        -0.6900262613804162
      ]
    },
    "Y": {
      "dtype": "f64",
      "layout": "row_major",
      "rng_seed": 90,
      "shape": [
        10,
        1
      ],
      "values": [
        1.1192922895932313,
        0.14084625855449898,
        -0.2816572253460288,
        -0.36286523717453184,
        -0.42787313398139026,
        0.15894316777697406,
        0.026867480016820232,
        -0.834168626835006,
        -0.9409088980610752,
        -0.07472342406225063
      ]
    }
  },
  "expected": {
    "coefficients": {
      "shape": [
        5,
        1
      ],
      "values": [
        0.42754726186128084,
        -0.24334063063249495,
        0.27621471395024433,
        0.36657582430327995,
        -0.21580313258434053
      ]
    },
    "intercept": {
      "shape": [
        1
      ],
      "values": [
        -0.14762473495187584
      ]
    },
    "loadings_P": {
      "shape": [
        5,
        2
      ],
      "sign_invariant": true,
      "values": [
        0.6376338390147941,
        -0.07698955479417037,
        -0.23203664404933447,
        -0.07470650904572475,
        -0.49799063321670206,
        0.7648962509818085,
        0.6968434143997425,
        0.08939205663662303,
        0.21070258375482473,
        -0.6544091982199154
      ]
    },
    "predict_train": {
      "shape": [
        10,
        1
      ],
      "values": [
        1.1013857302063226,
        0.124211429630676,
        -0.24603173206572138,
        -0.2635324125837786,
        -0.521471653692676,
        0.1716906116193473,
        0.029402599898336823,
        -0.8194214516808132,
        -0.9574216288264712,
        -0.0950588420239809
      ]
    },
    "rotations_R": {
      "shape": [
        5,
        2
      ],
      "sign_invariant": true,
      "values": [
        0.6494785763180115,
        0.3413741526219479,
        -0.2950745731004727,
        -0.2731804425026308,
        -0.10262605500026924,
        0.7596317454657373,
        0.689849186146748,
        0.32250175835993894,
        -0.06844390711563628,
        -0.6051340938125882
      ]
    },
    "scores_T": {
      "shape": [
        10,
        2
      ],
      "sign_invariant": true,
      "values": [
        1.6258589284898886,
        1.0967090724128075,
        -0.22691819078698866,
        1.1711185304971239,
        0.0032712374700821427,
        -0.2973209400969723,
        -0.30997448914866876,
        0.15365347710462857,
        -0.22841691467586184,
        -0.7428429895626456,
        1.2251878852840359,
        -1.0193204977995274,
        0.03645334856636782,
        0.4668858984516166,
        -0.4935261824951331,
        -1.2015160768612916,
        -1.82724657774012,
        0.5301912266130512,
        0.19531095503639775,
        -0.1575577007587907
      ]
    },
    "weights_W": {
      "shape": [
        5,
        2
      ],
      "sign_invariant": true,
      "values": [
        0.6494785763180115,
        0.02425902264968358,
        -0.2950745731004727,
        -0.12910700419040264,
        -0.10262605500026922,
        0.8097400568968077,
        0.689849186146748,
        -0.014324770340019307,
        -0.06844390711563629,
        -0.5717155958171176
      ]
    },
    "x_mean": {
      "shape": [
        5
      ],
      "values": [
        0.1592366730380239,
        0.3481254172750476,
        -0.20651384950140184,
        -0.259498544262668,
        -0.1904088460830646
      ]
    },
    "x_scale": {
      "shape": [
        5
      ],
      "values": [
        1.0907559635542083,
        1.0341928058149772,
        0.7256256788394482,
        1.3144052801016823,
        1.1163528090611703
      ]
    },
    "y_loadings_Q": {
      "shape": [
        1,
        2
      ],
      "sign_invariant": true,
      "values": [
        0.9274784804796059,
        0.5776883736050997
      ]
    },
    "y_mean": {
      "shape": [
        1
      ],
      "values": [
        -0.14762473495187584
      ]
    },
    "y_scale": {
      "shape": [
        1
      ],
      "values": [
        0.5832395068097648
      ]
    }
  },
  "fixture_id": "synthetic_randomized_svd_tiny_pls1_v1",
  "generator": {
    "git_revision_sha": "unknown",
    "name": "pls4all_parity.suites._randomized_svd_pls_expected",
    "params": {
      "algorithm": "randomized-svd",
      "deflation_mode": "regression",
      "n_components": 2,
      "random_seed": 123456789,
      "reference": "NumPy mirror of SplitMix64-seeded randomized SVD PLS",
      "scale": true
    },
    "version": "1"
  },
  "schema_version": 1
}
