{
  "comparison_policy": {
    "components_alignment": "first-k-prefix",
    "sign_resolver": "max_abs_element_positive",
    "tolerance_table_row": "pls4all-numpy-pcr"
  },
  "data": {
    "X": {
      "dtype": "f64",
      "layout": "row_major",
      "rng_seed": 41,
      "shape": [
        16,
        6
      ],
      "values": [
        -1.2316649689147774,
        0.2671189477208684,
        -0.006926123563646536,
        0.5015352951547885,
        -1.3267282928093849,
        1.107768166657506,
        0.0937548811679036,
        -1.1708180763562224,
        -1.3582403949601034,
        -1.3065640246645707,
        -0.7176152818724516,
        1.1856213579293313,
        0.8945337459684365,
        -0.5440478173910653,
        -0.5465879239818061,
        1.9295877402585404,
        0.9027885949894684,
        -0.8033905796046447,
        -0.14971196448317786,
        -0.43029158025002134,
        0.15154145753356082,
        0.8791498586600328,
        -0.27489147947244597,
        0.36928102698558257,
        0.5682654605670364,
        0.7835076560925684,
        -0.6304340955306936,
        -0.221796455744778,
        1.9723534034631014,
        -0.18596806121184997,
        0.029913094799628087,
        0.44094825078674765,
        -0.5772605523613432,
        -0.3897476006393902,
        1.6782279840043126,
        1.2964559909835798,
        -1.1034374089422054,
        0.0651657951870844,
        -1.2894297037907945,
        -1.5317475242426173,
        0.0027364725013915097,
        1.524554203577688,
        -0.08182613481761292,
        1.4702009910257487,
        -1.0568504078749414,
        0.13626829105665683,
        0.08094594493870162,
        0.08619597103012647,
        0.9934001102540754,
        0.5733787615494427,
        -0.5490205679347314,
        -1.3512770677788306,
        -0.5538102761652128,
        -0.020585458484185266,
        -0.5506707019933543,
        -1.5250804770169624,
        -1.763631886148366,
        0.8112818236152496,
        0.25643114886432494,
        -0.5855581432194162,
        0.4408157005034306,
        0.49441833246945965,
        -0.21350892697386348,
        -0.42714517140046665,
        1.1488160535822982,
        0.8532398591206586,
        1.4325295940128009,
        1.0122079867940328,
        0.2584077777588144,
        -0.44913400646498,
        -0.34264115212031465,
        -0.5945685496558906,
        0.06525478330412512,
        0.2091742914513544,
        1.1665877402852103,
        1.3475943515544997,
        -0.0180094929260246,
        0.38995880499595187,
        -1.1755001136755354,
        -0.6776876568181975,
        -1.0862568889472353,
        0.12670397256507956,
        -0.5381069136994969,
        -0.7740989593447065,
        -0.029224067584487097,
        -1.8748778267587487,
        -0.09780754737441409,
        0.4532788188055311,
        1.2325757731766838,
        -1.1779193375561214,
        -0.4363544109001853,
        -2.059247542937338,
        1.3180829310664204,
        -0.21181366174640556,
        0.213565361676973,
        -1.5395155349428966
      ]
    },
    "Y": {
      "dtype": "f64",
      "layout": "row_major",
      "rng_seed": 41,
      "shape": [
        16,
        3
      ],
      "values": [
        -0.9314664670540783,
        -0.49273429187578727,
        0.8877575102178044,
        0.14389560637833804,
        -1.1877553219319548,
        0.4175362474213878,
        -0.618848492273479,
        -0.06331475987933133,
        -0.27840725812509287,
        -0.35224203421660727,
        -0.4707549324378826,
        0.5768400291879681,
        0.3960297845323962,
        1.0319305897620679,
        -1.2609126119937313,
        0.4835741042686268,
        0.4092857611171525,
        -0.40543283852495865,
        -0.11074697011091669,
        -0.10823168583446047,
        -0.11265517007118878,
        -0.657149805368103,
        0.7357585404169401,
        -0.7027072748086911,
        0.47893637488823865,
        0.06494081712950404,
        -0.2864493306046924,
        -1.093802230465191,
        -0.5171581268344106,
        -0.38781497372176515,
        0.5071362632409516,
        0.3091042382350677,
        -0.258854413731167,
        0.48745613387575654,
        0.30913844025758325,
        -0.27366476504213655,
        -0.06726205527261121,
        -0.1785270800304571,
        0.7641885711569715,
        -1.0162779793831387,
        -0.11646663631512381,
        -0.3612358417797168,
        0.21137159950754877,
        -0.1823292881127721,
        -0.48679033695157375,
        0.7257174453062882,
        -0.41484725900135555,
        0.033491014297723415
      ]
    }
  },
  "expected": {
    "coefficients": {
      "shape": [
        6,
        3
      ],
      "values": [
        0.26186301704382986,
        0.28607039219694547,
        -0.1782587822291178,
        0.14624851763667707,
        0.1470071128679765,
        0.021002837590663022,
        0.06591358003383987,
        -0.02327189904362108,
        0.2678152260467262,
        -0.008489817494095159,
        -0.04168401801604829,
        0.0541485741395324,
        0.1319074435716779,
        0.21357621130495208,
        -0.38344311541237475,
        0.0033022176326472615,
        0.010976168733689798,
        0.06593737666270483
      ]
    },
    "intercept": {
      "shape": [
        3
      ],
      "values": [
        -0.08835492013412377,
        -0.05449756220845126,
        -0.13344446519205372
      ]
    },
    "loadings_P": {
      "shape": [
        6,
        3
      ],
      "sign_invariant": true,
      "values": [
        -0.14900789574359793,
        0.6983727455536352,
        0.03128812977818223,
        0.38016419363516535,
        0.5368041835900771,
        0.3182568332564118,
        -0.40139302922683107,
        0.14106283098121383,
        0.6747851339487535,
        -0.5057102442556931,
        -0.060276649203680914,
        0.12819817314383236,
        -0.21092652684487798,
        0.4466241596172517,
        -0.6376535042765962,
        0.6098545876681609,
        0.033341266781481256,
        0.13914704779012857
      ]
    },
    "predict_train": {
      "shape": [
        16,
        3
      ],
      "values": [
        -0.5216820856990709,
        -0.6867273064770191,
        0.8885563822406417,
        -0.3780157029749911,
        -0.2811878277151776,
        -0.0661473964393609,
        0.15654265271594198,
        0.2104944697328121,
        -0.5556063540836809,
        -0.1968081168490352,
        -0.28262366612771694,
        0.2919149891288442,
        0.4211187562043009,
        0.6391590012014052,
        -0.9779194440135626,
        0.20107406407870532,
        0.394010232642853,
        -0.6734742367113196,
        -0.4081689647841051,
        -0.27661529497058934,
        -0.07440858098650055,
        0.07157318416403663,
        0.14816146747039532,
        -0.19923153416749645,
        0.18399643653144282,
        0.237360437364733,
        -0.11792774803110642,
        -0.5206430562055406,
        -0.4078717131398995,
        -0.44288340119414527,
        0.26949088026235757,
        0.3945768650866722,
        -0.4764301618244279,
        0.434687156879943,
        0.40989862608644356,
        -0.04071669682381086,
        0.04988591491973665,
        -0.11517987178105503,
        0.4671001365359531,
        -0.615300762630141,
        -0.6210358680574468,
        0.1228662692973716,
        -0.19560834874714622,
        -0.13198844640725424,
        -0.5297894896035653,
        -0.3658207300124152,
        -0.5023921002443763,
        0.248985823603307
      ]
    },
    "rotations_R": {
      "shape": [
        6,
        3
      ],
      "sign_invariant": true,
      "values": [
        -0.14900789574359768,
        0.6983727455536355,
        0.031288129778182086,
        0.38016419363516496,
        0.536804183590077,
        0.3182568332564117,
        -0.40139302922683084,
        0.1410628309812138,
        0.6747851339487533,
        -0.5057102442556927,
        -0.060276649203681,
        0.12819817314383236,
        -0.2109265268448779,
        0.44662415961725177,
        -0.6376535042765958,
        0.6098545876681608,
        0.03334126678148133,
        0.13914704779012854
      ]
    },
    "scores_T": {
      "shape": [
        16,
        3
      ],
      "sign_invariant": true,
      "values": [
        0.9930196663810648,
        -1.5524811373883085,
        1.6902029402873038,
        1.7084188779541583,
        -0.9040140435946971,
        -0.4070927288356717,
        -1.9538858208193264,
        0.7863569575694783,
        -0.5334493595316173,
        -0.45902124435518116,
        -0.4466879177451976,
        0.8588096027996148,
        -0.08930968201573469,
        1.8331677216377213,
        -1.1465775602328385,
        0.9803058029128029,
        1.1016268344157005,
        -0.8297050026229921,
        2.5261648849302687,
        -0.9636533601881131,
        -0.5060060060077387,
        0.906466930363925,
        0.5967258283553581,
        0.09923183896395912,
        0.9932605954002465,
        0.9715508321594952,
        0.4973242156954867,
        -0.5860028402789913,
        -1.454488083818932,
        -1.515367676791282,
        0.6044991028834237,
        1.2886364922245772,
        -0.21382972990385132,
        -0.20311763041424413,
        1.7504976068368476,
        1.172307042407403,
        -1.0351227097028175,
        0.3373342648533859,
        1.7474966225204807,
        -0.05712306983867005,
        -1.8227005900861266,
        -0.3182421450449568,
        -2.012694595859656,
        -0.4137020486323871,
        -1.1011296581065286,
        -2.3158582675412696,
        -1.108169356598803,
        0.5060276044032301
      ]
    },
    "weights_W": {
      "shape": [
        6,
        3
      ],
      "sign_invariant": true,
      "values": [
        -0.1490078957435977,
        0.6983727455536354,
        0.03128812977818218,
        0.38016419363516507,
        0.5368041835900769,
        0.31825683325641174,
        -0.40139302922683096,
        0.1410628309812138,
        0.6747851339487533,
        -0.5057102442556928,
        -0.06027664920368095,
        0.12819817314383236,
        -0.21092652684487798,
        0.4466241596172517,
        -0.6376535042765957,
        0.6098545876681609,
        0.03334126678148128,
        0.13914704779012854
      ]
    },
    "x_mean": {
      "shape": [
        6
      ],
      "values": [
        -0.014995150045868696,
        -0.18537062277820301,
        -0.39258344454987093,
        0.01851091493677119,
        0.23228986550824526,
        0.07071692232879466
      ]
    },
    "x_scale": {
      "shape": [
        6
      ],
      "values": [
        0.7748868604444228,
        1.0497586117271895,
        0.8572378179522087,
        0.9649175390713252,
        0.9194201942608242,
        0.9421764817584188
      ]
    },
    "y_loadings_Q": {
      "shape": [
        3,
        3
      ],
      "sign_invariant": true,
      "values": [
        -0.022992086315102668,
        0.4680383861164589,
        0.025104498314631775,
        0.03512414977447967,
        0.6054282561912311,
        -0.16069241231638035,
        0.040547010410543156,
        -0.3775379776201936,
        0.7124455772616709
      ]
    },
    "y_mean": {
      "shape": [
        3
      ],
      "values": [
        -0.08835492013412377,
        -0.05449756220845126,
        -0.13344446519205372
      ]
    },
    "y_scale": {
      "shape": [
        3
      ],
      "values": [
        0.6128917982459112,
        0.5373180165893715,
        0.5582988986649036
      ]
    }
  },
  "fixture_id": "synthetic_pcr_small_pls2_v1",
  "generator": {
    "git_revision_sha": "unknown",
    "name": "pls4all_parity.suites._pcr_expected",
    "params": {
      "algorithm": "pcr",
      "deflation_mode": "x-only",
      "n_components": 3,
      "reference": "NumPy PCA/SVD with score-space least squares",
      "scale": true
    },
    "version": "1"
  },
  "schema_version": 1
}
