{
  "comparison_policy": {
    "components_alignment": "first-k-prefix",
    "sign_resolver": "max_abs_element_positive",
    "tolerance_table_row": "pls4all-numpy-wide-kernelpls"
  },
  "data": {
    "X": {
      "dtype": "f64",
      "layout": "row_major",
      "rng_seed": 61,
      "shape": [
        9,
        24
      ],
      "values": [
        -0.5667637694627934,
        -1.056574181365729,
        1.0620799269660266,
        -1.1293521644619289,
        -1.7794053080954766,
        0.6549562343553932,
        0.8412512124004223,
        -0.9491101980883807,
        -0.5653303274327639,
        2.7797272778225293,
        -1.017438353321205,
        -0.5057891233778394,
        1.1787562121345414,
        0.7454060896119429,
        1.6118038531320131,
        0.8177558288820161,
        -0.4076790057527143,
        0.11844004864800509,
        -0.5501276677481366,
        0.8057569311400532,
        0.5083564008622178,
        -1.2307981527800078,
        0.48452834006261236,
        -0.8193381709225583,
        0.07219039528984877,
        -0.38102026383202714,
        0.28305163640424036,
        -2.5956068041941673,
        0.4443964437476906,
        -1.4232256385230824,
        1.172044508718855,
        -1.1824776995146413,
        -0.5179637734213531,
        -0.7100846388220989,
        0.25725023298212757,
        1.0592385099938522,
        0.21323181647187764,
        -0.022286226861985205,
        0.16465023398055598,
        -0.10464085423778893,
        0.054739837359832455,
        -0.737398832629542,
        -0.13434217115078434,
        1.4720550033090283,
        1.11760343418821,
        -1.7048850379482186,
        -0.21112701426097724,
        0.2052786839798478,
        -0.5214464942999019,
        -0.6513322751979604,
        -0.03925357409930509,
        1.0155750801437982,
        1.0835871287168186,
        0.06190035549251886,
        0.8586049345325503,
        -0.0781998045368921,
        0.41390526978547715,
        -0.18988621312583207,
        -1.5125873725943666,
        -0.6628860386457914,
        0.3992318151202205,
        1.191400528815293,
        0.356322926644702,
        2.103758792262667,
        0.9529293813309679,
        0.07806254150545179,
        -0.4185079728004706,
        2.3035948114893148,
        -0.19698457371105876,
        -1.1008867625482335,
        0.4240606407785467,
        -0.5360121849411911,
        0.6286530929987543,
        -1.5325066269200702,
        0.932472317664782,
        1.0127750855806499,
        -0.3425400485235558,
        -0.9572825391737342,
        0.15243511378848418,
        1.1884897321540928,
        -0.5825433640292944,
        -0.17130432920510302,
        1.188420436176652,
        0.6206063155842667,
        -0.1092068094373554,
        0.3603389263629428,
        0.19626776474722546,
        -0.40484523369493197,
        -0.1348611464621867,
        -2.663576702854014,
        0.1302929978845863,
        0.8937222195133795,
        0.6832270528894249,
        -0.4269229140436638,
        1.685053729411666,
        1.3822830790890113,
        -0.8226597033147672,
        -0.018943497032661443,
        -0.4349630343234197,
        -0.823463236396325,
        1.0542624414065498,
        1.0301522485546686,
        -0.6721085506522346,
        -0.14206130058129207,
        0.4213707562924762,
        -0.2995345557279643,
        0.9848403854037826,
        0.35335178806542283,
        0.36339809364511655,
        -1.513570783661183,
        1.218148312791701,
        -2.2636934629251844,
        -0.06876127187819651,
        1.108692872732199,
        0.10089243982025005,
        -0.7875554808222357,
        -0.44443198617875523,
        -1.2622210707982593,
        1.2413873815837857,
        0.41869702041794804,
        -0.9245230149047061,
        1.8010273500019505,
        -0.5432035015054584,
        0.38846598281619266,
        -1.8446612387135426,
        -0.06702656838530585,
        0.6382720489042668,
        0.1112589188501853,
        -0.806906064357509,
        1.0513613420575656,
        -1.0815694650959309,
        1.3633941010455048,
        -0.17884861158809381,
        -0.07401799478536966,
        0.3690798084594048,
        0.4188652180661109,
        2.0004365404271423,
        0.18845722869165182,
        -1.559725499589318,
        0.3568294190996859,
        -0.9714114917550105,
        -0.46613210607722055,
        -0.45383398881421744,
        0.0970614513246115,
        1.2228292265855303,
        0.08003138453497977,
        -0.44283977617336534,
        -0.8519112459759735,
        -0.8099374156373064,
        -0.477564332678312,
        0.20130307395577646,
        0.09794282170827796,
        0.7757895187330262,
        -2.159285551602563,
        0.7371731772859371,
        0.6576628216215121,
        -2.34190193455917,
        1.121353007222596,
        -0.00879226173397203,
        -1.4415389552988334,
        0.30152779389645123,
        -1.2299856011044892,
        -0.21809420785613604,
        0.5544072684342621,
        1.1002355278787779,
        1.0050070612787712,
        -0.20611176731258388,
        -2.2084001858712745,
        -0.70596158427304,
        0.26642744867095547,
        0.7529094398140547,
        0.11904478242458337,
        -1.089750378188543,
        -0.40565933699643625,
        -1.1231166392610796,
        -0.07144622617260332,
        -1.8421278535663685,
        -0.11156686594851788,
        0.7656123538373204,
        -1.1334340451571878,
        1.1243961716617417,
        -2.5127931316109726,
        0.6183861847192751,
        -1.2488076532818044,
        -0.35440035536772935,
        0.2775155057375151,
        0.6223472266098002,
        -1.8207150888297974,
        0.19981097488292376,
        -1.8050597281252352,
        0.1101278948145603,
        -0.31426222144636096,
        0.3115191067275362,
        -1.0734326582902312,
        -0.35927012545103326,
        -1.2169311266988534,
        -0.010555564797805285,
        0.7222630369954289,
        0.5383385926212783,
        -0.23278805230844796,
        1.0999341125913462,
        0.5043041624045915,
        1.2059052364377234,
        0.35288139018513237,
        -0.3223401701600573,
        0.46849818907159074,
        1.1432779432697742,
        -0.2252640749386633,
        0.3290991059987113,
        -0.8067341768914973,
        1.0436227715853934,
        -0.6611064554160017,
        -1.9393669601341217,
        0.8362221464425924,
        -1.3838336081427394,
        1.341088668759926
      ]
    },
    "Y": {
      "dtype": "f64",
      "layout": "row_major",
      "rng_seed": 61,
      "shape": [
        9,
        3
      ],
      "values": [
        0.4807251825413824,
        0.30487967390353093,
        0.9683778964060942,
        -0.40227241377816225,
        -1.5963744356672926,
        1.0175421836149694,
        0.012704138956215309,
        0.25849407682876197,
        0.34810454044247596,
        0.8268879584676605,
        0.8197490211366346,
        -0.7454119869890481,
        1.8556198044148629,
        -1.9608227951813768,
        1.0268610680513335,
        2.135559230030703,
        0.2946167632582767,
        0.07224753423633978,
        -1.9558107839784336,
        -1.2886735362587045,
        0.4610770131931513,
        -0.45775385346775077,
        0.23142104097982347,
        0.48125398612738557,
        0.6600194667656984,
        0.40324163275194724,
        -1.680048590199474
      ]
    }
  },
  "expected": {
    "coefficients": {
      "shape": [
        24,
        3
      ],
      "values": [
        -0.2980856746353076,
        0.04301504632981386,
        -0.11622504849425717,
        0.0547054706274938,
        -0.12331696768262812,
        0.09725593856310534,
        -0.17317578847885198,
        0.27909204470108234,
        -0.019219007731840643,
        0.0709837116030602,
        0.22537548536328242,
        -0.13100250476556122,
        0.08324516020904361,
        -0.18894781819162243,
        0.0702374934228997,
        0.21766354315145456,
        0.0008445157759299015,
        -0.044745216267001384,
        0.06354676570639756,
        0.0373046447956777,
        -0.014558955494788008,
        0.228925909559789,
        0.2665626292646398,
        -0.2648581038417716,
        0.04497258788272527,
        -0.11051572291809618,
        -0.0453712234880749,
        0.15774157747503348,
        0.14000965932792972,
        -0.05475485777034708,
        -0.00536285939356994,
        -0.05725479168555843,
        -0.06566935529379447,
        0.40434796792143685,
        -0.2460617164921334,
        0.046993010323355705,
        0.11175857220460657,
        0.08298852760159113,
        0.024115431917490732,
        -0.034268577277064304,
        0.07293892536484682,
        -0.055993633890304866,
        0.27897167254190464,
        0.02750721399932405,
        -0.01580359900792459,
        -0.029938059888435346,
        0.1919376898581271,
        -0.07790648553950079,
        0.22560201540851815,
        0.07622621146237732,
        -0.09492052177836886,
        0.05041352024659014,
        -0.15926556735851544,
        0.1515432105779994,
        -0.28281845321658244,
        0.1437361128164604,
        -0.19897859327730208,
        0.028697413454526453,
        -0.032375208610709895,
        0.06151932564717404,
        -0.21201185920286653,
        -0.18158422084126688,
        0.23018654246807022,
        -0.06435492773432838,
        0.12450289676760529,
        -0.1960428572408953,
        0.28528461291213025,
        -0.15941679681883592,
        0.16892569087992482,
        0.35710710198329054,
        0.10427684823169901,
        -0.16636237574904955
      ]
    },
    "intercept": {
      "shape": [
        3
      ],
      "values": [
        0.35063096999468624,
        -0.2814965064720443,
        0.21666707165369192
      ]
    },
    "loadings_P": {
      "shape": [
        24,
        4
      ],
      "sign_invariant": true,
      "values": [
        -1.1675135039751183,
        2.5101507430634333,
        -0.32771125663387163,
        0.06741061589034457,
        -0.1671079070349227,
        -1.1861984800317338,
        0.9859893471661539,
        -0.02007297338055705,
        0.13713839496700672,
        -0.4008600201915995,
        -2.2424588671952144,
        0.02323050409910658,
        1.5084084724095723,
        0.24748003105776256,
        -0.8454134126885308,
        0.43558170511556904,
        -0.5453127637536859,
        0.29439774607201014,
        1.0997734271307458,
        0.6078487740994296,
        1.3179520252979013,
        -0.7965439285130829,
        1.2575372250381442,
        -0.9859293006637695,
        0.15939032138698758,
        0.40060865451554784,
        -0.6977210217250558,
        1.0537197125898998,
        0.9785249816253347,
        1.494498866969485,
        -0.09885135604848264,
        0.7115540352645747,
        -0.13742987754387878,
        1.4099016380030018,
        1.3902190976154363,
        -0.04921567639979231,
        1.8866589327714303,
        -1.3229911737104696,
        -0.7237804338604082,
        -0.15395276287456905,
        -0.6441158365223466,
        1.4957521646903238,
        1.0910759799003522,
        -0.5032361651430496,
        -0.27279309973998206,
        0.9189813750734964,
        1.2615177917252212,
        1.7047881674274807,
        1.1034840933129377,
        -1.9831372566282273,
        -0.7561489164210505,
        -0.2068752189424764,
        0.1036355518325491,
        1.3664273785103875,
        -0.8122561408851564,
        0.7693234349548538,
        1.149595802241897,
        -1.1763157396500583,
        0.5208258729983718,
        -0.9949082438603178,
        1.1756884453372713,
        -0.2846587656749298,
        -1.5437537403186727,
        0.43538875040934233,
        1.0026650538374897,
        -0.04689572049002687,
        0.6549900646807281,
        0.739598098652377,
        0.15055439512462823,
        -2.389425100071417,
        1.0639047852694064,
        -0.8157331345335468,
        -0.17920764820759535,
        1.1348724386448559,
        0.4248229798364497,
        -1.5307347134084848,
        -0.31648400151420936,
        0.30827864281476797,
        -1.174040303102441,
        1.710865016593558,
        -2.1095440663844425,
        -0.08452848131087475,
        -1.5482355702014552,
        0.8634197191662892,
        0.2492193674542021,
        2.271589651066012,
        0.722886158423472,
        -0.47587757713391016,
        -0.10031091467176709,
        -0.513717188468214,
        -0.6543339039600012,
        1.5971289980195147,
        1.711444344249029,
        0.5347896946101703,
        0.7577634221727888,
        0.7073401679927478
      ]
    },
    "predict_train": {
      "shape": [
        9,
        3
      ],
      "values": [
        0.3235046091843712,
        0.5282113695281354,
        0.7961234054342693,
        -0.4473901220494042,
        -1.5943495879845948,
        1.3238774334549106,
        0.5442467789515225,
        0.33472422881416714,
        0.2718471620614413,
        0.589497356913822,
        0.7982385600405724,
        -0.7300222863206269,
        1.7662708496409114,
        -1.8461509927349278,
        0.8909036738702505,
        2.197261062144901,
        0.037443792352538974,
        0.11277614499818152,
        -1.8543282488108659,
        -1.3299764486924386,
        0.24587655585506007,
        -0.6153655201034949,
        0.03529278419870352,
        0.6213501857629434,
        0.6519819640804123,
        0.5030977362294453,
        -1.5827286302332029
      ]
    },
    "rotations_R": {
      "shape": [
        24,
        4
      ],
      "sign_invariant": true,
      "values": [
        -0.027519989460288437,
        0.06533926121139387,
        -0.026927369163661063,
        -0.02365115888246643,
        -0.017853130768689007,
        -0.040777289356147994,
        0.03512052144188318,
        -0.0006172099803566219,
        0.013135205874305,
        0.005533548175367338,
        -0.08649038261930503,
        -0.009484685426886599,
        0.07596181773565101,
        0.02479997389689947,
        -0.04802210960907526,
        -0.007686292686996987,
        -0.032522638891065374,
        -0.011502025478255426,
        0.06525496269436579,
        0.04868677265194904,
        0.03798654034053529,
        -0.020497233293766542,
        0.04677122439610307,
        -0.009497593821669823,
        0.009172056097225455,
        0.009484522583311518,
        -0.011914398633755178,
        0.03853529671106159,
        0.06839044734115045,
        0.04883228929026543,
        -0.00899577022642665,
        0.037699711211532885,
        -0.00910743140541531,
        0.02401729561207755,
        0.05572584993547568,
        0.009985567552220772,
        0.07671117556896039,
        -0.01636959741701992,
        -0.020269250278233227,
        0.017610264186449905,
        -0.007920431354660827,
        0.03855382305963792,
        0.03980676194249266,
        0.00296645828600242,
        0.0032471105596696974,
        0.0003961280133015834,
        0.08873190592360786,
        0.14526633910567277,
        0.03563505622102326,
        -0.03845061497406656,
        -0.01854492729725266,
        0.0033053773990564094,
        0.010677596482157423,
        0.03518668450940095,
        -0.031297627245185575,
        0.0134221721899945,
        0.033510264871810164,
        -0.026060070181626756,
        0.026900681508387776,
        0.00029949819603936897,
        0.04981755999374056,
        0.013938261781472467,
        -0.06966420089930596,
        -0.035540232992701586,
        0.04569135654242622,
        0.0019828442917687707,
        0.023001334043023756,
        0.017338159815474773,
        -0.029145851481248364,
        -0.07462286235450542,
        0.04524084444234711,
        -0.019123262946292095,
        0.004116881180766291,
        0.05037352022489492,
        -0.01260616255496698,
        -0.1014311237523678,
        -0.016639317734822898,
        -0.006143851169675232,
        -0.02059103395659649,
        0.07315256540873087,
        -0.09638171596733948,
        -0.02734348871485924,
        -0.04196928082823472,
        0.04332599913964039,
        0.030482086337818765,
        0.06916235652637562,
        0.0014557670079837805,
        -0.044643236090043385,
        -0.00900456323813183,
        -0.03963044673348832,
        0.020552289886031735,
        0.14935193178995906,
        0.09747791381798482,
        0.030188126473491755,
        0.05160379944034471,
        0.07904181618613698
      ]
    },
    "scores_T": {
      "shape": [
        9,
        4
      ],
      "sign_invariant": true,
      "values": [
        0.11696507586449549,
        -0.36159820120561104,
        -0.4359633357695877,
        -0.10039097791313215,
        -0.5070598109108695,
        -0.09887231563959677,
        -0.008242173697910232,
        0.28363263231525115,
        0.13434768228225547,
        -0.08705308506026206,
        -0.24200911336377987,
        0.06730924619265168,
        0.22885072541195242,
        0.47594579706755796,
        -0.31161219149870095,
        0.4958074450732954,
        -0.08158212700988006,
        -0.3361584435421726,
        0.6707279870185705,
        0.17806344638106597,
        0.380799563567964,
        -0.2143258634811775,
        0.1772320692231283,
        0.25677223913093056,
        -0.5923873024189152,
        0.4227770112048287,
        0.023215102094932546,
        -0.1492097205485354,
        -0.06907355299555677,
        -0.2663032195089205,
        -0.22333683674739344,
        -0.5739606860028267,
        0.38913974620855424,
        0.46558832016535356,
        0.3499884927407408,
        -0.45802362462870067
      ]
    },
    "weights_W": {
      "shape": [
        24,
        4
      ],
      "sign_invariant": true,
      "values": [
        -0.027519989460288424,
        0.0719284545817748,
        -0.010386530828067016,
        0.012624992664345741,
        -0.01785313076868901,
        -0.03650266086941325,
        0.025122976967638072,
        -0.027108332970670206,
        0.01313520587430501,
        0.00238854655425655,
        -0.0852332007571292,
        0.030536949349486562,
        0.075961817735651,
        0.006612208725401152,
        -0.04254650391932609,
        0.01216700841610755,
        -0.032522638891065374,
        -0.003715032795081108,
        0.0626902700251202,
        0.019217966995262792,
        0.03798654034053527,
        -0.029592464239866584,
        0.04130963950426607,
        -0.04250286825369422,
        0.009172056097225455,
        0.0072884297644603335,
        -0.009635660696305065,
        0.04576797007333422,
        0.06839044734115043,
        0.03245735997323327,
        0.002539999269921112,
        0.047901333318024576,
        -0.009107431405415315,
        0.02619791514771936,
        0.06179653775369825,
        -0.00720044964684586,
        0.07671117556896037,
        -0.03473678357537619,
        -0.02506174924903356,
        0.011804427230577235,
        -0.007920431354660829,
        0.0404502356236034,
        0.04948952277789287,
        -0.002517640388246252,
        0.003247110559669684,
        -0.0003813373779386156,
        0.08880047678037842,
        0.10387217808829949,
        0.035635056221023254,
        -0.046982823045713724,
        -0.02845938910595979,
        -0.004686731610966089,
        0.010677596482157428,
        0.032630115654119975,
        -0.02262684133668738,
        0.037365593031696204,
        0.03351026487181016,
        -0.03408353310670034,
        0.020094187155240743,
        -0.024630395954020577,
        0.04981755999374055,
        0.002010294421129293,
        -0.06665294053521399,
        -0.005563361761135787,
        0.045691356542426204,
        -0.008957173837508155,
        0.02307114027794944,
        0.001260912788169324,
        -0.029145851481248368,
        -0.06764438397857893,
        0.026912487530516532,
        -0.05925635720026281,
        0.004116881180766294,
        0.04938780305294268,
        -8.925624161978578e-05,
        -0.0805875071881194,
        -0.01663931773482289,
        -0.0021598495673429492,
        -0.02196778072566493,
        0.08298968126096971,
        -0.09638171596733944,
        -0.004266526247473428,
        -0.0478891663621167,
        0.06705672271842303,
        0.030482086337818758,
        0.06186393944295467,
        0.01841073060271011,
        -0.02799527489280883,
        -0.009004563238131834,
        -0.037474457230749166,
        0.010758396513434345,
        0.1287912307749079,
        0.09747791381798478,
        0.006848698076730466,
        0.058222503348890946,
        0.05158310124976909
      ]
    },
    "x_mean": {
      "shape": [
        24
      ],
      "values": [
        -0.14512919385039325,
        -0.2851470354923104,
        0.1345537010329469,
        -0.4534892940846695,
        -0.36606710445390783,
        -0.09572072670654012,
        0.2896693661120354,
        -0.13982131205441123,
        -0.1782079694894404,
        0.07708118087251194,
        0.16973407012356004,
        0.23389174659054143,
        0.03630184258764677,
        -0.026185710648349472,
        0.6299049740011866,
        -0.26093448835182365,
        0.2970034310613643,
        -0.40739190179608,
        -0.10929356480497951,
        0.3463320697686321,
        0.006337597658067567,
        -0.6839640627332749,
        0.18780573423562805,
        -0.04817820662333778
      ]
    },
    "x_scale": {
      "shape": [
        24
      ],
      "values": [
        0.7438271352771733,
        0.9859171428885455,
        0.6415365130402384,
        1.186838635407328,
        1.1071997550306816,
        0.811810906509089,
        0.7531184519114276,
        0.6748318618451538,
        0.9251031455178066,
        1.3401211639858877,
        1.0762105038317566,
        0.8318240629443223,
        1.0374912878083777,
        1.2342337033671547,
        0.5622671059497187,
        1.3059789882213013,
        0.7609911729388704,
        1.0994442755959768,
        0.7392783872144947,
        1.2574263881115408,
        1.0102877828490873,
        1.0236868928903664,
        0.9149966169100735,
        1.1095955769856274
      ]
    },
    "y_loadings_Q": {
      "shape": [
        3,
        4
      ],
      "sign_invariant": true,
      "values": [
        2.052578305485633,
        -0.9787847270768808,
        1.157708707364026,
        1.1060508245908953,
        2.1800795625251554,
        0.5756840193099503,
        -1.5944955022371565,
        -0.4452533280873323,
        -1.7046677980939124,
        -2.1123911977422822,
        -0.2936146609155591,
        0.5205110337493919
      ]
    },
    "y_mean": {
      "shape": [
        3
      ],
      "values": [
        0.35063096999468624,
        -0.2814965064720443,
        0.21666707165369192
      ]
    },
    "y_scale": {
      "shape": [
        3
      ],
      "values": [
        1.247229148254924,
        1.0292881106837735,
        0.9051164361305385
      ]
    }
  },
  "fixture_id": "synthetic_wide_kernel_pls2_v1",
  "generator": {
    "git_revision_sha": "unknown",
    "name": "pls4all_parity.suites._kernel_pls_expected",
    "params": {
      "algorithm": "wide-kernelpls",
      "deflation_mode": "regression",
      "n_components": 4,
      "reference": "NumPy linear wide-kernel PLS with regression deflation",
      "scale": true
    },
    "version": "1"
  },
  "schema_version": 1
}
