{
  "comparison_policy": {
    "components_alignment": "first-k-prefix",
    "sign_resolver": "max_abs_element_positive",
    "tolerance_table_row": "pls4all-numpy-simpls"
  },
  "data": {
    "X": {
      "dtype": "f64",
      "layout": "row_major",
      "rng_seed": 21,
      "shape": [
        12,
        5
      ],
      "values": [
        0.35877340800391416,
        1.5106773081434572,
        -1.7863312373111822,
        1.686613508665752,
        -0.047317212156137566,
        -0.7999785843751532,
        -0.802956718390362,
        -1.082816516582591,
        -0.22364535840745078,
        0.8338841795521574,
        0.5840637316429703,
        0.6382860242561829,
        -1.6948083917690129,
        -1.5709621176914044,
        1.553803174289652,
        0.96888536545666,
        2.18321400147264,
        1.2098158348986146,
        -1.0243913350545566,
        1.2852724548122736,
        0.6283942642703312,
        0.21482492767891934,
        -0.8198733225718833,
        0.0027802218072239555,
        -0.14699870178042784,
        0.8925351116148221,
        0.12449694399871385,
        1.5847459143396285,
        -0.7744857532181485,
        0.4711025594104292,
        0.49884237745245574,
        -0.864338539814181,
        -1.1812660464710163,
        1.013579500325613,
        0.5174404713814393,
        -0.1625051850123894,
        0.3943673986045515,
        -0.6753440287843157,
        0.2383482020485698,
        -0.6051266946615304,
        0.18878846665371848,
        0.9860894628834065,
        -0.33963024501217354,
        0.8497738099419226,
        -1.0341993407801506,
        -0.2884907696501737,
        -1.3647425964001083,
        -0.10058608537896181,
        0.07865408332523142,
        -0.19726266289721334,
        -0.26767571670742146,
        1.3401946901039739,
        1.4237928368424078,
        -1.2156310049465249,
        1.1741144932558947,
        -1.723069612870992,
        -0.7344792508370456,
        -0.1734455959217569,
        0.1110606026713016,
        -1.0474166760042456
      ]
    },
    "Y": {
      "dtype": "f64",
      "layout": "row_major",
      "rng_seed": 21,
      "shape": [
        12,
        2
      ],
      "values": [
        -0.6653798407003133,
        -0.30743079148811076,
        -0.12427166705750206,
        -0.1714739856449285,
        0.14391346346930278,
        1.028705561748045,
        0.29424091764037985,
        1.7988327035803953,
        0.030289218802810363,
        -0.1451905032563054,
        0.8017935598743466,
        0.5905421583319153,
        0.5475331336774699,
        -0.8954645567296273,
        -0.5294681619945495,
        -0.14618500640053755,
        -0.5652072457198393,
        -0.16770110419632167,
        0.24710937935268426,
        -0.6971971939274882,
        -0.018671694653079947,
        1.589385026703542,
        -0.8969309557883689,
        -0.45345419085703464
      ]
    }
  },
  "expected": {
    "coefficients": {
      "shape": [
        5,
        2
      ],
      "values": [
        0.4608996968662498,
        -0.020815487723529372,
        -0.3275579750834241,
        0.4702008574027992,
        0.08251553572878893,
        0.1811618268740162,
        -0.07138968628136944,
        -0.33327395909494495,
        0.27996842635919333,
        0.2092391327409011
      ]
    },
    "intercept": {
      "shape": [
        2
      ],
      "values": [
        -0.06125415775805493,
        0.16861400982196195
      ]
    },
    "loadings_P": {
      "shape": [
        5,
        2
      ],
      "sign_invariant": true,
      "values": [
        1.9474034781375487,
        -1.0167917915893538,
        1.9031382113485094,
        2.1377029602933826,
        1.9305966206871665,
        0.564206210324344,
        -2.6467351152360457,
        0.07408766929649195,
        2.6944109786560357,
        -0.8692273787440028
      ]
    },
    "predict_train": {
      "shape": [
        12,
        2
      ],
      "values": [
        -0.6508181206651866,
        -0.180886999301565,
        0.014094956372336861,
        -0.2961683518852915,
        0.4271493572771574,
        0.841486956078037,
        0.22393703627281664,
        1.847765253369282,
        0.06996528491456883,
        -0.08040439032815833,
        0.648251428911282,
        0.695623788232184,
        0.4477842918614518,
        -0.8484482594427853,
        -0.48652318506939446,
        -0.12770419520805587,
        -0.6545100018328229,
        -0.0895208209499988,
        0.20463662886695266,
        -0.7095295652233667,
        -0.0696676456521301,
        1.5563575434105645,
        -0.9093499243536911,
        -0.5852028408873032
      ]
    },
    "rotations_R": {
      "shape": [
        5,
        2
      ],
      "sign_invariant": true,
      "values": [
        0.07695502088627973,
        -0.21363740125339079,
        0.06301874548153022,
        0.32753669303502886,
        0.08103402135954428,
        -0.008341974244608452,
        -0.10632667140612963,
        -0.032859377826538826,
        0.1084992607773549,
        -0.10324128796533164
      ]
    },
    "scores_T": {
      "shape": [
        12,
        2
      ],
      "sign_invariant": true,
      "values": [
        -0.23287183646291448,
        0.2667694708103335,
        -0.11366182458285425,
        -0.15023838701330716,
        0.3008353265079191,
        -0.13360205034201994,
        0.5377775939972578,
        0.21522292120562192,
        -0.04017459495899176,
        -0.13388008994770215,
        0.3102036831243083,
        -0.2967830834448608,
        -0.17022016000000595,
        -0.5309975975973893,
        -0.18042422937762742,
        0.18234859500751133,
        -0.20799190539718604,
        0.2897685189567372,
        -0.18657211071915566,
        -0.35644499973978105,
        0.38876807068397234,
        0.321320441357753,
        -0.4056680128147222,
        0.3265162607471034
      ]
    },
    "weights_W": {
      "shape": [
        5,
        2
      ],
      "sign_invariant": true,
      "values": [
        0.07695502088627969,
        -0.21363740125339079,
        0.06301874548153029,
        0.32753669303502886,
        0.08103402135954428,
        -0.008341974244608443,
        -0.10632667140612963,
        -0.03285937782653884,
        0.10849926077735488,
        -0.10324128796533162
      ]
    },
    "x_mean": {
      "shape": [
        5
      ],
      "values": [
        0.07321357137322855,
        0.30213613764167907,
        -0.3029789069768535,
        -0.06902547004437255,
        0.22977467036851174
      ]
    },
    "x_scale": {
      "shape": [
        5
      ],
      "values": [
        0.775210691731799,
        1.0929532658038983,
        1.16055522405965,
        0.965645904485245,
        0.8837858188807668
      ]
    },
    "y_loadings_Q": {
      "shape": [
        2,
        2
      ],
      "sign_invariant": true,
      "values": [
        2.0316381026571415,
        -2.5088311667164085,
        3.0715587846516055,
        1.1922606704006182
      ]
    },
    "y_mean": {
      "shape": [
        2
      ],
      "values": [
        -0.06125415775805493,
        0.16861400982196195
      ]
    },
    "y_scale": {
      "shape": [
        2
      ],
      "values": [
        0.5160790270876046,
        0.8798658596727064
      ]
    }
  },
  "fixture_id": "synthetic_simpls_small_pls2_v1",
  "generator": {
    "git_revision_sha": "unknown",
    "name": "pls4all_parity.suites._simpls_expected",
    "params": {
      "algorithm": "simpls",
      "deflation_mode": "regression",
      "n_components": 2,
      "reference": "NumPy port of nirs4all AOM_v0 simpls_standard",
      "scale": true
    },
    "version": "1"
  },
  "schema_version": 1
}
