{
  "comparison_policy": {
    "components_alignment": "first-k-prefix",
    "sign_resolver": "max_abs_element_positive",
    "tolerance_table_row": "pls4all-numpy-power"
  },
  "data": {
    "X": {
      "dtype": "f64",
      "layout": "row_major",
      "rng_seed": 81,
      "shape": [
        15,
        7
      ],
      "values": [
        0.5661434755980816,
        0.7750096701594513,
        -0.7190191026924134,
        0.5013647047847318,
        1.230539037756403,
        0.04477890955063224,
        1.3404086544881513,
        1.1487556868743738,
        -0.24754912223137265,
        0.6683263347769354,
        0.5875255333335009,
        1.3735523196714832,
        0.3205762235119857,
        -1.8184477819062463,
        0.40510083010383086,
        0.6959573688687651,
        0.1785164450339447,
        0.5676590810402526,
        -1.123641108399315,
        1.3461847537689358,
        0.19460171162708365,
        -1.1581365276655722,
        -0.5385761522453092,
        -0.04340956035678004,
        0.5619494927423433,
        -0.5884925852355491,
        1.9584830180182862,
        -0.46449745449919266,
        -0.4670138482859764,
        -0.8796930077687181,
        -0.06124780360920633,
        1.3280476612146268,
        -0.5707219231096141,
        -0.28622828513864285,
        0.47298351055215626,
        -1.4495540313340165,
        0.6747740615010855,
        0.5802472210679178,
        0.9499504903504796,
        0.9571449051664956,
        0.8111991300169771,
        0.212468758825989,
        -0.7721152738944908,
        0.15897390044334017,
        -1.173094235092248,
        -0.21640138808018836,
        -0.44302082909789664,
        0.048354484686657075,
        0.2254111773355341,
        -0.7030724195690313,
        -0.23935054788670143,
        -0.3449613218536899,
        -2.0959118803683916,
        -0.7990100188032375,
        -2.386552598829008,
        0.15276143154927715,
        -1.4425163631986557,
        -1.152074553493497,
        -0.27409436414586735,
        -0.10354853711370456,
        1.373452284649575,
        -0.7713924372374387,
        1.8698138063674503,
        1.4820749395821742,
        0.11592651517406086,
        0.9759317142385693,
        1.272815125328081,
        0.7918604703291092,
        -0.5438566369414218,
        -0.0961913782502585,
        0.5892808427484555,
        1.0427091853921677,
        0.8791118609770758,
        0.21510108211040263,
        0.34026634071052586,
        0.2165749474083331,
        0.2734596187792214,
        -0.7692014545520466,
        -1.865420653828917,
        0.4172335925096993,
        -1.3255288488125982,
        -0.17804171467663157,
        -0.5829669394046575,
        1.110757615396082,
        -0.5689941054247041,
        -0.43384609633385873,
        -0.42238148303940626,
        1.7674733313471649,
        0.8784489397737171,
        -0.050223916746020926,
        0.640880809631863,
        0.9137730921627334,
        2.0005850748278116,
        -0.8483529577483133,
        -0.2889626537354144,
        -0.3442176456114514,
        -0.4095155386646428,
        0.6898732328921061,
        0.9850794707339142,
        1.4545684712669602,
        0.10337352389136725,
        1.8178305995354742,
        0.8870620596779765,
        -0.3064063914522579,
        0.8479931119155086
      ]
    },
    "Y": {
      "dtype": "f64",
      "layout": "row_major",
      "rng_seed": 81,
      "shape": [
        15,
        3
      ],
      "values": [
        0.2995550705146181,
        0.15685781848271682,
        -0.3911297107732463,
        -0.271394474890309,
        0.48505805247309147,
        -0.44377175915548994,
        0.9164046912403454,
        0.29907871659059376,
        0.8889706496659906,
        0.2771070518639541,
        0.5193744231646378,
        0.5381637058321737,
        0.949248589712995,
        -0.867846090231843,
        0.48733088629864174,
        -0.285047753806564,
        1.1229876693092018,
        -0.08586288603528364,
        -0.29847268260455434,
        -0.1672229795732668,
        -0.4624082665704939,
        -1.2233805386017855,
        -0.8472624838903038,
        -0.6643165622439717,
        -0.11963723183604996,
        -0.29806465954104006,
        -0.21722813978054117,
        0.7770566618110321,
        -0.19560017608351,
        0.27323416595031724,
        0.19308155002599187,
        0.6003448457349128,
        0.3001781576327059,
        0.07616494710721186,
        -0.6783553440547924,
        0.582853018100621,
        0.5943460622486993,
        -0.31260234621826305,
        -0.1849055700201606,
        -0.12594294527087987,
        0.1522421606956517,
        -0.42294884831082474,
        0.7864659889902843,
        0.18727662706082168,
        -0.06249736025042723
      ]
    }
  },
  "expected": {
    "coefficients": {
      "shape": [
        7,
        3
      ],
      "values": [
        0.2933581569877954,
        -0.09998781122548736,
        0.04822469245034692,
        -0.1924138846769542,
        0.23536119315776224,
        -0.22270440590957147,
        0.2966392739391126,
        0.08494673588144087,
        0.32471624907288027,
        0.42046255789378456,
        -0.04220965707791709,
        0.2098650097494575,
        -0.3063527290823958,
        0.23429921849130986,
        -0.3306729617732216,
        0.12203338455846556,
        0.236634815333409,
        0.19565980841733896,
        0.4239175473947837,
        -0.3499883073102156,
        0.24546486653274557
      ]
    },
    "intercept": {
      "shape": [
        3
      ],
      "values": [
        0.1697036657669993,
        0.010417748927907252,
        0.009044098689334054
      ]
    },
    "loadings_P": {
      "shape": [
        7,
        3
      ],
      "sign_invariant": true,
      "values": [
        0.3206174725613299,
        0.5725499471055154,
        0.4608835649914244,
        0.2864467200714191,
        0.7014532007476117,
        0.12632652549270562,
        0.36819304256041346,
        -0.23981619304829668,
        -0.10111950056100937,
        0.5789949715860773,
        0.023607411110496065,
        0.43536926936705483,
        0.1924682045250104,
        0.5601779721063598,
        0.16190822859796186,
        0.5487467921340504,
        -0.36676275978840817,
        -0.3928797935491864,
        -0.31370738550726024,
        -0.12710883659392788,
        0.7182543442635477
      ]
    },
    "predict_train": {
      "shape": [
        15,
        3
      ],
      "values": [
        0.19394261448999792,
        -0.050873846688020835,
        -0.38348250794575456,
        -0.3398709884048166,
        0.9687489873435253,
        -0.4277985645730298,
        0.8503256007967648,
        0.17746145884885706,
        0.6835549935133973,
        0.19241884095675843,
        0.5255469371002044,
        0.590900509346365,
        0.8956658306320184,
        -0.5128151870839024,
        0.6402253257740321,
        -0.10493464462225566,
        0.7305849942998057,
        0.021161423959022256,
        -0.4761339790839367,
        -0.07136232061801324,
        -0.32849741900242885,
        -1.142722777937693,
        -0.6565004161630114,
        -0.7385249273383834,
        -0.0658354713276236,
        -0.5852008102058285,
        -0.11065430595804607,
        0.8701675535199187,
        0.0745589593022151,
        0.19699923695817229,
        0.34433022383175904,
        0.36314028767327367,
        0.08298198377807746,
        0.13674408246818576,
        -0.7633776674629322,
        0.4122987149827002,
        0.5136151372898528,
        -0.11028411821581145,
        0.11915722271793434,
        -0.1593451519811117,
        -0.023593075699186502,
        -0.5753593806656571,
        0.8371881158771712,
        0.09023205148743428,
        -0.04730082520639031
      ]
    },
    "rotations_R": {
      "shape": [
        7,
        3
      ],
      "sign_invariant": true,
      "values": [
        0.21171169027302125,
        0.0847374150593456,
        0.5604219685612261,
        0.22673123284572677,
        0.5380507136114699,
        -0.2809996057297394,
        0.3828052015561108,
        -0.35103777432236005,
        -0.0009835826929418083,
        0.5538697923556393,
        -0.2143352945505172,
        0.5503174730867386,
        0.04857833848592011,
        0.6098054242609668,
        -0.28345109476116387,
        0.6607845455339925,
        -0.29146063019509744,
        -0.2865976597867226,
        -0.107067588208972,
        -0.36539623227617996,
        0.6554952190915977
      ]
    },
    "scores_T": {
      "shape": [
        15,
        3
      ],
      "sign_invariant": true,
      "values": [
        -0.08416271597895764,
        1.020330030398116,
        0.6542109502841036,
        1.282637249363111,
        1.141613231947796,
        -1.273514835870241,
        1.3178787149987203,
        -1.0888825984280872,
        0.1230182339637661,
        1.0988478164284883,
        -1.2631710691310174,
        -1.2888087307801401,
        -0.0624737144508917,
        -1.257178534547533,
        0.957788285392543,
        1.1123474871195205,
        0.06212457143373468,
        -1.2366838147880879,
        -1.0968496757034316,
        0.2771063710050003,
        -0.6166046618126798,
        -3.277077585558846,
        0.4911679697761556,
        -0.6648473620622795,
        -1.5860778665873783,
        -0.17147603399727912,
        0.3375761352388463,
        1.142362613457521,
        0.1543387328165043,
        0.9424475524468026,
        0.9899844748490332,
        0.12448312869021398,
        -0.14048810350934815,
        -1.6791407625821086,
        -1.4451904026845186,
        0.15216697441254506,
        0.24143495026113107,
        -0.041815944477734346,
        0.5903634453591671,
        -0.53303806328779,
        1.2244061165714184,
        0.25483186756594073,
        1.13332707767188,
        0.7721444306272306,
        1.2085440641590612
      ]
    },
    "weights_W": {
      "shape": [
        7,
        3
      ],
      "sign_invariant": true,
      "values": [
        0.21171169027302128,
        0.13491464818413462,
        0.6136792953056469,
        0.2267312328457267,
        0.5917876891771533,
        0.01299568983516028,
        0.38280520155611086,
        -0.26031011627432205,
        -0.17181769533787697,
        0.5538697923556393,
        -0.08306406594728062,
        0.4586628932292148,
        0.04857833848592003,
        0.6213188490127107,
        0.041515470918123715,
        0.6607845455339925,
        -0.13484981600831916,
        -0.41488412701726707,
        -0.1070675882089719,
        -0.3907720408899716,
        0.4576936653765551
      ]
    },
    "x_mean": {
      "shape": [
        7
      ],
      "values": [
        -0.08269304574139531,
        0.10413294092301788,
        -0.00558800906949434,
        0.36929091957845067,
        0.2523453688534393,
        -0.03939941849681894,
        0.376818454980315
      ]
    },
    "x_scale": {
      "shape": [
        7
      ],
      "values": [
        0.9927664811852405,
        1.0281575603305786,
        0.6389615527163184,
        1.0770587647720073,
        0.8647484512291049,
        0.989552300942917,
        0.8447299026814737
      ]
    },
    "y_loadings_Q": {
      "shape": [
        3,
        3
      ],
      "sign_invariant": true,
      "values": [
        0.46080921927208235,
        -0.4156076599922646,
        0.7703306580308975,
        0.5150436683087697,
        0.289900898529642,
        -0.5514766593945833,
        0.30443214587776524,
        -0.9252113457470005,
        0.2065149628101142
      ]
    },
    "y_mean": {
      "shape": [
        3
      ],
      "values": [
        0.1697036657669993,
        0.010417748927907252,
        0.009044098689334054
      ]
    },
    "y_scale": {
      "shape": [
        3
      ],
      "values": [
        0.5894855131220544,
        0.5657601280367347,
        0.4703517579153573
      ]
    }
  },
  "fixture_id": "synthetic_power_small_pls2_v1",
  "generator": {
    "git_revision_sha": "unknown",
    "name": "pls4all_parity.suites._power_pls_expected",
    "params": {
      "algorithm": "power",
      "deflation_mode": "regression",
      "n_components": 3,
      "reference": "NumPy singular-pair power iteration with regression deflation",
      "scale": true
    },
    "version": "1"
  },
  "schema_version": 1
}
