{
  "comparison_policy": {
    "components_alignment": "first-k-prefix",
    "sign_resolver": "max_abs_element_positive",
    "tolerance_table_row": "pls4all-numpy-kernelpls"
  },
  "data": {
    "X": {
      "dtype": "f64",
      "layout": "row_major",
      "rng_seed": 50,
      "shape": [
        9,
        5
      ],
      "values": [
        0.4863814040322208,
        -0.47739197855012133,
        0.6693396196541893,
        -1.387294544591779,
        1.6658884296583851,
        -0.19093151720215018,
        0.534348860275093,
        0.7765517856706156,
        0.24475036791230823,
        0.17981042193094302,
        -1.3415846894089138,
        -0.181981246675258,
        -0.5421608675325712,
        0.0019796348329694513,
        -2.699809129792159,
        -1.5572260671045501,
        -0.29279262765162656,
        0.25906337944939367,
        -0.20108882150547897,
        -1.101499051061835,
        -0.5928336521004042,
        -0.42900735134868023,
        -3.0577086479032256,
        -0.7867013871002495,
        -0.7617730258994465,
        -0.6711413999247611,
        0.3184136926254216,
        -1.130970827184007,
        0.44536713452699267,
        0.3188168001902454,
        0.4385849039594994,
        0.25383156431474924,
        1.050175773879821,
        2.004460527114579,
        -0.19763568569087878,
        -0.8121394342727389,
        0.31682200611584804,
        2.0925269080115636,
        0.038608782529182595,
        -0.22249460235917928,
        -0.6398447180352261,
        -1.0741599708512688,
        -1.0951687335885425,
        2.8628395009144314,
        -0.709622665366715
      ]
    },
    "Y": {
      "dtype": "f64",
      "layout": "row_major",
      "rng_seed": 50,
      "shape": [
        9,
        1
      ],
      "values": [
        1.4415672298271225,
        -0.029526166863669465,
        -1.2786090744816732,
        -0.8091784421607009,
        -1.0890162106970278,
        -0.9830731028592551,
        -0.35313480747873355,
        0.14056701939772642,
        -1.9102240755200877
      ]
    }
  },
  "expected": {
    "coefficients": {
      "shape": [
        5,
        1
      ],
      "values": [
        0.35562179214339856,
        0.03604573238848543,
        0.2557873826918852,
        -0.42587031250922536,
        0.2785460032823762
      ]
    },
    "intercept": {
      "shape": [
        1
      ],
      "values": [
        -0.5411808478706999
      ]
    },
    "loadings_P": {
      "shape": [
        5,
        2
      ],
      "sign_invariant": true,
      "values": [
        2.0277672190100984,
        1.0614524488612975,
        1.445216104258911,
        0.8483320628113087,
        1.734484970305283,
        0.3038119247081582,
        -1.0965887157349534,
        2.3559759664866435,
        2.376292682092888,
        0.3048423399516183
      ]
    },
    "predict_train": {
      "shape": [
        9,
        1
      ],
      "values": [
        1.3271203972993544,
        0.041165054733449336,
        -1.429880659066335,
        -0.7739349451643152,
        -0.9402500487118152,
        -0.6720288561972689,
        -0.5296314951418044,
        0.12474802420185604,
        -2.0179351027894197
      ]
    },
    "rotations_R": {
      "shape": [
        5,
        2
      ],
      "sign_invariant": true,
      "values": [
        0.11741105984086865,
        0.06957072286902093,
        0.06618384464599743,
        0.18689251280398814,
        0.11998392243568913,
        -0.09394948239712654,
        -0.11054779432358457,
        0.3316413072542862,
        0.1417889185842759,
        0.04858609411040865
      ]
    },
    "scores_T": {
      "shape": [
        9,
        2
      ],
      "sign_invariant": true,
      "values": [
        0.5801742243049901,
        -0.4319431416511133,
        0.29011967393270593,
        0.21112381546470507,
        -0.423593999074648,
        -0.2616041370591088,
        -0.2024681915530677,
        -0.35810407049137205,
        -0.22917897419415886,
        -0.2407561220414671,
        0.03153508373310165,
        0.2585887318981228,
        0.18843429300487943,
        0.5821818855905702,
        0.23045486062239415,
        -0.07909989011592114,
        -0.46547697077619693,
        0.3196129284055845
      ]
    },
    "weights_W": {
      "shape": [
        5,
        2
      ],
      "sign_invariant": true,
      "values": [
        0.11741105984086866,
        0.10667955586861814,
        0.06618384464599744,
        0.20781051866790173,
        0.11998392243568913,
        -0.056027472781190885,
        -0.11054779432358454,
        0.2967016717243138,
        0.1417889185842759,
        0.09339977101672942
      ]
    },
    "x_mean": {
      "shape": [
        5
      ],
      "values": [
        -0.5423039077841137,
        -0.11465745019398257,
        -0.10870573439364037,
        0.35810235495921733,
        -0.39203538982118213
      ]
    },
    "x_scale": {
      "shape": [
        5
      ],
      "values": [
        0.6994813633533917,
        0.514541106398283,
        1.5254244397929793,
        1.3182966029746916,
        1.1832492424181416
      ]
    },
    "y_loadings_Q": {
      "shape": [
        1,
        2
      ],
      "sign_invariant": true,
      "values": [
        2.6608451001196456,
        -0.8409842871017729
      ]
    },
    "y_mean": {
      "shape": [
        1
      ],
      "values": [
        -0.5411808478706999
      ]
    },
    "y_scale": {
      "shape": [
        1
      ],
      "values": [
        0.9797012764706248
      ]
    }
  },
  "fixture_id": "synthetic_kernel_tiny_pls1_v1",
  "generator": {
    "git_revision_sha": "unknown",
    "name": "pls4all_parity.suites._kernel_pls_expected",
    "params": {
      "algorithm": "kernelpls",
      "deflation_mode": "regression",
      "n_components": 2,
      "reference": "NumPy linear kernel PLS with regression deflation",
      "scale": true
    },
    "version": "1"
  },
  "schema_version": 1
}
