{
  "comparison_policy": {
    "components_alignment": "first-k-prefix",
    "sign_resolver": "max_abs_element_positive",
    "tolerance_table_row": "pls4all-numpy-wide-kernelpls"
  },
  "data": {
    "X": {
      "dtype": "f64",
      "layout": "row_major",
      "rng_seed": 60,
      "shape": [
        7,
        18
      ],
      "values": [
        -1.0512243535238837,
        -0.3619874275365686,
        0.8116259196764026,
        -1.2512308147872921,
        -1.2758971463181288,
        1.073779434785835,
        1.1801655972128011,
        1.7434452131360432,
        -0.17687203551915195,
        0.9477546410453541,
        0.5356290991845476,
        0.23780426795123155,
        0.8112861168240963,
        0.3021869291446567,
        1.7980520073837296,
        0.7056896051316012,
        -0.4824733156440579,
        0.8190838006113762,
        0.9376138570178348,
        -1.8092151302399992,
        0.3320635178804922,
        -0.0148111279589886,
        0.003968281252857634,
        -1.121159225824319,
        -1.2537742691114708,
        1.3111242629781326,
        1.4285482467242112,
        1.5432968445303867,
        -0.742102902101766,
        -0.9614090204261004,
        -0.2342817603702668,
        0.5469557946223937,
        0.9531018533511179,
        0.5276731707364377,
        0.3774163259262901,
        -0.007463862363997953,
        -0.48682321725531774,
        0.8275245134202129,
        -1.3595116032656764,
        1.6941576789095503,
        -0.47656950103835816,
        -1.9524103808245812,
        0.42868195691204075,
        0.2819258003040106,
        1.0381390029246027,
        0.8596405809373865,
        -0.26548745355890013,
        0.9361880202234251,
        -0.6155559858102493,
        0.26133563463286374,
        -1.43517624679095,
        -0.688555221271445,
        -0.16118377129549127,
        -1.0391308758427074,
        1.141286001826869,
        2.604954152557209,
        -0.2958346278274548,
        -0.4857176517244149,
        -1.6784599701019136,
        0.10228677714277203,
        -0.32155967895408905,
        0.03421527882479306,
        -1.2779980352798974,
        -0.5478473616308621,
        -0.30823450456351886,
        1.5189315013636504,
        -1.0575417934411977,
        0.46100928346797027,
        0.29585581029264,
        -0.37268687071242823,
        -0.9273268277171709,
        0.7091215370125237,
        -0.3594782581340568,
        1.2461520702105746,
        1.7926826210563487,
        -1.3806536391594464,
        0.15740686822106,
        -0.48647632592730705,
        -1.5655739964730109,
        -1.1221600599451313,
        0.589427550675722,
        1.6118898803100252,
        0.2884846969826124,
        1.264120382173465,
        0.589147649330418,
        1.2472104607195904,
        -0.8872391797610513,
        -1.2243338386466933,
        0.5711647645000011,
        -1.4065868218782949,
        -1.4699271051501765,
        -0.46498795649752445,
        0.7483237928324716,
        -0.45448041203952744,
        0.1504578935408888,
        -0.7024208366353306,
        1.8744057442185669,
        -0.4162817647160889,
        -0.029348364975375473,
        -0.13089561844069209,
        1.724558049813427,
        1.2926054478512818,
        0.7493451842742251,
        -0.5809296373178608,
        0.7647451239830785,
        2.1526692058004038,
        0.42760765033119885,
        -1.4543353412288,
        0.6755705976834403,
        0.08753521297947055,
        0.24939735347405254,
        0.6806187830918854,
        -1.0164033025232944,
        0.9812290436018468,
        0.5713265405360481,
        1.555660739666937,
        -1.1425206392684977,
        -0.2366855133946165,
        1.0878717537693057,
        0.5375125214209916,
        -0.5037936512371263,
        0.534881167104632,
        0.3643061888152714,
        -0.24424678673987882,
        0.25817106450619254,
        1.979900713609774
      ]
    },
    "Y": {
      "dtype": "f64",
      "layout": "row_major",
      "rng_seed": 60,
      "shape": [
        7,
        1
      ],
      "values": [
        0.12494145401731625,
        -0.6096487057022235,
        -0.8595099275794935,
        0.6022639308883176,
        0.4103405986543577,
        0.5577153759686095,
        -0.35662902549968367
      ]
    }
  },
  "expected": {
    "coefficients": {
      "shape": [
        18,
        1
      ],
      "values": [
        0.03938530882572888,
        0.06730863389539152,
        0.1269595973110324,
        -0.20593919631054858,
        -0.018307181768790953,
        0.027209724184425486,
        -0.042664946459651146,
        -0.14272591131631757,
        -0.08434259823074479,
        -0.09558751750740191,
        -0.005687560996306356,
        0.11929810224374197,
        0.04027222217382988,
        -0.06567362840807993,
        0.09469371459663115,
        0.0870002318479778,
        -0.13179211068387836,
        -0.050717728269931976
      ]
    },
    "intercept": {
      "shape": [
        1
      ],
      "values": [
        -0.01864661417897135
      ]
    },
    "loadings_P": {
      "shape": [
        18,
        3
      ],
      "sign_invariant": true,
      "values": [
        1.0511166168452948,
        -0.8514349102272285,
        0.8109950500485567,
        -0.8967979306769222,
        -1.2724927585268047,
        -0.5987841437861965,
        -1.3764410416557518,
        -0.6231022426081338,
        -0.10523798965309263,
        1.6729363852757229,
        0.8850708214810692,
        -0.6519874732021667,
        0.4489943959922878,
        -0.4261598903052298,
        -0.5046314616787088,
        -1.3802377261230232,
        0.7276558352349879,
        0.1635451946354573,
        -0.9816345998378319,
        2.052467574835445,
        -0.033720346262555295,
        0.9116897782890478,
        1.594999283451127,
        0.6313945352047661,
        1.5423899133399646,
        -0.5128704090751438,
        -0.17762626277987897,
        1.0988099278321841,
        -0.8993090169814442,
        -0.4614124616905749,
        -1.6816140435949523,
        1.3523522524609404,
        -0.6738954695333274,
        -1.5954405029296654,
        -0.6184452160878504,
        -0.8881307687066405,
        -1.1904413141868493,
        0.37830332606072914,
        -0.3345880229432152,
        0.5191331468444729,
        -1.6803599728740917,
        -0.8042682207490442,
        -0.7235484933293043,
        1.1574752048961445,
        1.6389173123013667,
        -0.7270394587801933,
        1.5040011441182595,
        1.2944722866845926,
        0.31011474671849626,
        -0.005028389896074459,
        -0.8519843206256374,
        0.08895840233241244,
        0.9455836647852587,
        0.46302430954950397
      ]
    },
    "predict_train": {
      "shape": [
        7,
        1
      ],
      "values": [
        0.1940455094287069,
        -0.6113694196417725,
        -0.8787217602524341,
        0.6067189216786846,
        0.4147351124107833,
        0.49133048987121714,
        -0.3472651527479846
      ]
    },
    "rotations_R": {
      "shape": [
        18,
        3
      ],
      "sign_invariant": true,
      "values": [
        0.029252670159198964,
        -0.0736848053360706,
        0.139966556391073,
        -0.05607593672582738,
        -0.065449239945124,
        -0.023689844151060194,
        -0.07400233390760654,
        -0.05070263989583951,
        0.012073022499866784,
        0.10034135947393451,
        0.10450248752624025,
        -0.12994168229337758,
        0.016158453962000684,
        -0.016371061569102785,
        0.0026177974908029008,
        -0.05213805128520558,
        0.04015738037256778,
        -0.06582302345031908,
        -0.01646133017964398,
        0.11358592666040515,
        -0.07780832714865048,
        0.06682417358991756,
        0.10701708147934054,
        -0.05687310386349845,
        0.06750025157431844,
        -0.006786216342566893,
        -4.1292326000833794e-05,
        0.04732410081768787,
        -0.007983180933514312,
        -0.07243088565914614,
        -0.05476398905764039,
        0.08504161004366849,
        -0.12206258237015204,
        -0.07938131076643352,
        -0.03239884014602776,
        -0.053008874236126484,
        -0.04726804491658678,
        0.0251532934795695,
        -0.06535744987826761,
        0.013081475766810019,
        -0.04202493193142048,
        -0.1073611158227956,
        -0.033781848616524675,
        -0.005545619960090547,
        0.168842103664238,
        -0.03053355745777507,
        0.008494166282917442,
        0.1779411152682441,
        0.0216361202231975,
        0.031889565389723276,
        -0.0895558713602739,
        0.018822294991988748,
        0.06116958238770697,
        -0.04343770366856377
      ]
    },
    "scores_T": {
      "shape": [
        7,
        3
      ],
      "sign_invariant": true,
      "values": [
        -0.24592916758124034,
        0.33675830642285925,
        0.08962233123431641,
        0.6097375254538511,
        -0.10442342783729205,
        0.5215202185268537,
        0.5124155250188895,
        0.07670861290023535,
        -0.4233501761249535,
        -0.23395973572719841,
        -0.3770002535205932,
        0.44395267190999865,
        -0.2239424524204618,
        -0.670808781237557,
        -0.4624464722900065,
        -0.4466323448421612,
        0.3203700009657265,
        0.15563950805863014,
        0.02831065009832094,
        0.4183955423066211,
        -0.32493808131483914
      ]
    },
    "weights_W": {
      "shape": [
        18,
        3
      ],
      "sign_invariant": true,
      "values": [
        0.029252670159198975,
        -0.08317469442013663,
        0.0825515271092537,
        -0.0560759367258274,
        -0.047257587117634635,
        -0.07468773999652271,
        -0.07400233390760655,
        -0.02669546595502361,
        -0.02743435681677652,
        0.10034135947393454,
        0.07195064296744216,
        -0.04851358658251219,
        0.016158453962000687,
        -0.02161304238777185,
        -0.01013849568358342,
        -0.05213805128520559,
        0.057071539697621895,
        -0.03453248587671345,
        -0.016461330179643983,
        0.11892616386715758,
        0.010697563251215686,
        0.06682417358991757,
        0.08533858197650894,
        0.02651435761878547,
        0.06750025157431845,
        -0.028684043005935536,
        -0.005329096348067012,
        0.04732410081768788,
        -0.02333564159159854,
        -0.07865136171210256,
        -0.054763989057640405,
        0.1028076525666135,
        -0.055798357221414435,
        -0.07938131076643354,
        -0.006646666740266476,
        -0.07825397527421742,
        -0.047268044916586795,
        0.040487568984604046,
        -0.04575806198442845,
        0.013081475766810013,
        -0.0462687070605735,
        -0.140106845236127,
        -0.033781848616524675,
        0.005413584607589428,
        0.1645209694637439,
        -0.030533557457775067,
        0.018399589344788716,
        0.184559749919364,
        0.0216361202231975,
        0.02487056917466854,
        -0.06470759603017458,
        0.01882229499198875,
        0.05506342213602909,
        0.0042254929420353
      ]
    },
    "x_mean": {
      "shape": [
        18
      ],
      "values": [
        -0.0875689253621844,
        0.3042822049847678,
        0.32553528197523374,
        -0.1731595976668905,
        -0.5907852681381269,
        -0.3007387876687263,
        0.13052455633441232,
        0.4839899243212423,
        0.061339389325944786,
        0.5781647790509974,
        0.3315312485036725,
        0.6893933029368492,
        -0.03734203434715725,
        0.39609280462489227,
        0.2648065081819766,
        0.12231560918542818,
        0.009053698658137497,
        -0.05705869286858951
      ]
    },
    "x_scale": {
      "shape": [
        18
      ],
      "values": [
        1.0178695641138051,
        1.4144218380559095,
        0.9830970382618379,
        1.0830511622179388,
        0.742694999952002,
        1.102431185964732,
        1.2532282202183886,
        1.0841426107882024,
        1.0336301166388229,
        0.8803923149443862,
        0.8635687008068648,
        0.8558977841661826,
        0.7486696124197508,
        0.5403992236341051,
        1.1032184539257712,
        1.1163442855577053,
        0.5532170821775005,
        1.306674854991871
      ]
    },
    "y_loadings_Q": {
      "shape": [
        1,
        3
      ],
      "sign_invariant": true,
      "values": [
        -2.260140868395066,
        -0.7332146446360905,
        0.5713191491737851
      ]
    },
    "y_mean": {
      "shape": [
        1
      ],
      "values": [
        -0.01864661417897135
      ]
    },
    "y_scale": {
      "shape": [
        1
      ],
      "values": [
        0.5906122960024077
      ]
    }
  },
  "fixture_id": "synthetic_wide_kernel_pls1_v1",
  "generator": {
    "git_revision_sha": "unknown",
    "name": "pls4all_parity.suites._kernel_pls_expected",
    "params": {
      "algorithm": "wide-kernelpls",
      "deflation_mode": "regression",
      "n_components": 3,
      "reference": "NumPy linear wide-kernel PLS with regression deflation",
      "scale": true
    },
    "version": "1"
  },
  "schema_version": 1
}
