{
  "comparison_policy": {
    "components_alignment": "first-k-prefix",
    "sign_resolver": "max_abs_element_positive",
    "tolerance_table_row": "pls4all-numpy-kernelpls"
  },
  "data": {
    "X": {
      "dtype": "f64",
      "layout": "row_major",
      "rng_seed": 51,
      "shape": [
        8,
        12
      ],
      "values": [
        -0.5751108303105836,
        -0.6220993166194774,
        0.08025479526353546,
        1.2524723497116306,
        -0.32389662147366177,
        -1.1016437567606532,
        -0.7987351061217752,
        1.7774511121114445,
        -0.3504098615772675,
        -1.1836250641849182,
        -0.3022892878974984,
        0.29827317660283587,
        0.2871020714501013,
        1.8630305107527658,
        -0.19139729793680396,
        -1.54564573401307,
        1.508860040333287,
        0.2870095032733602,
        0.30000190493599066,
        -0.6790304942926411,
        -1.0356338683299615,
        1.5807695824286596,
        -1.5177162457649291,
        -0.6201256783781701,
        -1.146867109399292,
        1.4436946534628072,
        0.32228070741198306,
        -0.7082746784670266,
        0.7131900347206027,
        1.9445045519534288,
        -0.9627354962136402,
        -0.8935283137902637,
        0.39996180180184965,
        0.24263528471519386,
        -1.1358868343996653,
        -0.6383676031063455,
        -0.01925942961052375,
        0.8641139067448292,
        -1.4871802302776653,
        0.6720632911899885,
        0.5077730085525273,
        2.058899100667885,
        -2.397219925153993,
        -0.34143716541983377,
        -0.39436600774427505,
        1.5376945130007649,
        -1.180694807994338,
        -0.5536459650677403,
        0.2650932491280237,
        0.631106365652501,
        0.5079075564717527,
        -1.298173686939686,
        1.9953555351110634,
        -0.695840028912146,
        0.46154386689301846,
        0.993867466752402,
        -0.35557681902348237,
        0.5626827718060513,
        -1.539135791125201,
        -0.12175184260462911,
        -0.5469081575202287,
        -1.581464675415443,
        -0.7101176371329816,
        -1.0683301285402995,
        0.9790498495005723,
        -0.8604312556681926,
        -1.6213092635863207,
        -0.22810207619529926,
        -0.37293733865626555,
        2.686264288431484,
        1.8651449017702242,
        0.17307336674645923,
        -0.8335529684788846,
        2.397183074310078,
        0.2914595489529246,
        -1.8120982973548794,
        0.4110612931132611,
        -1.8237792720158315,
        1.3030167658735998,
        0.4196593534117252,
        -1.242308415293468,
        -0.6754737022321733,
        -2.3637309271316744,
        1.8078080101470122,
        0.061515944550117524,
        0.6805455201036975,
        1.365045970195392,
        -0.47239666846616,
        -0.6498909827907781,
        -0.5547359734554009,
        0.2878461120037918,
        -0.9442685030865876,
        -0.422331907300688,
        0.2600603396040004,
        0.1126034765414661,
        -0.6562219631346289
      ]
    },
    "Y": {
      "dtype": "f64",
      "layout": "row_major",
      "rng_seed": 51,
      "shape": [
        8,
        2
      ],
      "values": [
        0.2577417972695221,
        -0.9743366265263117,
        0.6045811343155243,
        -0.28115929690760444,
        1.1647151611858473,
        0.15485434811360976,
        0.9987284327263943,
        -1.6425540700377919,
        1.0169706405630985,
        -0.9803542933387601,
        0.5714187279236131,
        -2.5722312859545813,
        -0.7548652508671565,
        1.4128226050481765,
        -0.22591682523393952,
        0.4102420654108029
      ]
    }
  },
  "expected": {
    "coefficients": {
      "shape": [
        12,
        2
      ],
      "values": [
        0.11679780207180514,
        -0.268043567783044,
        -0.021503033565572056,
        0.30412580812379697,
        -0.10520839444952769,
        0.33290094611009646,
        0.0008422351592936144,
        -0.09996536420341467,
        0.33274048904903153,
        -0.3381860174079351,
        0.11501300940692842,
        0.02249975148204855,
        -0.07357169374161572,
        0.20821141029124932,
        0.0835202426655736,
        -0.2787556848863251,
        0.3675582328931776,
        -0.2118213626586676,
        0.06099193496518687,
        -0.19604756776264456,
        -0.05584887314652403,
        -0.1735436492896712,
        -0.18299018302339895,
        0.07047449317531855
      ]
    },
    "intercept": {
      "shape": [
        2
      ],
      "values": [
        0.454171727235363,
        -0.5590895692740576
      ]
    },
    "loadings_P": {
      "shape": [
        12,
        3
      ],
      "sign_invariant": true,
      "values": [
        -0.3936658833967971,
        0.15271038819632846,
        0.8512192634114054,
        1.5580722915861729,
        1.916734188027063,
        -0.034156436813509626,
        1.6730145193185728,
        0.3206011218163029,
        -0.5229527475645802,
        -1.1427086605496433,
        -0.6178576497801392,
        -0.7909285430589257,
        -0.4858172831979868,
        0.8172947460264272,
        2.2215168397113887,
        -1.6740519888104253,
        1.8731854912683192,
        -0.5019138630827188,
        2.4058859747183625,
        0.26358621093451723,
        0.4945406931043907,
        0.6614540764004333,
        -1.4010733320051807,
        1.4325752324858818,
        -1.5412752121942617,
        0.7212105015753828,
        -0.46832042079767444,
        -1.8451151007844233,
        -0.013576587629110962,
        0.30993254821968197,
        -1.4989149513208195,
        -1.6226323794511566,
        -0.8245731189390555,
        1.771975467270207,
        -1.2622975028990042,
        0.44455279112152735
      ]
    },
    "predict_train": {
      "shape": [
        8,
        2
      ],
      "values": [
        0.031790373146958206,
        -1.052933792177158,
        0.7415084317051449,
        -0.2646129989926015,
        0.9586346459373882,
        0.07347048328012806,
        1.1648127623551134,
        -1.5978225275165403,
        0.9666000596579716,
        -0.950265067134382,
        0.620825767736924,
        -2.569676423396463,
        -0.6525900828001503,
        1.4159785097694262,
        -0.1982081398564463,
        0.47314526197513085
      ]
    },
    "rotations_R": {
      "shape": [
        12,
        3
      ],
      "sign_invariant": true,
      "values": [
        -0.02404930736357367,
        -0.013397638581962999,
        0.05941109429358715,
        0.06554670302598958,
        0.11946177852737608,
        -0.04465641338151058,
        0.06827387599080977,
        0.038327288682084494,
        -0.03706790371027137,
        -0.03665025815115896,
        -0.029768091989085557,
        -0.03993660117297924,
        -0.050887619633098784,
        0.06592584136939444,
        0.25436812471442977,
        -0.056286646940135195,
        0.12671890602635952,
        -0.019220067866062646,
        0.08635631230929727,
        0.02023882551420429,
        0.020049979392329692,
        -0.0016056775632456613,
        -0.06229505604072639,
        0.1906081511682209,
        -0.060248426311820376,
        0.08373775399379119,
        0.050597497986074505,
        -0.07062547515048428,
        -0.03046359031420119,
        0.004827745809028297,
        -0.047842400250345106,
        -0.11595156945540305,
        -0.07356198630822712,
        0.06307587910577922,
        -0.08680432376528263,
        0.0017263630568469177
      ]
    },
    "scores_T": {
      "shape": [
        8,
        3
      ],
      "sign_invariant": true,
      "values": [
        0.04734600285342689,
        -0.45829351887685155,
        -0.002282595129746728,
        0.03206455067390187,
        0.2719010726431316,
        0.18075343636109156,
        -0.1353466673671705,
        0.5929628551691467,
        -0.21318770005485563,
        -0.46933069016427476,
        0.1573739749375598,
        -0.0905446621640579,
        0.050143195985397494,
        0.11789290528080731,
        0.733439349588696,
        -0.4285410622255933,
        -0.5610305807361841,
        0.013398530537072843,
        0.7379035703638871,
        -0.10349721465849675,
        -0.008807825542008214,
        0.16576109988042528,
        -0.017309493759112976,
        -0.6127685335961917
      ]
    },
    "weights_W": {
      "shape": [
        12,
        3
      ],
      "sign_invariant": true,
      "values": [
        -0.024049307363573667,
        -0.013151326711275073,
        0.051479732342419926,
        0.06554670302598958,
        0.11879045228934015,
        -0.03379735291769062,
        0.06827387599080977,
        0.03762803086728842,
        -0.014589407540059112,
        -0.03665025815115896,
        -0.029392721775302156,
        -0.050810952785998204,
        -0.05088761963309877,
        0.06644702996735251,
        0.22535834354152798,
        -0.0562866469401352,
        0.1272953912071167,
        -0.05828526074222145,
        0.08635631230929727,
        0.019354368240277517,
        0.05214454398959855,
        -0.0016056775632456487,
        -0.062278610766925105,
        0.1980421310707592,
        -0.060248426311820376,
        0.08435481553184382,
        0.015514041923189175,
        -0.07062547515048428,
        -0.029740247531827014,
        -0.019616114881421263,
        -0.047842400250345106,
        -0.11546156985060312,
        -0.0777583103583273,
        0.06307587910577922,
        -0.08745034394137141,
        0.038344322502846834
      ]
    },
    "x_mean": {
      "shape": [
        12
      ],
      "values": [
        -0.31349840377390875,
        0.7095137548739697,
        0.022281676618517127,
        -0.6225479441099377,
        0.6426877696333593,
        -0.09325214136469379,
        -0.4284488926711661,
        0.013076422436368307,
        -0.47170030201544483,
        0.6263760016961328,
        -0.7577131895002021,
        -0.038869812349400845
      ]
    },
    "x_scale": {
      "shape": [
        12
      ],
      "values": [
        0.5359348163537968,
        1.2967274112827298,
        0.8506474994737412,
        1.0786198393136792,
        0.8762723433613244,
        1.4195083309256902,
        1.2279674748189857,
        0.9740621268299371,
        0.49541047098626145,
        1.2672200017374973,
        1.3056850557144948,
        0.8382846316484792
      ]
    },
    "y_loadings_Q": {
      "shape": [
        2,
        3
      ],
      "sign_invariant": true,
      "values": [
        -2.072606229006344,
        1.1619539445824054,
        1.0018654206548216,
        2.281151243667592,
        1.0993771230324567,
        -0.7582948203968776
      ]
    },
    "y_mean": {
      "shape": [
        2
      ],
      "values": [
        0.454171727235363,
        -0.5590895692740576
      ]
    },
    "y_scale": {
      "shape": [
        2
      ],
      "values": [
        0.6673403515643612,
        1.2530837149588887
      ]
    }
  },
  "fixture_id": "synthetic_kernel_wide_pls2_v1",
  "generator": {
    "git_revision_sha": "unknown",
    "name": "pls4all_parity.suites._kernel_pls_expected",
    "params": {
      "algorithm": "kernelpls",
      "deflation_mode": "regression",
      "n_components": 3,
      "reference": "NumPy linear kernel PLS with regression deflation",
      "scale": true
    },
    "version": "1"
  },
  "schema_version": 1
}
