{
  "comparison_policy": {
    "components_alignment": "first-k-prefix",
    "sign_resolver": "max_abs_element_positive",
    "tolerance_table_row": "sklearn/PLSCanonical/nipals"
  },
  "data": {
    "X": {
      "dtype": "f64",
      "layout": "row_major",
      "rng_seed": 101,
      "shape": [
        14,
        6
      ],
      "values": [
        -0.7901524999630146,
        -2.0346254818318728,
        0.6033017469247647,
        0.7442945298799118,
        -0.30968679986627135,
        0.36732137294554024,
        1.7103942914776449,
        1.0607978400658138,
        0.7076390208060754,
        0.687749388505445,
        -0.8635674537523599,
        0.9640167316735617,
        -1.6484628156748702,
        -0.3320918127686623,
        -0.4372938409341125,
        -1.7285187058460105,
        -0.11033888700145329,
        1.6434550766344018,
        -0.3401273376251148,
        -1.2076033402593367,
        -0.09105371850643591,
        0.8539243165009879,
        0.19321811565038277,
        -0.0026657164631725457,
        -1.4092222584076113,
        0.5010157424554261,
        0.4857310867836978,
        1.3412662057172517,
        1.489053273620953,
        0.6885829801010488,
        -1.6424168811861135,
        -1.4353935022152693,
        -1.0979784550410603,
        0.2949249577826172,
        -0.7872461020555568,
        1.3095376610763625,
        0.24385526074207703,
        0.3647673957005642,
        0.7505081047151582,
        0.3402479014279051,
        -1.410567008519284,
        2.4519291799137406,
        1.4629889056618062,
        1.5231286713207461,
        -0.747482633005506,
        -1.8474977757527729,
        -1.5066347122204127,
        -1.0534632139707452,
        0.8821394661683425,
        0.9003194108080018,
        1.458392914492266,
        2.1424499559696035,
        0.520907608641395,
        0.35456182486107,
        -0.3630023322412846,
        -0.3364626948247302,
        -1.1577837086639562,
        0.5108001267806528,
        0.31817103995393936,
        -0.40519828505149047,
        -0.8105855180514764,
        0.4569514283527267,
        1.3061600648002516,
        0.08149811962435799,
        0.283769043991715,
        -0.5481664388036902,
        -0.24852584993024826,
        -0.316502228872869,
        -0.28507864375164177,
        -0.5972447789424902,
        0.39638337815465297,
        1.299729294584818,
        -0.9471755173776237,
        1.399206733762922,
        -0.4030024427643251,
        -0.3670887832022261,
        -2.156465891031795,
        -2.4214757028147136,
        0.7355030418952013,
        -1.0910834111861687,
        0.8053083193545435,
        0.0506258749302553,
        0.25047314441891266,
        1.3333047650292276
      ]
    },
    "Y": {
      "dtype": "f64",
      "layout": "row_major",
      "rng_seed": 101,
      "shape": [
        14,
        3
      ],
      "values": [
        0.24731295349642007,
        -0.8585192555784076,
        0.6450596054594415,
        -0.020346030994014927,
        0.39124385191316363,
        1.0513216744654519,
        -1.117065606636551,
        1.1982004076153687,
        -0.20792553633368682,
        0.2863660768961603,
        -0.8007483969993802,
        0.16417983078082887,
        0.03838195260437241,
        0.5505730289756008,
        -0.1898788827516972,
        -0.9994722966610745,
        -0.31584914569215505,
        0.12738617247783995,
        -0.9325797198374643,
        0.9059802552467539,
        1.487438882317716,
        -0.6253762767676344,
        0.3186590719245641,
        -0.3570756191553371,
        0.6584808512013292,
        0.005525834222249426,
        0.8324582074628474,
        0.06749127396730997,
        -0.6528335371558212,
        -0.5201672753947437,
        0.024804295526147067,
        0.4635739193081383,
        0.10043358090191506,
        -0.2801954557277073,
        0.49404450334867056,
        0.010567537533471685,
        -1.239397558090536,
        -0.23415157009212714,
        -0.5431734443214853,
        0.5072427035461793,
        0.08312632761340324,
        0.8923002130932652
      ]
    }
  },
  "expected": {
    "coefficients": {
      "shape": [
        6,
        3
      ],
      "values": [
        0.136130603453535,
        0.03022140226172259,
        0.19533876763186672,
        -0.16800583737745386,
        0.20395362596288308,
        0.03058639030627097,
        0.23000441451112313,
        0.10543705728074504,
        0.39127178712823196,
        0.3153112721907712,
        -0.2372503564503065,
        0.10646859992508603,
        0.23220013331655667,
        -0.20317916908651146,
        0.0463525539536329,
        -0.024987891255001393,
        0.24805274788645953,
        0.24971347056203894
      ]
    },
    "intercept": {
      "shape": [
        3
      ],
      "values": [
        -0.2417394883912189,
        0.11063037818928727,
        0.24949463903827335
      ]
    },
    "loadings_P": {
      "shape": [
        6,
        2
      ],
      "sign_invariant": true,
      "values": [
        0.2549964193187076,
        0.5030583296752543,
        -0.11599620338825496,
        0.47143224215006824,
        0.5995015374142126,
        0.22138325396180966,
        0.561610519227796,
        -0.47396471006384583,
        0.4124322334872757,
        -0.48558867461235006,
        0.3422271110938331,
        0.46938758280403436
      ]
    },
    "predict_train": {
      "shape": [
        14,
        3
      ],
      "values": [
        0.29336094750397007,
        -0.40371267730830745,
        0.30437822122291236,
        -0.023639903328836614,
        0.5881454680238036,
        1.0456428113394751,
        -1.1141636929048409,
        0.6705895100878984,
        -0.1537332962697368,
        0.21656106778252515,
        -0.5146147413339188,
        0.08849179695214077,
        0.3539142430141467,
        -0.3450733480713454,
        0.44216221309302073,
        -0.590759367548474,
        -0.049269212335545584,
        -0.3441323976999305,
        -0.3702477903532793,
        0.9690511972951119,
        1.0638542467953482,
        -1.3679777726125828,
        0.753243554932115,
        -0.36141601540446294,
        0.8586350637175173,
        -0.16806011577592578,
        1.2395576841054583,
        -0.24738063852406939,
        -0.4939374382324229,
        -0.4379707477760117,
        -0.014670104252029692,
        -0.012475181866193119,
        0.37993538409369354,
        -0.4082450216749349,
        0.2755135669481773,
        0.2378630710155979,
        -1.24594083283001,
        0.13291699621763256,
        -0.9153349170595506,
        0.27620096453383364,
        0.1465077160689421,
        0.9036268921278727
      ]
    },
    "rotations_R": {
      "shape": [
        6,
        2
      ],
      "sign_invariant": true,
      "values": [
        0.4057862832322026,
        0.1315761525496704,
        -0.17721085241946638,
        0.4174847601236477,
        0.5899537011663701,
        0.27360994513066234,
        0.5159285894497958,
        -0.42035901298017747,
        0.30973186529700114,
        -0.34050718762770726,
        0.3062226294927374,
        0.6643535614352897
      ]
    },
    "scores_T": {
      "shape": [
        14,
        2
      ],
      "sign_invariant": true,
      "values": [
        0.6759208319697009,
        -0.9058532623872538,
        1.1213296607775325,
        1.126051897049063,
        -1.4449793930997539,
        0.8706077317128621,
        0.3515304187975257,
        -1.1778028140010528,
        0.8962352113587319,
        -0.7541070572336913,
        -1.050645071625177,
        -0.4871166863268963,
        0.7422745669936957,
        1.8167032063169386,
        -1.9641540465487075,
        0.9492571151396847,
        2.3488431924104707,
        -0.16766516209314852,
        -0.7579762847898509,
        -1.317804441531532,
        0.40395537227505296,
        -0.17733731787148754,
        -0.20437061720102434,
        0.2923962400137479,
        -2.429184183655745,
        -0.351927331218067,
        1.3112203423375486,
        0.2845978824308334
      ]
    },
    "weights_W": {
      "shape": [
        6,
        2
      ],
      "sign_invariant": true,
      "values": [
        0.4057862832322026,
        0.1226792464968687,
        -0.1772108524194664,
        0.4213701263143296,
        0.5899537011663701,
        0.2606751494717949,
        0.5159285894497958,
        -0.431670800440629,
        0.30973186529700114,
        -0.3472980906743969,
        0.3062226294927373,
        0.6576395987450333
      ]
    },
    "x_mean": {
      "shape": [
        6
      ],
      "values": [
        -0.22605643175087753,
        -0.03911251782090771,
        0.13552627251497995,
        0.1791022380982492,
        -0.26375223214394156,
        0.42724782355113994
      ]
    },
    "x_scale": {
      "shape": [
        6
      ],
      "values": [
        1.0960624676630049,
        1.107926583710011,
        0.8519756664308865,
        1.0763725440871212,
        0.9741756620099353,
        1.2539580583387901
      ]
    },
    "y_loadings_Q": {
      "shape": [
        3,
        2
      ],
      "sign_invariant": true,
      "values": [
        0.7157579271327379,
        -0.4048861034475235,
        -0.1321569894211679,
        0.8107892703337267,
        0.6982615729298973,
        0.42501521417107807
      ]
    },
    "y_mean": {
      "shape": [
        3
      ],
      "values": [
        -0.2417394883912189,
        0.11063037818928727,
        0.24949463903827335
      ]
    },
    "y_scale": {
      "shape": [
        3
      ],
      "values": [
        0.6291131620554435,
        0.6243665820472595,
        0.6310769858884889
      ]
    }
  },
  "fixture_id": "synthetic_canonical_small_pls2_v1",
  "generator": {
    "git_revision_sha": "unknown",
    "name": "pls4all_parity.suites._canonical_pls_expected",
    "params": {
      "algorithm": "nipals",
      "deflation_mode": "canonical",
      "n_components": 2,
      "reference": "NumPy mirror of sklearn PLSCanonical(nipals)",
      "scale": true
    },
    "version": "1"
  },
  "schema_version": 1
}
