{
  "comparison_policy": {
    "components_alignment": "first-k-prefix",
    "sign_resolver": "max_abs_element_positive",
    "tolerance_table_row": "sklearn/PLSSVD"
  },
  "data": {
    "X": {
      "dtype": "f64",
      "layout": "row_major",
      "rng_seed": 32,
      "shape": [
        11,
        5
      ],
      "values": [
        0.9091452127202385,
        0.7513966404579656,
        -0.02553838109090594,
        0.6525056443681696,
        -0.6509536737300202,
        -1.8294924470976193,
        1.6785105600620331,
        0.4766139840355337,
        -2.066348086209916,
        -1.0589355858128093,
        -0.6195720544749211,
        0.34155856252382527,
        1.3269220094636065,
        0.30765287100488425,
        -0.4329802451926226,
        0.46736314291940656,
        -0.2221706334507355,
        0.18286697545806377,
        -0.66622196355003,
        -1.2068094517591883,
        1.2831585485236168,
        -0.31994927116963606,
        0.11828975734121142,
        -0.6008037722053742,
        -0.5448718452361216,
        -0.35370060384285784,
        0.6579650562986378,
        1.2185423468495589,
        0.542680457752009,
        -0.5538851488473853,
        2.796293002240641,
        0.8393442424965899,
        0.9432999048604337,
        -0.5472232948296175,
        -0.24332361511601533,
        0.6090923961728935,
        -1.739393997958978,
        -0.7746402305691924,
        0.39951540796236834,
        2.421554390694282,
        0.42384258367557576,
        -1.036977155339615,
        -1.2175779653910996,
        0.9792370708942376,
        -0.8115337141278551,
        -0.34455265138877894,
        1.963738924768597,
        0.060207100284116,
        -0.3565968588646013,
        -0.7827652317423431,
        1.323047575032155,
        1.3185503272563557,
        -0.6749138730815726,
        -1.4153840546402046,
        -0.12107567938068378
      ]
    },
    "Y": {
      "dtype": "f64",
      "layout": "row_major",
      "rng_seed": 32,
      "shape": [
        11,
        2
      ],
      "values": [
        0.016444113485791376,
        -0.20320178846523249,
        -1.7937499678565854,
        1.7571647287250736,
        -0.08863263448528505,
        0.31111609451154204,
        -0.11051184658878188,
        -0.2169483169325076,
        0.4399214571013548,
        -0.32329886940647634,
        -0.1961561307189074,
        0.24169358739261607,
        0.9625052488990048,
        0.16511712059668432,
        1.4526643028260577,
        -0.6573013515894328,
        0.0591087510462667,
        -1.3476943924916254,
        -1.116841445195467,
        0.9679170554256961,
        -0.284303985502688,
        0.7202770485039406
      ]
    }
  },
  "expected": {
    "coefficients": {
      "shape": [
        5,
        2
      ],
      "values": [
        0.45829775869115885,
        -0.006782462301340618,
        -0.2223198950730516,
        0.42493424243943423,
        0.1716627701222377,
        0.5079685506597226,
        0.04772709145372684,
        -0.5575475606717479,
        0.633469681001973,
        0.14996270642036144
      ]
    },
    "intercept": {
      "shape": [
        2
      ],
      "values": [
        -0.05995928518083995,
        0.12862190147911617
      ]
    },
    "loadings_P": {
      "shape": [
        5,
        2
      ],
      "sign_invariant": true,
      "values": [
        -0.36443609812508754,
        0.5452236952065208,
        0.5937221056405593,
        0.24756467172430846,
        0.3472394538733758,
        0.43033051986343995,
        -0.45615427693210475,
        -0.4880049161510553,
        -0.4631342406461867,
        0.5029734416362297
      ]
    },
    "predict_train": {
      "shape": [
        11,
        2
      ],
      "values": [
        -0.08870770038324163,
        -0.3548494097606124,
        -1.8519413574013364,
        1.7674735507303765,
        -0.3444124036146956,
        0.3933318765692077,
        -0.45401343334436284,
        -0.007796020480464599,
        0.35295602937233694,
        -0.024889607355032345,
        -0.3768847329186713,
        0.32175682282137474,
        1.1238905745789216,
        0.8918976594099834,
        2.133204396397813,
        -1.1899410126096328,
        -0.2042871963560404,
        -1.9232670743657034,
        -1.0497432772269741,
        0.7552313279686733,
        0.10038696390701152,
        0.7858928033421075
      ]
    },
    "rotations_R": {
      "shape": [
        5,
        2
      ],
      "sign_invariant": true,
      "values": [
        -0.45243602728120297,
        0.4407132471812864,
        0.6099675106444615,
        0.20425969667233465,
        0.24061209602819747,
        0.46402261753037427,
        -0.47774293232210263,
        -0.4040741510561967,
        -0.3702820371519495,
        0.6208517544009413
      ]
    },
    "scores_T": {
      "shape": [
        11,
        2
      ],
      "sign_invariant": true,
      "values": [
        -0.3871115371423878,
        -0.4310948650295707,
        2.8212981541502775,
        -0.055374844379947774,
        0.451714572065717,
        -0.004938080939682225,
        0.19902213143123407,
        -0.4314424409387083,
        -0.4600000830722793,
        0.20190129488082367,
        0.41694126856779085,
        -0.09140886687276066,
        -0.29813821637687143,
        1.5944531065712313,
        -2.870056619202096,
        0.6477134988854346,
        -1.6251059017951057,
        -1.8475139990510652,
        1.322017334688151,
        -0.26570114692829416,
        0.4294188966855691,
        0.6834063438025395
      ]
    },
    "weights_W": {
      "shape": [
        5,
        2
      ],
      "sign_invariant": true,
      "values": [
        -0.45243602728120297,
        0.4407132471812864,
        0.6099675106444615,
        0.20425969667233465,
        0.24061209602819747,
        0.46402261753037427,
        -0.47774293232210263,
        -0.4040741510561967,
        -0.3702820371519495,
        0.6208517544009413
      ]
    },
    "x_mean": {
      "shape": [
        5
      ],
      "values": [
        0.4240567913163954,
        0.3847793869040945,
        0.14855196619634123,
        -0.25190787075618865,
        -0.36232543638643305
      ]
    },
    "x_scale": {
      "shape": [
        5
      ],
      "values": [
        1.2169010524831492,
        1.133792425928074,
        0.8191203051580571,
        0.9348763781726788,
        0.977631990954867
      ]
    },
    "y_loadings_Q": {
      "shape": [
        2,
        2
      ],
      "sign_invariant": true,
      "values": [
        -0.7053284924480815,
        0.7088806089468924,
        0.7088806089468924,
        0.7053284924480815
      ]
    },
    "y_mean": {
      "shape": [
        2
      ],
      "values": [
        -0.05995928518083995,
        0.12862190147911617
      ]
    },
    "y_scale": {
      "shape": [
        2
      ],
      "values": [
        0.8830994935307138,
        0.835762431917963
      ]
    }
  },
  "fixture_id": "synthetic_pls_svd_tiny_v1",
  "generator": {
    "git_revision_sha": "unknown",
    "name": "pls4all_parity.suites._pls_svd_expected",
    "params": {
      "algorithm": "pls-svd",
      "deflation_mode": "canonical",
      "n_components": 2,
      "reference": "NumPy mirror of sklearn PLSSVD cross-covariance SVD",
      "scale": true
    },
    "version": "1"
  },
  "schema_version": 1
}
