{
  "comparison_policy": {
    "components_alignment": "first-k-prefix",
    "sign_resolver": "max_abs_element_positive",
    "tolerance_table_row": "pls4all-numpy-pcr"
  },
  "data": {
    "X": {
      "dtype": "f64",
      "layout": "row_major",
      "rng_seed": 40,
      "shape": [
        10,
        4
      ],
      "values": [
        -1.1420923057255792,
        -1.0693365802085328,
        -0.7572575068057147,
        0.7686581312993666,
        -1.0379354649276662,
        -1.0260363353167576,
        -0.39261925899459704,
        1.3877289445272596,
        -0.9174509604357025,
        -0.6967310185745602,
        0.19330890944750215,
        0.14465215661725417,
        0.3860937605817094,
        -0.5705885430127494,
        -0.9355836339731415,
        -1.3355174585577776,
        0.3295198153048591,
        -0.2075412305914273,
        0.42677117201679815,
        0.045009659429134034,
        1.3904740628569348,
        0.5831599838012852,
        0.16520463247132255,
        0.04400741512350645,
        -0.510193727282879,
        -0.3873323850585959,
        -0.3200181709340063,
        1.5219252066516322,
        -0.18918018350193444,
        -0.5966429337877645,
        0.24150018409746557,
        0.7222547619794684,
        -1.128183892606301,
        -2.3312010894733897,
        -0.2706349144982353,
        1.0249431913515943,
        -0.6921020452822316,
        0.6293933182891921,
        0.3285836935669704,
        0.6907341715686957
      ]
    },
    "Y": {
      "dtype": "f64",
      "layout": "row_major",
      "rng_seed": 40,
      "shape": [
        10,
        1
      ],
      "values": [
        0.5505383990941424,
        0.9286583591952025,
        0.2923745646679,
        -0.3291978472749117,
        0.23481239182689478,
        0.1518006271868385,
        0.8526536217083455,
        0.6905564024293392,
        1.5566983809747417,
        -0.216170864205821
      ]
    }
  },
  "expected": {
    "coefficients": {
      "shape": [
        4,
        1
      ],
      "values": [
        -0.24927026321165105,
        -0.16581319545647574,
        -0.00950724950825251,
        0.2490504403600596
      ]
    },
    "intercept": {
      "shape": [
        1
      ],
      "values": [
        0.47127240356026723
      ]
    },
    "loadings_P": {
      "shape": [
        4,
        2
      ],
      "sign_invariant": true,
      "values": [
        0.6164486735219256,
        -0.18183096453267525,
        0.5789192018906844,
        0.2536626878300587,
        0.31983183556225014,
        0.7197428320500573,
        -0.4272600935685351,
        0.6201314351429942
      ]
    },
    "predict_train": {
      "shape": [
        10,
        1
      ],
      "values": [
        0.824183317158088,
        0.9417535139138198,
        0.5419577561947042,
        -0.16179749786577424,
        0.12297530899417386,
        -0.27036056158961863,
        0.7370290506383361,
        0.4872195995198122,
        1.0891516145356044,
        0.40061193410352625
      ]
    },
    "rotations_R": {
      "shape": [
        4,
        2
      ],
      "sign_invariant": true,
      "values": [
        0.6164486735219254,
        -0.1818309645326753,
        0.5789192018906845,
        0.2536626878300589,
        0.31983183556225014,
        0.7197428320500577,
        -0.427260093568535,
        0.6201314351429945
      ]
    },
    "scores_T": {
      "shape": [
        10,
        2
      ],
      "sign_invariant": true,
      "values": [
        -1.4880237830628045,
        -0.7272942774113891,
        -1.454330340375688,
        0.2806385453044096,
        -0.10391589057117215,
        0.3127526918803542,
        0.9485920163661692,
        -2.7587857321600353,
        1.3621498149770959,
        0.4664744366791661,
        2.510340175318028,
        0.07204472773365961,
        -0.6486726551069648,
        0.5666428085518267,
        0.23847862855657073,
        0.6890913756216577,
        -2.1401655488880893,
        -0.17506880476888909,
        0.7755475827868548,
        1.273504228569239
      ]
    },
    "weights_W": {
      "shape": [
        4,
        2
      ],
      "sign_invariant": true,
      "values": [
        0.6164486735219254,
        -0.18183096453267536,
        0.5789192018906845,
        0.25366268783005885,
        0.3198318355622501,
        0.7197428320500577,
        -0.42726009356853506,
        0.6201314351429945
      ]
    },
    "x_mean": {
      "shape": [
        4
      ],
      "values": [
        -0.35110509410187907,
        -0.56728568139333,
        -0.1320744893605636,
        0.5014396179990135
      ]
    },
    "x_scale": {
      "shape": [
        4
      ],
      "values": [
        0.8319731563403955,
        0.8504181195421396,
        0.47342814197251404,
        0.8284010172863916
      ]
    },
    "y_loadings_Q": {
      "shape": [
        1,
        2
      ],
      "sign_invariant": true,
      "values": [
        -0.5277191017943176,
        0.22346744503208837
      ]
    },
    "y_mean": {
      "shape": [
        1
      ],
      "values": [
        0.47127240356026723
      ]
    },
    "y_scale": {
      "shape": [
        1
      ],
      "values": [
        0.5667139712902308
      ]
    }
  },
  "fixture_id": "synthetic_pcr_tiny_pls1_v1",
  "generator": {
    "git_revision_sha": "unknown",
    "name": "pls4all_parity.suites._pcr_expected",
    "params": {
      "algorithm": "pcr",
      "deflation_mode": "x-only",
      "n_components": 2,
      "reference": "NumPy PCA/SVD with score-space least squares",
      "scale": true
    },
    "version": "1"
  },
  "schema_version": 1
}
