{
  "comparison_policy": {
    "components_alignment": "first-k-prefix",
    "sign_resolver": "max_abs_element_positive",
    "tolerance_table_row": "pls4all-numpy-opls"
  },
  "data": {
    "X": {
      "dtype": "f64",
      "layout": "row_major",
      "rng_seed": 121,
      "shape": [
        18,
        8
      ],
      "values": [
        0.09160452233648808,
        0.0051474411146890525,
        -0.5541544646163831,
        0.23430224936768568,
        0.12882394801165958,
        0.39793629682634196,
        -0.261211742496795,
        0.017159541023425436,
        -0.48214371950651863,
        -0.3679874276718692,
        0.16574404245394164,
        -0.3330895903365396,
        0.9783270417691957,
        -0.3713902378393354,
        -0.1503779159093856,
        -0.2978603967711974,
        0.17741721085685325,
        -0.24633969419314933,
        0.20159740554202218,
        0.08872256794030291,
        0.1470875618022003,
        -0.0678459090910018,
        0.10026434777081573,
        -0.15957861538930618,
        -0.6740752117210301,
        0.7461206490326021,
        0.12104806813813034,
        -0.29841011713903887,
        -0.1498611959276656,
        -0.6097277173020647,
        -0.5041279870170111,
        0.5266901529632885,
        0.9169944549084521,
        -0.782358864340319,
        0.40964523704866884,
        0.5324046503203318,
        -0.0922600426889486,
        0.2819269231285948,
        0.6668691924224497,
        -0.6089171226483183,
        0.4358103798962269,
        -0.006963382245578567,
        0.5586835922006794,
        0.23817192973648674,
        -0.47541309607753623,
        -0.18576652849940375,
        0.23603840171359156,
        -0.010944808358989876,
        0.39482908960359,
        -0.5959344439107314,
        0.17556984659792194,
        0.011959661736025352,
        0.04558433892299982,
        0.23713709540001437,
        0.6639336967373182,
        -0.44949414307707136,
        -0.25856685960272374,
        -0.11343354726401937,
        -0.8464122543877826,
        -0.25255581174849184,
        0.2990027134272992,
        0.6854623262603624,
        -0.07006675579073768,
        -0.047977419890068235,
        1.115694903996099,
        -0.4500598009335944,
        0.7036476279539968,
        0.3647269364826078,
        -1.1676680152260301,
        0.4256329306332518,
        1.3862406637650617,
        -0.3529361169621832,
        -0.3051621431168352,
        0.14674485151238664,
        -1.0915270208256969,
        -0.2192211170539989,
        0.0569666710068575,
        0.9253297872561184,
        -0.15396960947456986,
        0.1296199898321063,
        -0.6884961168559856,
        0.13007083170019004,
        -0.004624661732950591,
        -0.6593071314778303,
        0.3110829777354355,
        -0.24282817398559042,
        -0.0036871169157261553,
        0.10054255504329108,
        0.5524684848496398,
        -1.2476252691485905,
        -0.23214678013976972,
        0.41594392465688124,
        1.0314189555209372,
        0.5776694524685805,
        0.3064021671249206,
        -0.909459916129796,
        -1.2409715918808064,
        1.37369988149483,
        -0.2572233749038311,
        -0.8879892117901923,
        -0.5651043387424721,
        -0.41998613531987766,
        -0.5332382099484824,
        1.0080258672692228,
        -0.6457247458065566,
        -0.015758119205462016,
        -0.14339686916798453,
        -0.39651139635236693,
        0.6714454365017511,
        -0.2598566916256044,
        -0.33370346398616096,
        0.0010899623135598759,
        0.7332927346435028,
        -0.07527130205226255,
        0.17562656625510786,
        0.6817500947593643,
        -0.4599880485329374,
        0.13533989938838226,
        0.06248685394004137,
        -0.028326115142073532,
        -0.9039055361488967,
        -0.2561096091291519,
        -0.6485901891001477,
        -0.6658099641495052,
        1.0735645129182976,
        0.21235247339667448,
        -0.18126437580601487,
        -0.19472040551714376,
        -0.7032316309283598,
        1.0483163897094554,
        -1.2534718994400968,
        0.08701649902703579,
        0.28111394951146296,
        0.18986727087510594,
        -1.585645080759127,
        0.8116002196316285,
        -0.11970138396235157,
        0.26244170607879813,
        0.463219696664438,
        -0.08811747029232822,
        -0.2893681074232998,
        -0.4869828066459506,
        -0.01647856960684365,
        0.18500800484318733
      ]
    },
    "Y": {
      "dtype": "f64",
      "layout": "row_major",
      "rng_seed": 121,
      "shape": [
        18,
        1
      ],
      "values": [
        -0.2726026850761265,
        -0.6013340941394886,
        0.28338038017668593,
        -1.2115149202325035,
        1.6318210772594375,
        0.6410493946646091,
        1.0896734692699375,
        -0.28236429905091676,
        2.591016033891547,
        -0.3755176442775892,
        -0.6555575198764904,
        0.8033128444942966,
        -1.780170649129183,
        -0.9672378521862299,
        0.7094126246233367,
        -1.007078679374202,
        -2.4230980234464137,
        -0.06492863301435976
      ]
    }
  },
  "expected": {
    "coefficients": {
      "shape": [
        8,
        1
      ],
      "values": [
        0.3655400143676259,
        -0.2808290725229741,
        0.34688318587051886,
        0.14229035610745264,
        -0.44411509441911134,
        0.40691648883689824,
        0.6784582295328482,
        -0.38866591048849186
      ]
    },
    "intercept": {
      "shape": [
        1
      ],
      "values": [
        -0.10509662085686962
      ]
    },
    "loadings_P": {
      "shape": [
        8,
        3
      ],
      "sign_invariant": true,
      "values": [
        0.4631582262928945,
        0.08211286773517187,
        -0.24712783608070743,
        -0.3710050859812026,
        -0.5010630298020536,
        -0.040349078506219466,
        0.31799375397190316,
        -0.3299907990767588,
        -0.5241784663100243,
        0.34159938837108766,
        0.18645972023554233,
        -0.5104562345737533,
        -0.19619668890441153,
        0.6855968121682238,
        0.06762784296917175,
        0.1799091275419306,
        0.39176384539866993,
        0.6580911063979002,
        0.4676511386286358,
        -0.07645815191466493,
        0.20429902692186652,
        -0.37486035819050617,
        -0.4849001111217713,
        -0.03254289751860234
      ]
    },
    "predict_train": {
      "shape": [
        18,
        1
      ],
      "values": [
        -0.21602972920147162,
        -0.6446794161736973,
        0.24369909123300598,
        -1.1946990835331022,
        1.6075604066967457,
        0.6788869276112522,
        1.0656851758397745,
        -0.284964382942417,
        2.589653359773593,
        -0.37619822313975476,
        -0.6721692446002987,
        0.859322439519617,
        -1.738476438944466,
        -0.978546100728202,
        0.7498733844610477,
        -1.0258945693429364,
        -2.4227108313594763,
        -0.1320519405928663
      ]
    },
    "rotations_R": {
      "shape": [
        8,
        3
      ],
      "sign_invariant": true,
      "values": [
        0.40689286261806495,
        0.03851089189684375,
        -0.19455950214384396,
        -0.2890092656768831,
        -0.3303325199426402,
        -0.016702649715687252,
        0.32317178516302086,
        -0.24548721721649883,
        -0.2741639397299156,
        0.10243148613951689,
        0.32377696556991875,
        -0.6557613957944574,
        -0.43366509242291795,
        0.7030469025897615,
        -0.23466433553062832,
        0.29106697422528666,
        0.07214296637762414,
        0.5847134244772926,
        0.6787156527725715,
        -0.3547575869236159,
        0.5051945002381892,
        -0.29800901311331796,
        -0.31459392858827157,
        -0.020313556555579065
      ]
    },
    "scores_T": {
      "shape": [
        18,
        3
      ],
      "sign_invariant": true,
      "values": [
        -0.18259035294017462,
        0.6096295749496772,
        -0.06978172967753801,
        -0.888126317810328,
        1.0688833962692845,
        -0.6579894174793945,
        0.5741003125656031,
        0.164522784221636,
        -0.5612866639142963,
        -1.7934312054658808,
        -1.2124968542108214,
        -0.8672942398180208,
        2.81894788483768,
        0.4752019758939904,
        -0.4699024536058175,
        1.2903977446427555,
        -0.9283700916859954,
        -0.8451081299965005,
        1.9270483326826768,
        0.11318246618953742,
        0.4448700110816963,
        -0.2960533482911061,
        0.6004962716954974,
        1.3869235455714102,
        4.4354238098186975,
        -1.7840192064322964,
        0.7785774986378073,
        -0.44621969024532016,
        0.2733984155791129,
        1.8031097004595937,
        -0.9333732017170318,
        -0.49766908227860096,
        0.5011723674396701,
        1.5873855807714141,
        2.6864814375081254,
        -0.20020464336697633,
        -2.688461559587092,
        -2.6174052879859673,
        0.7205977066757114,
        -1.437654197065316,
        0.5205604853054348,
        -0.2694736903270114,
        1.4072379053810022,
        -0.1962049643214332,
        -1.1259699992169165,
        -1.5155874103733327,
        1.2507713478973324,
        1.0712256111625236,
        -3.8146771778925532,
        0.5899889400337983,
        -0.7851332837173016,
        -0.044367109311693534,
        -1.1169516086283116,
        -0.8543321899086382
      ]
    },
    "weights_W": {
      "shape": [
        8,
        3
      ],
      "sign_invariant": true,
      "values": [
        0.4616023495160924,
        0.03851089189684375,
        -0.17751380896121682,
        -0.3726172880215749,
        -0.3303325199426402,
        -0.16291444865996954,
        0.32092908569042944,
        -0.24548721721649883,
        -0.3828215059098444,
        0.33816947807649245,
        0.32377696556991875,
        -0.5124512167030405,
        -0.193895329713032,
        0.7030469025897615,
        0.07651832486170605,
        0.1763741757023368,
        0.07214296637762414,
        0.6166453483977135,
        0.46922884737669224,
        -0.3547575869236159,
        0.3481716767443314,
        -0.37662526959085524,
        -0.31459392858827157,
        -0.15955913929090093
      ]
    },
    "x_mean": {
      "shape": [
        8
      ],
      "values": [
        -0.08910373102440068,
        -0.024738872747320936,
        -0.11426474619220756,
        -0.06366740535075392,
        0.10137529236162257,
        0.07912612529581099,
        -0.020640861346480882,
        -0.015582153720357681
      ]
    },
    "x_scale": {
      "shape": [
        8
      ],
      "values": [
        0.6762830479209603,
        0.6252490706236296,
        0.5660223003447092,
        0.4373623168541891,
        0.5932561994607622,
        0.4345812620132174,
        0.6077823785632241,
        0.46583949092961024
      ]
    },
    "y_loadings_Q": {
      "shape": [
        1,
        3
      ],
      "sign_invariant": true,
      "values": [
        0.49554765704675097,
        0.0,
        0.0
      ]
    },
    "y_mean": {
      "shape": [
        1
      ],
      "values": [
        -0.10509662085686962
      ]
    },
    "y_scale": {
      "shape": [
        1
      ],
      "values": [
        1.2260210501509246
      ]
    }
  },
  "fixture_id": "synthetic_opls_small_pls1_v1",
  "generator": {
    "git_revision_sha": "unknown",
    "name": "pls4all_parity.suites._opls_expected",
    "params": {
      "algorithm": "opls-nipals",
      "deflation_mode": "orthogonal",
      "n_components": 3,
      "reference": "NumPy OPLS1 NIPALS recurrence",
      "scale": true
    },
    "version": "1"
  },
  "schema_version": 1
}
