{
  "comparison_policy": {
    "components_alignment": "first-k-prefix",
    "sign_resolver": "max_abs_element_positive",
    "tolerance_table_row": "sklearn/PLSCanonical/svd"
  },
  "data": {
    "X": {
      "dtype": "f64",
      "layout": "row_major",
      "rng_seed": 103,
      "shape": [
        15,
        7
      ],
      "values": [
        1.1033480291669078,
        -1.2797841239751133,
        0.6481524460097935,
        -1.1995804426934285,
        1.0718006981155832,
        -1.5560715349108816,
        -0.7105309630341533,
        -0.6066608632747601,
        -2.105322574068118,
        0.8527737322826466,
        -1.551386609743335,
        -1.3072612121831773,
        -0.5646963664829329,
        0.744237447131261,
        -0.8133472171378039,
        1.9887832560377303,
        -0.024931994583228097,
        -0.2890524077947491,
        0.4485927312823366,
        -0.13116896935926167,
        -1.057703580212635,
        -0.549869397158053,
        0.1667478627257178,
        1.5769562892902138,
        0.2634458631344247,
        0.47554186929557557,
        -2.2375499447439555,
        -0.2677599384484587,
        -0.027921524548287956,
        1.759708974721206,
        1.5938564802635404,
        0.11858043104095156,
        0.5280378759777387,
        -0.06954886958745878,
        -0.7305801826195146,
        0.016020440204882764,
        -0.3773302060805454,
        0.3226306016496057,
        0.6819787070103537,
        -0.20127622880720827,
        1.1144819217545403,
        -1.1311667120858937,
        0.012803506656349668,
        0.20074320245316524,
        -1.837926614363839,
        0.6229730974484806,
        0.7183945683990153,
        1.7221246868259796,
        -0.044811192557111225,
        0.6095416029934295,
        0.6543434385476332,
        -1.635373387116912,
        0.30098609641530255,
        -1.4431539385241614,
        0.28977746244795033,
        0.7309026215962795,
        0.2757010368593242,
        -2.0547103680268237,
        1.4658215577686189,
        0.3060678833591241,
        1.003128834295958,
        -0.6852543624629319,
        -0.3887817819491882,
        2.089103045138072,
        -0.19544300551916213,
        -0.4284641000506677,
        -0.3709508629817213,
        1.004057722807098,
        -1.5744845644398962,
        -0.3183327690262635,
        -0.8887480242785176,
        2.5092174540964742,
        1.0878608862729178,
        0.10442591049065442,
        0.23564271512215107,
        -0.22458837019370617,
        -0.4379084799082495,
        -0.1632804919805262,
        1.7799399473772193,
        -0.2910676446765863,
        -0.2659744346698842,
        0.31306431040497285,
        1.4863821588688264,
        0.48511426538773555,
        -1.061665273000898,
        0.06644390659211788,
        0.02652254367688962,
        -1.3234783818597444,
        -0.7410038567389298,
        0.3516146145610528,
        -0.42840005400870323,
        1.6889779711457977,
        0.35812252146858775,
        -0.4553374268936985,
        -0.0684468058307475,
        -0.9053071707989895,
        -0.6552464357545071,
        0.7838475637245512,
        -0.056158023826986335,
        -1.9140057798724228,
        -1.3365247002767777,
        0.5964144873585306,
        -1.1313878980279006,
        -0.2987119020381646,
        1.1150061882912217
      ]
    },
    "Y": {
      "dtype": "f64",
      "layout": "row_major",
      "rng_seed": 103,
      "shape": [
        15,
        3
      ],
      "values": [
        -0.5663725911669569,
        -0.4843400465131977,
        -0.4784607924317561,
        0.40828018075846234,
        -1.0249626906550042,
        0.9412638878530729,
        -1.5201414274102254,
        1.29728153709672,
        -1.021586683132603,
        -0.4686742523588271,
        -0.0015574379167055674,
        -0.36180525914483314,
        -0.6792488390788626,
        1.370850380350217,
        -0.08829383579458093,
        0.3654149428999601,
        0.30765840623902413,
        0.33278169421925347,
        0.10405091977266126,
        0.30903608932920784,
        -0.4559677084050169,
        0.5977878717361148,
        -0.7677433849631051,
        0.11133585991686012,
        0.5454681025256839,
        -0.45654351694745143,
        0.4066241952750688,
        -0.21958826360166875,
        -0.6765873808712907,
        -0.6896343513616219,
        -1.0953170415622953,
        1.5401115479429102,
        -0.41514401778004284,
        -0.39358783315033274,
        1.2830930533852214,
        -0.056745725320509616,
        -0.8141135324990052,
        0.3748560029744621,
        -0.07634277190853403,
        0.7685777088958922,
        -0.9021533215868458,
        0.338457648850837,
        1.2706367698730194,
        -1.7771462559325715,
        0.4909672416058938
      ]
    }
  },
  "expected": {
    "coefficients": {
      "shape": [
        7,
        3
      ],
      "values": [
        0.2917954851791869,
        -0.402190120328246,
        -0.20812533112017714,
        -0.08822670206221374,
        0.35587028201645116,
        -0.1263527517641914,
        -0.33231766183947936,
        0.10844532610225716,
        0.14707687767323893,
        0.6541632601882257,
        0.43667578027466575,
        -0.15348364471139644,
        -0.11289885870000381,
        0.0930458185147557,
        -0.39695621976380535,
        0.19786906438176996,
        0.5336008270965776,
        0.1244710742694975,
        0.3911345956070392,
        -0.2588844023273638,
        0.31389164220743676
      ]
    },
    "intercept": {
      "shape": [
        3
      ],
      "values": [
        -0.11312181895775866,
        0.026123532128772706,
        -0.0681700411705675
      ]
    },
    "loadings_P": {
      "shape": [
        7,
        3
      ],
      "sign_invariant": true,
      "values": [
        -0.2742275180101746,
        -0.7275460184203809,
        0.15584240636101943,
        0.47645389483594625,
        0.18379900377812028,
        0.3019440456474195,
        0.3800134529716488,
        -0.014469607854797664,
        -0.5067106868258967,
        0.013402919826743742,
        -0.02334972086293927,
        0.6315575388908269,
        0.48525940336236334,
        -0.5368199059072977,
        0.05446968734344874,
        0.049260362927178884,
        0.5512547084003849,
        0.49436120441126136,
        -0.6093097695568112,
        0.19654432343563238,
        0.07070514319620384
      ]
    },
    "predict_train": {
      "shape": [
        15,
        3
      ],
      "values": [
        -1.1988451989813198,
        -1.738627762586342,
        -0.6380284347223526,
        -0.8893553698537915,
        -1.54507869510278,
        1.430688939746081,
        -1.0106789189604395,
        1.3122666705534858,
        -0.5750835552922482,
        -1.0548126786002285,
        -0.35309305755893455,
        -0.2738239230210509,
        -0.901405630557709,
        1.2239943491026977,
        -0.4552700149713623,
        0.250904164848057,
        1.2216222518625897,
        -0.15669243263537214,
        1.3196711369883933,
        1.2971362699487896,
        -0.48621286381661644,
        1.4398605485423852,
        -0.066325947870206,
        0.33473222836081995,
        -0.3528577474747838,
        -0.560393699861206,
        -0.24204658861376183,
        0.050370561700118194,
        -1.6217778790141808,
        -1.118018155032538,
        -0.9430180855096596,
        1.590180771375373,
        -0.2544230922675162,
        0.23978527849046474,
        1.4088163447331945,
        0.012739330560817483,
        -1.1313436515810578,
        0.26591539191197755,
        0.6156693036896291,
        0.9201488967026247,
        -1.1071615889603086,
        0.06324963298704918,
        1.5647494098805663,
        -0.935620436602559,
        0.7199690074699098
      ]
    },
    "rotations_R": {
      "shape": [
        7,
        3
      ],
      "sign_invariant": true,
      "values": [
        -0.2732215301145508,
        -0.5484556514586374,
        0.2310881395526228,
        0.6073332735070409,
        0.060825855020730527,
        0.2628817776248829,
        0.22414436290070816,
        0.363034648062224,
        -0.43992892430625685,
        -0.07691465420607464,
        -0.017998343997578464,
        0.7038959718363191,
        0.45035519835292026,
        -0.46735829757449215,
        0.19385935627513023,
        0.07091885410624527,
        0.5547229411514297,
        0.41352015566580125,
        -0.5408238552153924,
        0.19306273756226722,
        0.030490074187435913
      ]
    },
    "scores_T": {
      "shape": [
        15,
        3
      ],
      "sign_invariant": true,
      "values": [
        0.27540252027104106,
        -1.8441451791702108,
        -1.553405609285901,
        -1.7235849916728863,
        1.3520306205752546,
        -2.6427456369476396,
        1.9780894816527832,
        0.13091512460334948,
        0.08649417672433883,
        0.6980468805013758,
        -0.4490629516210778,
        -0.9922816988145461,
        1.727388972697082,
        0.24477539473035997,
        0.06735180589050035,
        0.5388115051107776,
        0.5743454185698254,
        1.0191011777435555,
        0.034391454329428306,
        0.01752764167529197,
        2.3791111215381804,
        -1.6581769244557139,
        0.38935031924657404,
        1.2385954944467643,
        -0.01886115561504098,
        -0.6019380829213152,
        -0.4046388249077323,
        -0.21038824473733075,
        -2.6196146628522943,
        0.11890843590042639,
        1.8077309048205255,
        0.7786978276914192,
        0.059065184829976025,
        0.5113324394097454,
        0.9465228677395805,
        0.9768197987078214,
        0.3405887518438389,
        1.28018177244642,
        -1.4108626506207358,
        -1.6502426654966424,
        -0.6135522347290299,
        0.3980165886625433,
        -2.6505289286589844,
        0.4139661240158525,
        0.6604706361324484
      ]
    },
    "weights_W": {
      "shape": [
        7,
        3
      ],
      "sign_invariant": true,
      "values": [
        -0.27322153011455086,
        -0.5500954979185134,
        0.16706706893724857,
        0.6073332735070409,
        0.06447100450110987,
        0.24512119881789932,
        0.22414436290070822,
        0.36437993860301626,
        -0.39941722917430006,
        -0.07691465420607468,
        -0.018459977542195305,
        0.7047225141656593,
        0.4503551983529202,
        -0.46465531374523006,
        0.10987086116204597,
        0.0709188541062453,
        0.5551485885438435,
        0.48712329936801224,
        -0.5408238552153924,
        0.18981677051120902,
        0.08047069350938565
      ]
    },
    "x_mean": {
      "shape": [
        7
      ],
      "values": [
        0.10852298779726204,
        0.10383030043184441,
        0.10432991128350112,
        -0.13826649795438584,
        0.00459140137467083,
        -0.2021960317010231,
        -0.11045783784794148
      ]
    },
    "x_scale": {
      "shape": [
        7
      ],
      "values": [
        0.9252496393502473,
        1.4909123756322,
        1.1264059676843876,
        0.7118762022927764,
        0.8871910149203819,
        1.11156180727558,
        0.7139649455018251
      ]
    },
    "y_loadings_Q": {
      "shape": [
        3,
        3
      ],
      "sign_invariant": true,
      "values": [
        -0.6220795521122698,
        0.004971664803298221,
        0.788417740944508,
        0.5788319976886012,
        0.596799904010052,
        0.513750283928433,
        -0.5344141557832724,
        0.8033099868022436,
        -0.3383165847655307
      ]
    },
    "y_mean": {
      "shape": [
        3
      ],
      "values": [
        -0.11312181895775866,
        0.026123532128772706,
        -0.0681700411705675
      ]
    },
    "y_scale": {
      "shape": [
        3
      ],
      "values": [
        0.7726340633733217,
        1.0146701427450637,
        0.5166176561159255
      ]
    }
  },
  "fixture_id": "synthetic_canonical_svd_small_pls2_v1",
  "generator": {
    "git_revision_sha": "unknown",
    "name": "pls4all_parity.suites._canonical_pls_expected",
    "params": {
      "algorithm": "svd",
      "deflation_mode": "canonical",
      "n_components": 3,
      "reference": "NumPy mirror of sklearn PLSCanonical(svd)",
      "scale": true
    },
    "version": "1"
  },
  "schema_version": 1
}
